{"learner":{"attributes":{"best_iteration":"249","best_ntree_limit":"250","scikit_learn":"{\"use_label_encoder\": false, \"n_estimators\": 250, \"objective\": \"binary:logistic\", \"max_depth\": 7, \"max_leaves\": null, \"max_bin\": null, \"grow_policy\": null, \"learning_rate\": 0.05, \"verbosity\": null, \"booster\": null, \"tree_method\": null, \"gamma\": 0, \"min_child_weight\": 3, \"max_delta_step\": null, \"subsample\": 0.9, \"sampling_method\": null, \"colsample_bytree\": 0.8, \"colsample_bylevel\": null, \"colsample_bynode\": null, \"reg_alpha\": 0.01, \"reg_lambda\": 1.5, \"scale_pos_weight\": 1.34375, \"base_score\": null, \"missing\": NaN, \"num_parallel_tree\": null, \"random_state\": 42, \"n_jobs\": -1, \"monotone_constraints\": null, \"interaction_constraints\": null, \"importance_type\": null, \"gpu_id\": null, \"validate_parameters\": null, \"predictor\": null, \"enable_categorical\": false, \"feature_types\": null, \"max_cat_to_onehot\": null, \"max_cat_threshold\": null, \"eval_metric\": \"logloss\", \"early_stopping_rounds\": null, \"callbacks\": null, \"classes_\": [0, 1], \"n_classes_\": 2, \"_estimator_type\": \"classifier\"}"},"feature_names":["num_edges","cyclomatic_complexity","edge_locality_score","ratio_nodes_ge_3","ratio_nodes_eq_2"],"feature_types":["int","int","float","float","float"],"gradient_booster":{"model":{"gbtree_model_param":{"num_parallel_tree":"1","num_trees":"250","size_leaf_vector":"0"},"tree_info":[0,0,0,0,0,0,0,0,0,0,0,0,0,0,0,0,0,0,0,0,0,0,0,0,0,0,0,0,0,0,0,0,0,0,0,0,0,0,0,0,0,0,0,0,0,0,0,0,0,0,0,0,0,0,0,0,0,0,0,0,0,0,0,0,0,0,0,0,0,0,0,0,0,0,0,0,0,0,0,0,0,0,0,0,0,0,0,0,0,0,0,0,0,0,0,0,0,0,0,0,0,0,0,0,0,0,0,0,0,0,0,0,0,0,0,0,0,0,0,0,0,0,0,0,0,0,0,0,0,0,0,0,0,0,0,0,0,0,0,0,0,0,0,0,0,0,0,0,0,0,0,0,0,0,0,0,0,0,0,0,0,0,0,0,0,0,0,0,0,0,0,0,0,0,0,0,0,0,0,0,0,0,0,0,0,0,0,0,0,0,0,0,0,0,0,0,0,0,0,0,0,0,0,0,0,0,0,0,0,0,0,0,0,0,0,0,0,0,0,0,0,0,0,0,0,0,0,0,0,0,0,0,0,0,0,0,0,0,0,0,0,0,0,0,0,0,0,0,0,0],"trees":[{"base_weights":[-8.818694E-4,2.796541E-1,-6.20449E-1,4.3010065E-1,-2.9701492E-2,-4.3154186E-1,-8.9539206E-1,5.928866E-1,-1.0455672E-1,-3.7496448E-1,3.135862E-1,-9.297778E-1,-2.9353878E-1,-3.471716E-1,-1.1419705E0,7.66319E-1,-8.1218E-2,1.2533438E-1,-4.066201E-1,-8.0499154E-1,-2.0193414E-1,7.3579466E-1,-4.231997E-2,-1.4443868E0,9.8991096E-2,-3.7753618E-1,1.6846521E-1,3.106813E-1,-8.958025E-1,-7.874851E-1,-1.545819E0,1.1343721E0,6.1779284E-1,4.9745068E-1,-9.68285E-1,3.010909E-1,-4.3087718E-1,-1.1840702E0,3.7021898E-2,6.486747E-1,-3.838289E-1,3.093604E-1,9.6084344E-1,5.831941E-1,-3.0031845E-1,-2.6983175E-1,-8.1797355E-1,4.4761246E-1,-1.21749625E-1,-1.0972738E0,2.0361371E-1,3.106813E-1,1.3878261E0,-5.972816E-1,7.970843E-1,6.3939303E-1,1.1845127E-1,-2.6890323E-1,-1.2846214E0,-2.0823021E-1,4.9524805E-1,-3.1107333E-1,5.551047E-1,-7.3966694E-1,-9.7661205E-2,-1.7469388E-1,6.939219E-1,-7.718544E-1,3.093604E-1,-5.346494E-1,3.0378807E-1,-5.651337E-1,-1.2807889E0,-7.7709633E-1,-1.7469388E-1,9.0143895E-1,1.1653979E-1,2.2060606E-1,9.285794E-1,6.8586665E-1,1.1845127E-1,-2.6497623E-2,-1.1127981E0,6.486747E-1,-4.4972017E-1,-1.0506303E0,-3.593149E-1,4.4761246E-1,7.465776E-2,-2.3720242E-1,-7.242129E-1,8.6032593E-1,-1.1754625E-1],"categories":[],"categories_nodes":[],"categories_segments":[],"categories_sizes":[],"default_left":[1,1,1,1,1,1,1,1,1,1,1,1,1,1,1,1,1,1,1,0,1,1,1,0,0,1,1,0,0,1,0,1,1,1,1,1,0,0,1,0,1,1,0,0,1,1,0,0,0,1,0,0,0,1,1,1,0,0,0,0,1,0,0,1,1,0,0,1,1,1,1,0,0,0,0,0,0,0,0,0,0,0,0,0,0,0,0,0,0,0,0,0,0],"id":0,"left_children":[1,3,5,7,9,11,13,15,17,19,21,23,25,27,29,31,33,35,37,-1,39,41,43,-1,-1,45,47,-1,-1,49,-1,51,53,55,57,59,-1,-1,61,-1,63,65,-1,-1,67,69,-1,-1,-1,71,-1,-1,-1,73,75,77,-1,-1,-1,-1,79,-1,-1,81,83,-1,-1,85,87,89,91,-1,-1,-1,-1,-1,-1,-1,-1,-1,-1,-1,-1,-1,-1,-1,-1,-1,-1,-1,-1,-1,-1],"loss_changes":[5.0645737E1,9.356917E0,4.124222E0,1.1851633E1,8.118133E0,3.480401E0,4.1987915E0,1.2231613E1,2.3556435E0,2.2835178E0,5.222579E0,6.369954E0,1.9077854E0,5.1885657E0,1.5674915E0,3.4514198E0,1.2316975E1,2.1232553E0,5.091887E0,0E0,4.4455514E0,1.0604296E0,3.498868E0,0E0,0E0,1.553308E0,7.489278E-1,0E0,0E0,5.1894035E0,0E0,3.920992E0,1.4272333E1,6.668441E-1,1.5525293E0,1.7297285E0,0E0,0E0,2.1916823E0,0E0,2.1895478E0,1.6194999E0,0E0,0E0,4.735721E0,5.465287E0,0E0,0E0,0E0,9.3624115E-2,0E0,0E0,0E0,4.5945907E-1,3.729351E0,9.2826176E-1,0E0,0E0,0E0,0E0,7.297435E-1,0E0,0E0,2.5659337E0,4.1921587E0,0E0,0E0,4.5649195E-1,1.9434911E-1,1.0894742E0,2.9253514E0,0E0,0E0,0E0,0E0,0E0,0E0,0E0,0E0,0E0,0E0,0E0,0E0,0E0,0E0,0E0,0E0,0E0,0E0,0E0,0E0,0E0,0E0],"parents":[2147483647,0,0,1,1,2,2,3,3,4,4,5,5,6,6,7,7,8,8,9,9,10,10,11,11,12,12,13,13,14,14,15,15,16,16,17,17,18,18,20,20,21,21,22,22,25,25,26,26,29,29,31,31,32,32,33,33,34,34,35,35,38,38,40,40,41,41,44,44,45,45,49,49,53,53,54,54,55,55,60,60,63,63,64,64,67,67,68,68,69,69,70,70],"right_children":[2,4,6,8,10,12,14,16,18,20,22,24,26,28,30,32,34,36,38,-1,40,42,44,-1,-1,46,48,-1,-1,50,-1,52,54,56,58,60,-1,-1,62,-1,64,66,-1,-1,68,70,-1,-1,-1,72,-1,-1,-1,74,76,78,-1,-1,-1,-1,80,-1,-1,82,84,-1,-1,86,88,90,92,-1,-1,-1,-1,-1,-1,-1,-1,-1,-1,-1,-1,-1,-1,-1,-1,-1,-1,-1,-1,-1,-1],"split_conditions":[2.5E0,4.15E1,2.4807692E-1,2.1825397E-1,1.7888889E-1,1.7316341E-1,2.3746867E-1,4.6770835E-1,1.5E0,3.336746E-1,3.2811353E-1,4.352227E-1,2.3582888E-1,3.1464648E-1,2.7518594E-1,2.8989813E-1,1.45E1,2.891986E-1,1.75E1,-4.024958E-2,3.526538E-1,2.9221594E-1,5.1E1,-7.221934E-2,4.949555E-3,4.1048536E-1,5.8E1,1.5534066E-2,-4.4790126E-2,2.6894376E-1,-7.729095E-2,1.7E1,3.190909E-1,7.416667E-1,5.153774E-1,5E-1,-2.1543859E-2,-5.9203513E-2,3.1698564E-1,3.2433737E-2,1.316115E-1,5.75E1,4.8042174E-2,2.9159704E-2,6.05E1,3.6214605E-1,-4.0898677E-2,2.2380624E-2,-6.0874815E-3,2.5186568E-1,1.0180686E-2,1.5534066E-2,6.93913E-2,3.75E1,1.846591E-1,5E-1,5.9225634E-3,-1.3445161E-2,-6.423107E-2,-1.0411511E-2,1.75E1,-1.5553667E-2,2.7755234E-2,1.1251758E-1,1.5239477E-1,-8.734695E-3,3.46961E-2,3.7394068E-1,1.9204426E-1,5.45E1,4.4E1,-2.8256685E-2,-6.403945E-2,-3.885482E-2,-8.734695E-3,4.507195E-2,5.8269897E-3,1.1030303E-2,4.642897E-2,3.4293335E-2,5.9225634E-3,-1.3248812E-3,-5.5639904E-2,3.2433737E-2,-2.2486009E-2,-5.2531518E-2,-1.7965745E-2,2.2380624E-2,3.732888E-3,-1.1860121E-2,-3.6210645E-2,4.3016296E-2,-5.8773127E-3],"split_indices":[1,0,3,3,3,3,4,4,1,4,4,4,3,3,3,4,0,4,0,0,4,4,0,0,0,4,0,0,0,3,0,0,4,4,4,1,0,0,4,0,3,0,0,0,0,4,0,0,0,3,0,0,0,0,3,1,0,0,0,0,0,0,0,3,3,0,0,4,3,0,0,0,0,0,0,0,0,0,0,0,0,0,0,0,0,0,0,0,0,0,0,0,0],"split_type":[0,0,0,0,0,0,0,0,0,0,0,0,0,0,0,0,0,0,0,0,0,0,0,0,0,0,0,0,0,0,0,0,0,0,0,0,0,0,0,0,0,0,0,0,0,0,0,0,0,0,0,0,0,0,0,0,0,0,0,0,0,0,0,0,0,0,0,0,0,0,0,0,0,0,0,0,0,0,0,0,0,0,0,0,0,0,0,0,0,0,0,0,0],"sum_hessian":[2.883672E2,1.9904688E2,8.932031E1,1.3354688E2,6.55E1,5.525E1,3.4070312E1,1.02265625E2,3.128125E1,3.2601562E1,3.2898438E1,1.01015625E1,4.5148438E1,1.1703125E1,2.2367188E1,8.11875E1,2.1078125E1,1.8242188E1,1.30390625E1,7.765625E0,2.4835938E1,1.4328125E1,1.8570312E1,6.3359375E0,3.765625E0,3.8453125E1,6.6953125E0,5.609375E0,6.09375E0,1.428125E1,8.0859375E0,2.0460938E1,6.0726562E1,1.31484375E1,7.9296875E0,1.43984375E1,3.84375E0,3.8359375E0,9.203125E0,3.6875E0,2.1148438E1,6.1953125E0,8.1328125E0,4.859375E0,1.37109375E1,3.2859375E1,5.59375E0,3.015625E0,3.6796875E0,1.0765625E1,3.515625E0,5.609375E0,1.48515625E1,7.3515625E0,5.3375E1,8.796875E0,4.3515625E0,3.34375E0,4.5859375E0,3.9296875E0,1.046875E1,5.8515625E0,3.3515625E0,8.3515625E0,1.2796875E1,3.09375E0,3.1015625E0,7.515625E0,6.1953125E0,2.25625E1,1.0296875E1,4.34375E0,6.421875E0,4.2578125E0,3.09375E0,4.584375E1,7.53125E0,4.6875E0,4.109375E0,6.1171875E0,4.3515625E0,3.4296875E0,4.921875E0,3.6875E0,9.109375E0,3.0859375E0,4.4296875E0,3.015625E0,3.1796875E0,1.01171875E1,1.24453125E1,3.7734375E0,6.5234375E0],"tree_param":{"num_deleted":"0","num_feature":"5","num_nodes":"93","size_leaf_vector":"0"}},{"base_weights":[-7.1073147E-3,1.819525E-1,-4.5057893E-1,3.675609E-1,-3.9734828E-1,-7.014892E-1,-1.9227976E-1,8.030244E-1,2.58929E-1,-8.218576E-1,-3.413624E-2,-4.8906738E-1,-1.0048022E0,-6.277283E-2,-1.1555798E0,-2.719584E-1,1.1030058E0,-1.9914494E-1,4.0550062E-1,3.8569602E-1,-1.2633892E0,9.313709E-1,-2.935535E-1,-5.668848E-1,9.620179E-2,-1.2235626E0,-6.1553836E-1,1.08984254E-1,-5.411085E-1,1.3096504E0,1.0816931E-1,-5.6740755E-1,1.1784346E-1,5.45582E-1,-1.2741323E-1,-5.810086E-1,-1.666864E0,-6.653285E-1,3.2760364E-1,-3.382023E-1,-7.189665E-1,-1.7861724E-1,-8.9359355E-1,-4.3527383E-2,8.053372E-1,1.234474E-1,-9.8161083E-1,2.884332E-1,-8.3857685E-1,4.4870865E-1,-4.1830426E-1,6.413713E-1,-3.5845375E-1,6.496494E-1,-8.4256524E-1,-1.2219261E0,4.37953E-1,-8.580069E-1,-1.4214079E-1,7.866253E-1,-8.8788636E-2,-4.347036E-1,-4.1910097E-2,-8.335957E-1,-3.465899E-1,-5.148521E-1,1.8355168E-1,1.3788246E-2,8.665915E-1,-5.157188E-1,-1.7864858E-1,3.5586992E-1,8.912031E-1,1.9946362E-1,-8.2003146E-1,1.2974192E-1,1.0257989E0,-1.356239E0,-1.176159E-1,-1.0359951E0,-3.4101433E-1,-1.878369E-1,-5.507204E-1,-7.336501E-3,-8.0099744E-1,-3.1167677E-1,4.7193244E-1],"categories":[],"categories_nodes":[],"categories_segments":[],"categories_sizes":[],"default_left":[1,1,1,1,1,1,1,1,1,1,1,1,1,1,0,0,1,1,1,0,1,0,1,1,0,0,1,1,1,0,0,1,1,1,1,1,0,1,1,1,1,0,0,1,0,0,0,0,0,1,1,1,1,1,1,0,0,1,0,0,0,1,0,0,0,1,1,0,0,0,0,0,0,0,0,0,0,0,0,0,0,0,0,0,0,0,0],"id":1,"left_children":[1,3,5,7,9,11,13,15,17,19,21,23,25,27,-1,-1,29,31,33,-1,35,-1,37,39,-1,-1,41,43,45,-1,-1,47,49,51,53,55,-1,57,59,61,63,-1,-1,65,-1,-1,-1,-1,-1,67,69,71,73,75,77,-1,-1,79,-1,-1,-1,81,-1,-1,-1,83,85,-1,-1,-1,-1,-1,-1,-1,-1,-1,-1,-1,-1,-1,-1,-1,-1,-1,-1,-1,-1],"loss_changes":[2.4888649E1,2.2597004E1,5.539055E0,7.171335E0,7.8452806E0,2.1099682E0,5.593395E0,1.0421524E1,8.785582E0,1.3287862E1,7.7112274E0,1.4103131E0,2.871132E-1,3.5411148E0,0E0,0E0,4.8016396E0,3.8712115E0,7.4432335E0,0E0,3.3678932E0,0E0,5.906171E0,5.2503777E-1,0E0,0E0,8.552747E-1,3.4709969E0,3.5147088E0,0E0,0E0,3.8953805E0,3.5754814E0,7.1110344E0,1.2855569E1,6.588896E0,0E0,1.3806229E0,2.0298543E0,3.4528673E-1,1.6050339E-1,0E0,0E0,3.115873E0,0E0,0E0,0E0,0E0,0E0,2.1936119E0,3.8127422E-2,4.5879326E0,2.4237099E0,1.9824901E0,4.1904573E0,0E0,0E0,4.7737312E-1,0E0,0E0,0E0,1.1727786E-1,0E0,0E0,0E0,1.3530726E0,3.0533535E0,0E0,0E0,0E0,0E0,0E0,0E0,0E0,0E0,0E0,0E0,0E0,0E0,0E0,0E0,0E0,0E0,0E0,0E0,0E0,0E0],"parents":[2147483647,0,0,1,1,2,2,3,3,4,4,5,5,6,6,7,7,8,8,9,9,10,10,11,11,12,12,13,13,16,16,17,17,18,18,20,20,22,22,23,23,26,26,27,27,28,28,31,31,32,32,33,33,34,34,35,35,37,37,38,38,39,39,40,40,43,43,49,49,50,50,51,51,52,52,53,53,54,54,57,57,61,61,65,65,66,66],"right_children":[2,4,6,8,10,12,14,16,18,20,22,24,26,28,-1,-1,30,32,34,-1,36,-1,38,40,-1,-1,42,44,46,-1,-1,48,50,52,54,56,-1,58,60,62,64,-1,-1,66,-1,-1,-1,-1,-1,68,70,72,74,76,78,-1,-1,80,-1,-1,-1,82,-1,-1,-1,84,86,-1,-1,-1,-1,-1,-1,-1,-1,-1,-1,-1,-1,-1,-1,-1,-1,-1,-1,-1,-1],"split_conditions":[5.1E1,2.3904762E-1,6.05E1,2.8989813E-1,4.691017E0,3.6803406E-1,2.576037E-1,3.5682585E0,3.442888E-1,7.5E0,2.75E1,3.608834E-1,1.2688221E1,6.75E1,-5.777899E-2,-1.3597921E-2,8.377665E0,1.863426E-1,1.8561584E-1,1.9284802E-2,1.45E1,4.6568546E-2,8.913487E0,5.45E1,4.8100897E-3,-6.117813E-2,1.4027167E1,3.900966E-1,3.3105022E-1,6.548252E-2,5.4084654E-3,1.2097561E-1,3.301282E-1,6.125E-1,3.8207072E-1,2.6837616E0,-8.33432E-2,3.288288E-1,2.907859E-1,1.2728937E1,1.3730282E1,-8.930862E-3,-4.467968E-2,1.7859334E-1,4.026686E-2,6.17237E-3,-4.9080543E-2,1.44216595E-2,-4.1928843E-2,3.0602008E-1,5.621186E0,1.2973352E-1,1.1E1,7.770134E0,2.1059114E-1,-6.1096307E-2,2.189765E-2,2.8473684E-1,-7.1070394E-3,3.933127E-2,-4.4394317E-3,1.0620005E1,-2.095505E-3,-4.1679785E-2,-1.7329495E-2,1.5549451E-1,1.3374224E1,6.894123E-4,4.3329578E-2,-2.5785942E-2,-8.932429E-3,1.7793497E-2,4.4560157E-2,9.973181E-3,-4.1001573E-2,6.487096E-3,5.1289946E-2,-6.781195E-2,-5.880795E-3,-5.1799756E-2,-1.7050717E-2,-9.391845E-3,-2.753602E-2,-3.6682506E-4,-4.0049873E-2,-1.5583838E-2,2.3596622E-2],"split_indices":[0,3,0,4,2,4,3,2,4,0,0,4,2,0,0,0,2,3,3,0,0,0,2,0,0,0,2,4,4,0,0,3,4,4,4,2,0,4,4,2,2,0,0,3,0,0,0,0,0,4,2,3,0,2,3,0,0,3,0,0,0,2,0,0,0,3,2,0,0,0,0,0,0,0,0,0,0,0,0,0,0,0,0,0,0,0,0],"split_type":[0,0,0,0,0,0,0,0,0,0,0,0,0,0,0,0,0,0,0,0,0,0,0,0,0,0,0,0,0,0,0,0,0,0,0,0,0,0,0,0,0,0,0,0,0,0,0,0,0,0,0,0,0,0,0,0,0,0,0,0,0,0,0,0,0,0,0,0,0,0,0,0,0,0,0,0,0,0,0,0,0,0,0,0,0,0,0],"sum_hessian":[2.938507E2,2.0662486E2,8.722584E1,1.5691478E2,4.9710087E1,4.29206E1,4.4305233E1,2.9396238E1,1.2751855E2,2.2034866E1,2.767522E1,2.7566391E1,1.5354211E1,4.0472237E1,3.8329961E0,6.4367905E0,2.2959448E1,3.0764696E1,9.6753845E1,5.944414E0,1.6090452E1,5.0301056E0,2.2645115E1,2.438797E1,3.1784215E0,7.755269E0,7.598942E0,3.0616156E1,9.856081E0,1.860926E1,4.3501873E0,1.3697788E1,1.7066908E1,7.6601524E1,2.015232E1,7.3479548E0,8.7424965E0,1.4109643E1,8.535472E0,1.1698551E1,1.2689418E1,3.9273107E0,3.6716313E0,2.6257296E1,4.35886E0,4.3501863E0,5.505894E0,3.263967E0,1.0433821E1,1.0716729E1,6.3501787E0,6.96667E1,6.9348226E0,9.717253E0,1.0435067E1,4.33335E0,3.0146046E0,9.596435E0,4.513208E0,3.436951E0,5.0985208E0,8.270433E0,3.4281175E0,8.26153E0,4.427888E0,7.9335513E0,1.8323746E1,6.0223083E0,4.694421E0,3.2567747E0,3.093404E0,3.4228237E1,3.543847E1,3.5155942E0,3.4192286E0,4.937161E0,4.780092E0,5.3349247E0,5.1001425E0,6.004169E0,3.592266E0,3.9276786E0,4.342755E0,3.427624E0,4.5059276E0,6.686077E0,1.1637668E1],"tree_param":{"num_deleted":"0","num_feature":"5","num_nodes":"87","size_leaf_vector":"0"}},{"base_weights":[-1.0619443E-2,2.2355068E-1,-5.178924E-1,4.108954E-1,-1.4995763E-1,-1.4593825E0,-3.2801577E-1,5.435515E-1,1.3315936E-2,-9.237703E-1,-8.1506744E-2,-6.1401004E-1,-1.6546988E0,4.6424037E-1,-4.9043068E-1,-2.24381E-2,6.3087046E-1,4.9411646E-1,-5.420261E-1,-2.4031517E-1,2.911811E-1,-1.2675013E-1,9.068315E-1,-3.200965E-1,-8.5978824E-1,3.495065E-1,-3.7382263E-1,7.290947E-1,2.487346E-1,-2.3298928E-1,9.2373365E-1,-1.0869462E0,-1.6926903E-1,-3.0926667E-2,-5.594364E-1,5.3877634E-1,-4.8909542E-1,2.2958204E-1,-5.6314456E-1,-1.5521239E-1,-1.0974464E0,-7.628348E-1,7.596194E-2,8.7716925E-1,2.633696E-1,-5.3327274E-1,4.46328E-1,3.1480584E-1,-7.8778946E-1,1.2994868E0,2.6539168E-1,-9.345985E-1,3.7775025E-1,-2.0854671E-1,4.5405376E-1,-2.7946956E-2,-9.224307E-1,8.2759865E-2,7.46896E-1,-1.6775727E-1,1.0530648E0,-1.0828203E0,-3.7959728E-1,4.6140626E-1,1.192537E0,-3.443686E-1,6.416892E-1,2.370636E-1,7.321126E-1,5.4565084E-1,8.047473E-2,4.5213738E-1,-4.112456E-1,6.4933914E-1,8.988078E-2,-5.920633E-1,4.97691E-1,2.4187581E-1,-8.2833695E-1,-1.3528755E0,-4.2078376E-1,2.7768093E-1,-6.282687E-1],"categories":[],"categories_nodes":[],"categories_segments":[],"categories_sizes":[],"default_left":[1,1,1,1,1,1,1,1,1,0,1,0,0,1,1,1,1,1,1,1,1,0,0,1,1,0,1,1,1,1,1,0,1,1,1,1,0,1,1,0,0,0,0,1,1,0,1,0,0,0,0,0,1,1,1,1,0,0,0,1,0,1,1,0,0,0,0,0,0,0,0,0,0,0,0,0,0,0,0,0,0,0,0],"id":2,"left_children":[1,3,5,7,9,11,13,15,17,-1,19,-1,-1,21,23,25,27,29,31,33,35,-1,-1,37,39,-1,41,43,45,47,49,-1,51,53,55,57,-1,59,61,-1,-1,-1,-1,63,65,-1,67,-1,-1,-1,-1,-1,69,71,73,75,-1,-1,-1,77,-1,79,81,-1,-1,-1,-1,-1,-1,-1,-1,-1,-1,-1,-1,-1,-1,-1,-1,-1,-1,-1,-1],"loss_changes":[3.509288E1,1.4239553E1,1.5943037E1,7.1055107E0,3.510735E0,9.6549606E-1,1.058235E1,5.0285454E0,9.837367E0,0E0,3.9328296E0,0E0,0E0,3.920536E0,3.7771416E0,2.1512403E0,3.0113792E0,6.494679E0,3.1857738E0,3.0550568E0,4.2570353E0,0E0,0E0,6.625396E0,3.1094437E0,0E0,1.5688843E0,4.4003525E0,3.4833088E0,2.9658568E0,2.6127472E0,0E0,5.5356154E0,2.6808813E0,3.4623437E0,1.4075804E0,0E0,5.4452763E0,2.5938215E0,0E0,0E0,0E0,0E0,5.9360313E0,4.6581426E0,0E0,7.456062E-1,0E0,0E0,0E0,0E0,0E0,3.2848346E-1,3.3099031E0,4.999807E-1,3.0945063E0,0E0,0E0,0E0,3.5391088E0,0E0,5.588083E-1,4.7288218E0,0E0,0E0,0E0,0E0,0E0,0E0,0E0,0E0,0E0,0E0,0E0,0E0,0E0,0E0,0E0,0E0,0E0,0E0,0E0,0E0],"parents":[2147483647,0,0,1,1,2,2,3,3,4,4,5,5,6,6,7,7,8,8,10,10,13,13,14,14,15,15,16,16,17,17,18,18,19,19,20,20,23,23,24,24,26,26,27,27,28,28,29,29,30,30,32,32,33,33,34,34,35,35,37,37,38,38,43,43,44,44,46,46,52,52,53,53,54,54,55,55,59,59,61,61,62,62],"right_children":[2,4,6,8,10,12,14,16,18,-1,20,-1,-1,22,24,26,28,30,32,34,36,-1,-1,38,40,-1,42,44,46,48,50,-1,52,54,56,58,-1,60,62,-1,-1,-1,-1,64,66,-1,68,-1,-1,-1,-1,-1,70,72,74,76,-1,-1,-1,78,-1,80,82,-1,-1,-1,-1,-1,-1,-1,-1,-1,-1,-1,-1,-1,-1,-1,-1,-1,-1,-1,-1],"split_conditions":[2.5E0,9.379825E0,5.2377396E0,1.5E0,1.1970149E-1,1.45E1,3.45E1,9.166667E-2,1.846591E-1,-4.6188515E-2,6.05E1,-3.0700503E-2,-8.273494E-2,7.1557636E0,2.4807692E-1,1.1395385E0,2.204861E-1,1.2701613E-1,1.75E1,1.9264507E-1,6.75E1,-6.337506E-3,4.5341577E-2,9.719188E0,3.5E0,1.7475326E-2,6.458333E-2,7.4834795E0,2.3431373E-1,1.0960961E-1,3.1E1,-5.4347314E-2,2.2653958E-1,1.3662941E1,5.1E1,1.7777777E-1,-2.445477E-2,2.2996795E-1,1.1497783E1,-7.7606193E-3,-5.4872323E-2,-3.814174E-2,3.7980971E-3,1.55E-1,5E-1,-2.6663637E-2,3.8365612E0,1.5740292E-2,-3.9389472E-2,6.497434E-2,1.3269584E-2,-4.6729926E-2,4.949958E0,4.15E1,1.438652E1,9.885669E0,-4.6121534E-2,4.1379933E-3,3.7344802E-2,2.0980047E-1,5.2653242E-2,2.1103239E-1,1.2502687E1,2.3070313E-2,5.9626848E-2,-1.7218431E-2,3.208446E-2,1.185318E-2,3.660563E-2,2.7282542E-2,4.0237363E-3,2.260687E-2,-2.0562282E-2,3.246696E-2,4.494039E-3,-2.9603167E-2,2.488455E-2,1.2093791E-2,-4.141685E-2,-6.764378E-2,-2.1039188E-2,1.3884047E-2,-3.1413436E-2],"split_indices":[1,2,2,1,3,0,0,3,3,0,0,0,0,2,3,2,3,3,0,3,0,0,0,2,1,0,3,2,3,3,0,0,3,2,0,3,0,3,2,0,0,0,0,3,1,0,2,0,0,0,0,0,2,0,2,2,0,0,0,3,0,3,2,0,0,0,0,0,0,0,0,0,0,0,0,0,0,0,0,0,0,0,0],"split_type":[0,0,0,0,0,0,0,0,0,0,0,0,0,0,0,0,0,0,0,0,0,0,0,0,0,0,0,0,0,0,0,0,0,0,0,0,0,0,0,0,0,0,0,0,0,0,0,0,0,0,0,0,0,0,0,0,0,0,0,0,0,0,0,0,0,0,0,0,0,0,0,0,0,0,0,0,0,0,0,0,0,0,0],"sum_hessian":[2.9243732E2,2.006373E2,9.180003E1,1.3353519E2,6.7102104E1,1.371476E1,7.808527E1,9.969511E1,3.384008E1,3.9182742E0,6.3183834E1,3.750118E0,9.964642E0,1.279967E1,6.528561E1,1.3458557E1,8.623654E1,1.8235577E1,1.5604505E1,4.469722E1,1.8486614E1,5.9296546E0,6.870016E0,4.6615337E1,1.8670267E1,6.528074E0,6.9304833E0,6.749861E1,1.8737938E1,7.019191E0,1.1216387E1,5.1602077E0,1.0444297E1,2.8001192E1,1.6696026E1,1.4395688E1,4.090926E0,1.43050165E1,3.2310318E1,5.3452187E0,1.3325048E1,3.1684065E0,3.7620769E0,5.01933E1,1.730531E1,3.2553816E0,1.5482556E1,3.849318E0,3.169873E0,6.201074E0,5.015312E0,3.9180613E0,6.526235E0,2.1135935E1,6.8652573E0,7.4422536E0,9.253773E0,5.1831927E0,9.212495E0,1.0446668E1,3.8583486E0,6.5008717E0,2.5809448E1,2.3257822E1,2.6935476E1,6.681012E0,1.0624297E1,1.0542286E1,4.9402704E0,3.3482528E0,3.1779826E0,4.517199E0,1.6618736E1,3.6864085E0,3.1788487E0,3.5074813E0,3.934772E0,7.0256243E0,3.4210439E0,3.4948878E0,3.0059836E0,7.0252886E0,1.8784159E1],"tree_param":{"num_deleted":"0","num_feature":"5","num_nodes":"83","size_leaf_vector":"0"}},{"base_weights":[-2.0964809E-2,2.1942674E-1,-5.4704654E-1,3.9625177E-1,-1.3680989E-1,-1.3968011E0,-3.7475595E-1,5.140314E-1,-1.842542E-1,-2.7671716E-1,1.8163691E-1,-5.9262604E-1,-1.5861574E0,4.0509218E-1,-5.400027E-1,6.5532786E-1,5.1984902E-2,2.0020442E-1,-6.860853E-1,6.95551E-2,-5.289016E-1,4.3642688E-1,-6.791311E-1,5.2714035E-2,6.867716E-1,-2.1278828E-1,-6.943657E-1,2.0405947E-1,7.687919E-1,-2.7008745E-1,5.138297E-1,3.3718398E-1,-1.4537056E-1,-1.1568209E0,1.893537E-1,-7.535223E-1,4.9889427E-1,-3.3136874E-1,-9.9558526E-1,8.141038E-1,2.0326585E-1,2.3683348E-1,-1.6328731E-1,-4.6437386E-1,9.240553E-1,-1.1735192E-1,-7.9493463E-1,-9.157327E-2,4.8261783E-1,9.5639825E-1,4.1928238E-1,-7.901081E-1,2.9470202E-1,1.1480696E0,-5.238805E-1,7.561249E-2,6.713511E-1,-1.0655621E0,-1.7698833E-1,9.595724E-1,-1.6026032E-1,-6.015008E-1,8.550835E-2,-2.3500834E-1,7.902912E-1,-1.2013972E0,-1.4398116E-1,-3.1952134E-1,1.3854378E-1,-1.337813E0,-5.645888E-1,3.905715E-2,-2.2899379E-1,8.10476E-1,1.0010004E-1,1.1549091E0,7.766204E-1,2.2970678E-1,1.2628192E0,-2.6862293E-2,6.450498E-1,4.1115624E-1,1.1296676E0,-1.6445109E-1,-8.118582E-1,6.5498525E-1,-4.1188172E-1,-3.2417306E-1,-6.931506E-2,7.6515746E-1,-4.9547085E-1,-1.6282953E-1,-7.2056544E-1],"categories":[],"categories_nodes":[],"categories_segments":[],"categories_sizes":[],"default_left":[1,1,1,1,1,1,1,1,1,1,1,0,0,1,1,1,1,1,1,1,1,1,0,1,0,1,1,1,1,1,1,1,0,0,0,1,1,1,0,0,1,0,0,1,0,1,1,1,1,1,1,0,1,0,0,0,0,0,0,1,0,1,1,1,0,0,1,0,0,0,1,0,0,0,0,0,0,0,0,0,0,0,0,0,0,0,0,0,0,0,0,0,0],"id":3,"left_children":[1,3,5,7,9,11,13,15,17,19,21,-1,-1,23,25,27,29,31,33,35,37,39,-1,41,-1,43,45,47,49,51,53,55,-1,-1,-1,57,59,61,-1,-1,63,-1,-1,65,-1,67,69,71,73,75,77,-1,79,-1,-1,-1,-1,-1,-1,81,-1,83,85,87,-1,-1,89,-1,-1,-1,91,-1,-1,-1,-1,-1,-1,-1,-1,-1,-1,-1,-1,-1,-1,-1,-1,-1,-1,-1,-1,-1,-1],"loss_changes":[3.699501E1,1.2735483E1,1.2627533E1,9.349958E0,3.0934715E0,8.377857E-1,1.0423739E1,7.2752533E0,4.802157E0,4.222134E0,5.169383E0,0E0,0E0,1.3817399E0,3.0669994E0,4.1520615E0,4.368385E0,7.6770437E-1,4.7365723E0,8.12181E0,2.0519233E0,1.2873726E0,0E0,3.809163E-1,0E0,7.249071E0,2.3855362E0,1.660707E0,3.8476372E0,5.475898E0,8.815266E0,8.7311935E-1,0E0,0E0,0E0,1.130197E0,4.784705E0,2.5344653E0,0E0,0E0,3.5950046E0,0E0,0E0,4.4329605E0,0E0,4.9539664E-1,3.4648685E0,2.0583346E-1,1.1484828E0,1.7344284E-1,3.781736E0,0E0,1.0959728E0,0E0,0E0,0E0,0E0,0E0,0E0,1.3076973E-1,0E0,1.0232539E0,3.200186E0,8.815098E-2,0E0,0E0,5.5522857E0,0E0,0E0,0E0,1.6029911E0,0E0,0E0,0E0,0E0,0E0,0E0,0E0,0E0,0E0,0E0,0E0,0E0,0E0,0E0,0E0,0E0,0E0,0E0,0E0,0E0,0E0,0E0],"parents":[2147483647,0,0,1,1,2,2,3,3,4,4,5,5,6,6,7,7,8,8,9,9,10,10,13,13,14,14,15,15,16,16,17,17,18,18,19,19,20,20,21,21,23,23,25,25,26,26,27,27,28,28,29,29,30,30,31,31,35,35,36,36,37,37,40,40,43,43,45,45,46,46,47,47,48,48,49,49,50,50,52,52,59,59,61,61,62,62,63,63,66,66,70,70],"right_children":[2,4,6,8,10,12,14,16,18,20,22,-1,-1,24,26,28,30,32,34,36,38,40,-1,42,-1,44,46,48,50,52,54,56,-1,-1,-1,58,60,62,-1,-1,64,-1,-1,66,-1,68,70,72,74,76,78,-1,80,-1,-1,-1,-1,-1,-1,82,-1,84,86,88,-1,-1,90,-1,-1,-1,92,-1,-1,-1,-1,-1,-1,-1,-1,-1,-1,-1,-1,-1,-1,-1,-1,-1,-1,-1,-1,-1,-1],"split_conditions":[2.5E0,4.15E1,5.2377396E0,4.6770835E-1,6.05E1,1.45E1,3.45E1,1.5E0,1.45E1,5.1E1,6.75E1,-2.9631302E-2,-7.930788E-2,7.1557636E0,9.719188E0,2.634182E0,3.867302E-1,7.638889E-1,6.4446874E0,5E-1,3.7987012E-1,3.2428572E-1,-3.3956554E-2,3.5632184E-1,3.433858E-2,9.424251E0,2.7661943E-1,3.137255E-1,7.1472807E0,3.1E1,2.75E1,5.424837E-1,-7.268528E-3,-5.7841044E-2,9.467686E-3,9.723827E0,1.0769329E1,1.3662941E1,-4.9779262E-2,4.070519E-2,3.6602873E-1,1.1841674E-2,-8.164366E-3,3.75E1,4.6202764E-2,2.5602242E-1,1.1497783E1,2.361111E-1,4.0588236E-1,5E-1,4.05E1,-3.9505403E-2,3.3136413E-1,5.7403482E-2,-2.6194025E-2,3.7806246E-3,3.3567555E-2,-5.3278107E-2,-8.849417E-3,3.4900284E-1,-8.013017E-3,5E-1,1.416401E1,1.5E0,3.951456E-2,-6.006986E-2,6.8649836E0,-1.5976068E-2,6.9271894E-3,-6.689065E-2,1.2502687E1,1.9528576E-3,-1.144969E-2,4.05238E-2,5.005002E-3,5.7745457E-2,3.883102E-2,1.1485339E-2,6.314096E-2,-1.3431147E-3,3.225249E-2,2.0557811E-2,5.6483384E-2,-8.222555E-3,-4.059291E-2,3.274926E-2,-2.0594086E-2,-1.6208654E-2,-3.465753E-3,3.8257875E-2,-2.4773544E-2,-8.141477E-3,-3.6028273E-2],"split_indices":[1,0,2,4,0,0,0,1,0,0,0,0,0,2,2,2,4,4,2,1,4,4,0,4,0,2,4,4,2,0,0,4,0,0,0,2,2,2,0,0,4,0,0,0,0,4,2,4,4,1,0,0,4,0,0,0,0,0,0,4,0,1,2,1,0,0,2,0,0,0,2,0,0,0,0,0,0,0,0,0,0,0,0,0,0,0,0,0,0,0,0,0,0],"split_type":[0,0,0,0,0,0,0,0,0,0,0,0,0,0,0,0,0,0,0,0,0,0,0,0,0,0,0,0,0,0,0,0,0,0,0,0,0,0,0,0,0,0,0,0,0,0,0,0,0,0,0,0,0,0,0,0,0,0,0,0,0,0,0,0,0,0,0,0,0,0,0,0,0,0,0,0,0,0,0,0,0,0,0,0,0,0,0,0,0,0,0,0,0],"sum_hessian":[2.8958057E2,1.9934554E2,9.023503E1,1.3312561E2,6.6219925E1,1.3404376E1,7.683066E1,1.1082847E2,2.2297144E1,4.616544E1,2.0054485E1,3.7454038E0,9.658973E0,1.3042336E1,6.3788322E1,8.4376526E1,2.6451939E1,1.3124197E1,9.172948E0,1.9894754E1,2.6270685E1,1.6053644E1,4.000841E0,6.600896E0,6.441441E0,2.1610825E1,4.2177498E1,1.7813726E1,6.6562805E1,1.5938325E1,1.0513614E1,9.445524E0,3.6786728E0,5.6592093E0,3.5137384E0,6.423839E0,1.3470915E1,2.0275286E1,5.9954004E0,4.684828E0,1.1368817E1,3.5103254E0,3.0905702E0,1.842862E1,3.182206E0,6.757296E0,3.54202E1,9.113065E0,8.700663E0,4.1599968E1,2.4962835E1,7.995704E0,7.942621E0,6.432336E0,4.081278E0,6.346832E0,3.0986922E0,3.3312023E0,3.0926368E0,7.5357585E0,5.9351563E0,1.1914494E1,8.360791E0,7.0143495E0,4.354468E0,4.324588E0,1.4104031E1,3.588408E0,3.1688883E0,8.390444E0,2.7029757E1,5.185086E0,3.9279785E0,3.7673304E0,4.9333324E0,1.5876912E1,2.5723057E1,2.1950113E1,3.0127208E0,4.8487115E0,3.0939097E0,3.0113285E0,4.52443E0,4.7551446E0,7.159349E0,3.6857283E0,4.675063E0,3.5883152E0,3.4260342E0,3.4323518E0,1.06716795E1,8.434493E0,1.8595264E1],"tree_param":{"num_deleted":"0","num_feature":"5","num_nodes":"93","size_leaf_vector":"0"}},{"base_weights":[2.8652601E-2,2.050294E-1,-4.0637663E-1,3.5965547E-1,-2.8832772E-1,-1.0004857E0,-2.3371434E-1,8.100192E-1,2.7189198E-1,-4.6434212E-1,5.0469464E-1,-1.2015141E0,-2.6445493E-1,4.5500273E-1,-2.8349534E-1,-1.7280269E-1,1.1275272E0,3.8338596E-1,-7.436253E-2,3.4955475E-1,-6.4547217E-1,9.1322936E-2,6.7926824E-1,-6.4632094E-1,-1.4047849E0,-5.1909333E-1,-1.4411847E-1,1.2337109E0,5.564092E-1,4.4471776E-1,-2.3803757E-1,-6.4625776E-1,1.7318742E-1,5.321945E-1,7.980418E-2,-1.0800805E0,-2.0267716E-1,-1.079782E0,-2.6695096E-1,1.04203215E-2,-7.6679885E-1,-7.2757974E-2,5.363378E-1,2.8118655E-1,-9.6935105E-1,-1.0070941E0,-1.13397256E-1,1.1645068E0,-7.449458E-2,-5.186405E-1,-1.4952558E0,8.1724906E-1,-6.179086E-1,-5.0627023E-1,1.3542181E-1,-3.547415E-1,2.72232E-1,-1.2926577E-1,-1.0986155E0,-5.140872E-1,6.1932296E-1,6.0015327E-1,-2.4411783E-1,3.4374282E-1,-1.0823766E0,-1.1984769E0,5.247163E-1,-1.464444E-1,-8.6794794E-1,-7.7212E-1,-3.4766506E-2,3.508493E-1,-1.3021807E-1,9.818818E-2,-9.188189E-1,6.822955E-1,9.850065E-2],"categories":[],"categories_nodes":[],"categories_segments":[],"categories_sizes":[],"default_left":[1,1,1,1,1,1,1,1,1,1,1,1,0,0,1,0,1,1,1,1,1,0,0,0,0,1,1,0,0,1,1,1,1,0,0,1,1,0,1,1,1,1,1,0,0,0,0,0,1,1,0,0,1,1,1,1,1,0,0,0,0,0,0,0,0,0,0,0,0,0,0,0,0,0,0,0,0],"id":4,"left_children":[1,3,5,7,9,11,13,15,17,19,21,23,-1,-1,25,-1,27,29,31,33,35,-1,-1,-1,-1,37,39,-1,-1,41,43,45,47,-1,-1,49,51,-1,53,55,57,59,61,-1,-1,-1,-1,-1,63,65,-1,-1,67,69,71,73,75,-1,-1,-1,-1,-1,-1,-1,-1,-1,-1,-1,-1,-1,-1,-1,-1,-1,-1,-1,-1],"loss_changes":[2.2418999E1,1.6006067E1,8.285741E0,5.938328E0,7.385599E0,2.2483177E0,2.4990652E0,8.145004E0,5.2667646E0,6.538084E0,6.1094904E-1,2.0986748E-1,0E0,0E0,1.9728198E0,0E0,1.17025375E-1,4.069867E0,5.0107894E0,3.5459232E-1,6.3787546E0,0E0,0E0,0E0,0E0,2.8161254E0,4.0731945E0,0E0,0E0,4.514511E0,4.279596E0,1.8658333E0,6.284563E0,0E0,0E0,2.8409271E0,8.867564E0,0E0,1.8322532E0,3.5108404E0,1.5535717E0,5.1884837E0,4.2057896E0,0E0,0E0,0E0,0E0,0E0,9.59524E0,7.79227E0,0E0,0E0,1.5054321E0,1.4018853E0,5.2004594E-1,4.0629606E0,1.4141797E0,0E0,0E0,0E0,0E0,0E0,0E0,0E0,0E0,0E0,0E0,0E0,0E0,0E0,0E0,0E0,0E0,0E0,0E0,0E0,0E0],"parents":[2147483647,0,0,1,1,2,2,3,3,4,4,5,5,6,6,7,7,8,8,9,9,10,10,11,11,14,14,16,16,17,17,18,18,19,19,20,20,25,25,26,26,29,29,30,30,31,31,32,32,35,35,36,36,38,38,39,39,40,40,41,41,42,42,48,48,49,49,52,52,53,53,54,54,55,55,56,56],"right_children":[2,4,6,8,10,12,14,16,18,20,22,24,-1,-1,26,-1,28,30,32,34,36,-1,-1,-1,-1,38,40,-1,-1,42,44,46,48,-1,-1,50,52,-1,54,56,58,60,62,-1,-1,-1,-1,-1,64,66,-1,-1,68,70,72,74,76,-1,-1,-1,-1,-1,-1,-1,-1,-1,-1,-1,-1,-1,-1,-1,-1,-1,-1,-1,-1],"split_conditions":[5.1E1,2.3904762E-1,1.1517876E1,2.7361855E-1,8.913487E0,5.75E1,1.1852324E1,3.5682585E0,1.947832E-1,7.5E0,4.05E1,3.1414473E-1,-1.3222747E-2,2.2750137E-2,1.3699772E1,-8.640135E-3,7.4270754E0,5.5777776E-1,6.1394377E0,2.6785713E-1,4.691017E0,4.566147E-3,3.3963412E-2,-3.2316048E-2,-7.0239246E-2,3.0825794E-1,6.75E1,6.1685544E-2,2.7820459E-2,3.2200462E-1,2.3273425E0,2.2653958E-1,6.8349133E0,2.6609724E-2,3.990209E-3,1.45E1,2.75E1,-5.39891E-2,2.0443463E-1,6.05E1,3.1853658E-1,1.8274583E-1,1.0971715E1,1.4059328E-2,-4.8467554E-2,-5.0354708E-2,-5.669863E-3,5.822534E-2,3.7407407E-1,2.6837616E0,-7.476279E-2,4.0862452E-2,2.761438E-1,3.7828946E-1,2.3408541E-1,1.7746553E-1,3.062454E-1,-6.463289E-3,-5.4930776E-2,-2.570436E-2,3.0966148E-2,3.0007664E-2,-1.2205891E-2,1.718714E-2,-5.411883E-2,-5.9923846E-2,2.6235817E-2,-7.3222197E-3,-4.3397397E-2,-3.8606E-2,-1.7383253E-3,1.7542465E-2,-6.5109036E-3,4.9094087E-3,-4.5940947E-2,3.4114774E-2,4.9250326E-3],"split_indices":[0,3,2,4,2,0,2,2,3,0,0,4,0,0,2,0,2,4,2,3,2,0,0,0,0,4,0,0,0,4,2,3,2,0,0,0,0,0,3,0,4,3,2,0,0,0,0,0,4,2,0,0,4,4,3,3,4,0,0,0,0,0,0,0,0,0,0,0,0,0,0,0,0,0,0,0,0],"split_type":[0,0,0,0,0,0,0,0,0,0,0,0,0,0,0,0,0,0,0,0,0,0,0,0,0,0,0,0,0,0,0,0,0,0,0,0,0,0,0,0,0,0,0,0,0,0,0,0,0,0,0,0,0,0,0,0,0,0,0,0,0,0,0,0,0,0,0,0,0,0,0,0,0,0,0,0,0],"sum_hessian":[2.8908133E2,2.0626854E2,8.28128E1,1.573723E2,4.8896236E1,1.7015387E1,6.579741E1,2.3634117E1,1.3373819E2,4.053389E1,8.362347E0,1.2609259E1,4.406127E0,3.5986934E0,6.2198715E1,5.9300957E0,1.7704021E1,1.0106369E2,3.2674496E1,7.114649E0,3.3419243E1,3.17834E0,5.1840067E0,5.072728E0,7.536531E0,2.1573416E1,4.06253E1,1.3446293E1,4.257728E0,9.238802E1,8.675673E0,9.153154E0,2.3521341E1,3.3500156E0,3.7646334E0,1.5764635E1,1.7654606E1,5.1525E0,1.6420916E1,3.3716316E1,6.9089847E0,1.39270115E1,7.8461006E1,5.6054506E0,3.070222E0,4.65035E0,4.502804E0,3.600138E0,1.9921204E1,8.14631E0,7.6183257E0,4.6808248E0,1.2973782E1,1.0069446E1,6.351469E0,1.3840984E1,1.9875334E1,3.0888128E0,3.8201718E0,8.748475E0,5.178537E0,7.28626E1,5.598408E0,1.4770453E1,5.150749E0,4.8031917E0,3.3431177E0,5.3342505E0,7.6395307E0,5.813842E0,4.2556043E0,3.2623067E0,3.089162E0,8.35414E0,5.4868436E0,4.5908628E0,1.5284471E1],"tree_param":{"num_deleted":"0","num_feature":"5","num_nodes":"77","size_leaf_vector":"0"}},{"base_weights":[-1.1381484E-2,1.8377668E-1,-4.4448796E-1,3.2257786E-1,-2.791975E-1,-1.2649229E0,-2.982229E-1,4.0240598E-1,-1.6600128E-1,-5.377458E-1,9.6254155E-2,-4.1846234E-1,-1.4741511E0,4.5234707E-1,-4.6624443E-1,-1.9787288E-1,4.8337558E-1,-5.102152E-1,3.242989E-1,-2.6636088E-1,-8.687729E-1,-3.547721E-1,4.834403E-1,4.4704318E-2,7.560414E-1,-2.0929398E-1,-6.3399607E-1,2.5488696E-1,-7.695821E-1,7.189962E-1,2.3560938E-1,2.7588212E-1,-1.0822825E0,-2.948314E-1,6.8265116E-1,-1.0245034E0,1.5302313E-2,-1.1664897E0,-1.8122531E-1,1.164772E-2,-6.8177724E-1,6.125667E-1,1.7635053E-1,-2.0426987E-2,1.0120088E-1,3.1931946E-1,-6.032285E-1,-1.0546399E0,-5.184281E-1,6.203277E-1,-1.7794171E-2,-1.449931E-1,8.030059E-1,3.155604E-1,-2.9437628E-1,-1.4710909E-1,4.207708E-1,-2.5813955E-1,6.3897234E-1,5.197801E-2,-8.594336E-1,-3.7452582E-1,-1.0127084E0,3.0794474E-1,8.597224E-1,2.0013423E-1,1.0380012E0,-4.1849455E-1,-1.022277E-1,1.8518458E-1,-4.4705108E-1,8.496678E-2,9.278028E-1,-1.0882914E0,-4.0139174E-1,-5.198806E-1,-3.1207548E-2],"categories":[],"categories_nodes":[],"categories_segments":[],"categories_sizes":[],"default_left":[1,1,1,1,1,1,1,1,1,1,1,0,0,1,1,1,1,1,1,1,1,1,1,1,0,1,1,1,0,1,1,0,0,0,0,0,1,0,0,0,0,0,0,0,0,1,1,0,1,0,0,0,1,1,1,1,0,0,1,0,1,1,0,0,0,0,0,0,0,0,0,0,0,0,0,0,0],"id":5,"left_children":[1,3,5,7,9,11,13,15,17,19,21,-1,-1,23,25,27,29,31,33,35,37,39,41,43,-1,45,47,49,-1,51,53,-1,-1,-1,-1,-1,55,-1,-1,-1,-1,-1,-1,-1,-1,57,59,-1,61,-1,-1,-1,63,65,67,69,-1,-1,71,-1,73,75,-1,-1,-1,-1,-1,-1,-1,-1,-1,-1,-1,-1,-1,-1,-1],"loss_changes":[2.468554E1,1.3075001E1,1.0304445E1,6.1723404E0,4.6668797E0,1.4028149E0,1.0274651E1,6.6702557E0,4.114964E0,2.176116E0,3.8415513E0,0E0,0E0,1.8222592E0,2.6058798E0,4.70054E0,6.667219E0,6.7740984E0,2.6023245E0,3.8096972E0,2.1319532E0,1.2564411E0,2.9349637E-1,3.369589E-2,0E0,6.131458E0,1.0467176E0,1.079418E0,0E0,4.5435467E0,2.6870713E0,0E0,0E0,0E0,0E0,0E0,1.0413282E0,0E0,0E0,0E0,0E0,0E0,0E0,0E0,0E0,2.6406226E0,2.8614397E0,0E0,1.7892046E0,0E0,0E0,0E0,1.1359215E0,4.0940204E0,1.3668686E-1,1.2578381E0,0E0,0E0,1.2757492E0,0E0,5.908241E-1,1.3786473E0,0E0,0E0,0E0,0E0,0E0,0E0,0E0,0E0,0E0,0E0,0E0,0E0,0E0,0E0,0E0],"parents":[2147483647,0,0,1,1,2,2,3,3,4,4,5,5,6,6,7,7,8,8,9,9,10,10,13,13,14,14,15,15,16,16,17,17,18,18,19,19,20,20,21,21,22,22,23,23,25,25,26,26,27,27,29,29,30,30,36,36,45,45,46,46,48,48,52,52,53,53,54,54,55,55,58,58,60,60,61,61],"right_children":[2,4,6,8,10,12,14,16,18,20,22,-1,-1,24,26,28,30,32,34,36,38,40,42,44,-1,46,48,50,-1,52,54,-1,-1,-1,-1,-1,56,-1,-1,-1,-1,-1,-1,-1,-1,58,60,-1,62,-1,-1,-1,64,66,68,70,-1,-1,72,-1,74,76,-1,-1,-1,-1,-1,-1,-1,-1,-1,-1,-1,-1,-1,-1,-1],"split_conditions":[2.5E0,1.0954931E1,5.2101393E0,2.3904762E-1,6.05E1,1.45E1,3.45E1,9.6875E-2,4.691017E0,1.818306E-1,1.7777777E-1,-2.0923117E-2,-7.370756E-2,7.1557636E0,5.1E1,3.0836368E0,2.75E1,7.5E0,2.5903225E-1,1.1571072E1,2.133441E-1,1.6103691E-1,1.5377402E1,2.3571429E-1,3.780207E-2,3.5E0,1.7316341E-1,5E-1,-3.8479105E-2,1.6830032E0,5.1E1,1.3794106E-2,-5.411413E-2,-1.474157E-2,3.413256E-2,-5.1225167E-2,1.7032968E-1,-5.8324486E-2,-9.061266E-3,5.82386E-4,-3.408886E-2,3.0628337E-2,8.8175265E-3,-1.0213493E-3,5.060044E-3,8.469078E0,6.8349133E0,-5.2732E-2,2.5741065E-1,3.1016385E-2,-8.897086E-4,-7.2496547E-3,1.14379086E-1,9.910548E0,1.04251E1,1.4519906E-1,2.103854E-2,-1.2906978E-2,2.1825397E-1,2.5989006E-3,9.008965E0,2.3250979E-1,-5.0635424E-2,1.5397238E-2,4.298612E-2,1.0006712E-2,5.190006E-2,-2.0924728E-2,-5.111385E-3,9.2592295E-3,-2.2352554E-2,4.248339E-3,4.6390142E-2,-5.441457E-2,-2.0069588E-2,-2.599403E-2,-1.5603774E-3],"split_indices":[1,2,2,3,0,0,0,3,2,3,3,0,0,2,0,2,0,0,3,2,3,3,2,3,0,1,3,1,0,2,0,0,0,0,0,0,3,0,0,0,0,0,0,0,0,2,2,0,3,0,0,0,3,2,2,3,0,0,3,0,2,3,0,0,0,0,0,0,0,0,0,0,0,0,0,0,0],"split_type":[0,0,0,0,0,0,0,0,0,0,0,0,0,0,0,0,0,0,0,0,0,0,0,0,0,0,0,0,0,0,0,0,0,0,0,0,0,0,0,0,0,0,0,0,0,0,0,0,0,0,0,0,0,0,0,0,0,0,0,0,0,0,0,0,0,0,0,0,0,0,0,0,0,0,0,0,0],"sum_hessian":[2.890722E2,1.9985693E2,8.921528E1,1.5412593E2,4.573099E1,1.1752448E1,7.746284E1,1.3272522E2,2.1400719E1,2.6713467E1,1.9017525E1,3.2305734E0,8.521874E0,1.3693721E1,6.376911E1,1.5502939E1,1.17222275E2,1.2549703E1,8.851016E0,1.6183218E1,1.053025E1,8.830629E0,1.0186895E1,6.5950494E0,7.098672E0,2.6543175E1,3.7225937E1,9.105601E0,6.397338E0,5.8600838E1,5.862144E1,5.605766E0,6.943937E0,3.3320932E0,5.5189233E0,3.3217328E0,1.2861485E1,6.6090226E0,3.9212267E0,4.8320985E0,3.998531E0,6.0980678E0,4.0888276E0,3.4260404E0,3.169009E0,1.1444603E1,1.5098571E1,5.3775725E0,3.1848366E1,3.0894654E0,6.0161357E0,5.086039E0,5.35148E1,5.1481018E1,7.1404214E0,9.847973E0,3.013512E0,4.1695695E0,7.2750335E0,4.569474E0,1.0529097E1,2.6724686E1,5.1236806E0,6.510167E0,4.700463E1,4.605248E1,5.4285383E0,3.2330387E0,3.907383E0,4.9284735E0,4.9195E0,3.1701863E0,4.1048474E0,5.6302156E0,4.898881E0,1.8213057E1,8.51163E0],"tree_param":{"num_deleted":"0","num_feature":"5","num_nodes":"77","size_leaf_vector":"0"}},{"base_weights":[-8.584267E-3,1.9728924E-1,-4.542244E-1,5.962982E-1,7.411115E-2,-1.2625568E0,-2.9819363E-1,7.4442554E-1,-3.1225902E-1,1.9369555E-1,-2.4995084E-1,-6.478202E-1,-1.436873E0,-5.78178E-2,-5.190039E-1,1.6484573E-1,9.463173E-1,-3.7151045E-1,2.6615465E-1,2.2546196E-2,-6.176358E-1,6.932669E-1,-1.5066613E-1,-1.1381785E0,-3.4996516E-1,-1.8224601E-1,5.33561E-1,1.0909396E0,2.5307375E-1,1.2970524E-1,-8.163204E-1,3.3383012E-1,-5.1970845E-1,-5.814514E-1,1.9604759E-1,-9.7066075E-1,-3.0561122E-1,1.6347978E-1,-6.1862266E-1,-9.3531E-1,-2.1093498E-1,1.3110113E0,4.1007087E-1,-1.909372E-1,4.1502547E-1,4.4535643E-1,1.7026793E-2,6.368727E-1,-8.9040445E-3,1.2822047E-1,-5.3407377E-1,-1.7718048E-1,1.0476581E0,6.2251367E-2,-9.313421E-1,4.832513E-1,-3.3497715E-1,8.59695E-2,6.2611103E-1,7.351313E-1,2.564088E-1,2.7191776E-1,-2.5109705E-1,-2.8331822E-1,6.318588E-1,-2.1728341E-1,-6.8837404E-1,-8.652242E-1,2.8857818E-1,-1.3949329E-1,-1.2365723E0,-2.0447403E-1,-8.0239916E-1],"categories":[],"categories_nodes":[],"categories_segments":[],"categories_sizes":[],"default_left":[1,1,1,1,1,1,1,1,0,1,1,0,0,1,1,1,1,1,1,1,1,0,1,0,1,0,0,1,0,1,0,1,0,0,1,0,1,1,1,0,1,0,1,0,0,1,1,0,1,0,1,1,0,0,1,0,1,0,0,0,0,0,0,0,0,0,0,0,0,0,0,0,0],"id":6,"left_children":[1,3,5,7,9,11,13,15,-1,17,19,-1,-1,21,23,25,27,29,31,33,35,-1,37,-1,39,-1,-1,41,-1,43,-1,45,-1,-1,47,-1,49,51,53,-1,55,-1,57,-1,-1,59,61,-1,63,-1,65,67,-1,-1,69,-1,71,-1,-1,-1,-1,-1,-1,-1,-1,-1,-1,-1,-1,-1,-1,-1,-1],"loss_changes":[2.6585203E1,9.669096E0,1.0968061E1,6.6143837E0,6.008599E0,1.196022E-1,4.12763E0,4.4886837E0,0E0,4.7655025E0,4.2273927E0,0E0,0E0,2.8989773E0,3.660204E0,1.721045E0,2.5475636E0,3.1585486E0,5.6214957E0,2.840514E0,1.5155277E0,0E0,5.4941273E0,0E0,2.4795427E0,0E0,0E0,2.785658E0,0E0,8.1600094E-1,0E0,3.2971058E0,0E0,0E0,1.9078026E0,0E0,1.2677498E0,7.1845317E0,3.2705655E0,0E0,2.7921677E0,0E0,4.7772956E-1,0E0,0E0,3.5001602E0,1.8794278E0,0E0,3.0373552E0,0E0,1.5657258E-1,6.086219E0,0E0,0E0,2.2223063E0,0E0,1.3317044E0,0E0,0E0,0E0,0E0,0E0,0E0,0E0,0E0,0E0,0E0,0E0,0E0,0E0,0E0,0E0,0E0],"parents":[2147483647,0,0,1,1,2,2,3,3,4,4,5,5,6,6,7,7,9,9,10,10,13,13,14,14,15,15,16,16,17,17,18,18,19,19,20,20,22,22,24,24,27,27,29,29,31,31,34,34,36,36,37,37,38,38,40,40,42,42,45,45,46,46,48,48,50,50,51,51,54,54,56,56],"right_children":[2,4,6,8,10,12,14,16,-1,18,20,-1,-1,22,24,26,28,30,32,34,36,-1,38,-1,40,-1,-1,42,-1,44,-1,46,-1,-1,48,-1,50,52,54,-1,56,-1,58,-1,-1,60,62,-1,64,-1,66,68,-1,-1,70,-1,72,-1,-1,-1,-1,-1,-1,-1,-1,-1,-1,-1,-1,-1,-1,-1,-1],"split_conditions":[2.5E0,2.8660715E-1,5.2377396E0,1.5E0,1.0954931E1,2.3443224E-1,1.0174995E1,3.5682585E0,-1.56129515E-2,3.0602008E-1,3.716117E-1,-3.2391008E-2,-7.184365E-2,2.2431865E-1,1.1497783E1,2.4264705E-1,2.3764706E-1,2.98059E-1,6.125E-1,3.136574E-1,3.884743E-1,3.4663346E-2,2.4795082E-1,-5.6908924E-2,1.7316341E-1,-9.112301E-3,2.667805E-2,7.457467E0,1.2653688E-2,7.7932296E0,-4.081602E-2,1.887975E-1,-2.5985423E-2,-2.9072572E-2,3.279969E-1,-4.8533037E-2,3.9863014E-1,2.2996795E-1,3.5E0,-4.6765503E-2,1.9204426E-1,6.5550566E-2,9.640425E0,-9.54686E-3,2.0751273E-2,4.7968326E0,1.5E0,3.1843636E-2,3.6297762E-1,6.4110234E-3,4.2065528E-1,7.461438E0,5.2382905E-2,3.1125683E-3,2.761438E-1,2.4162566E-2,3.7243152E-1,4.298475E-3,3.130555E-2,3.6756568E-2,1.282044E-2,1.3595888E-2,-1.2554853E-2,-1.4165911E-2,3.1592943E-2,-1.0864171E-2,-3.4418702E-2,-4.326121E-2,1.4428909E-2,-6.9746645E-3,-6.1828613E-2,-1.0223702E-2,-4.0119957E-2],"split_indices":[1,4,2,1,2,4,2,2,0,4,4,0,0,4,2,3,3,4,4,4,4,0,3,0,3,0,0,2,0,2,0,3,0,0,4,0,4,3,1,0,3,0,2,0,0,2,1,0,4,0,4,2,0,0,4,0,4,0,0,0,0,0,0,0,0,0,0,0,0,0,0,0,0],"split_type":[0,0,0,0,0,0,0,0,0,0,0,0,0,0,0,0,0,0,0,0,0,0,0,0,0,0,0,0,0,0,0,0,0,0,0,0,0,0,0,0,0,0,0,0,0,0,0,0,0,0,0,0,0,0,0,0,0,0,0,0,0,0,0,0,0,0,0,0,0,0,0,0,0],"sum_hessian":[2.8677805E2,1.9671474E2,9.006332E1,4.5024605E1,1.5169014E2,1.2840453E1,7.722286E1,3.8955456E1,6.06915E0,1.1126555E2,4.042459E1,4.4122567E0,8.428196E0,3.7901276E1,3.9321583E1,1.0780803E1,2.8174652E1,1.1924169E1,9.934138E1,2.4010706E1,1.6413883E1,3.0908165E0,3.481046E1,6.575837E0,3.2745747E1,5.930021E0,4.8507824E0,2.2587566E1,5.5870852E0,6.095655E0,5.8285136E0,9.2270905E1,7.0704765E0,4.5581613E0,1.9452545E1,6.200412E0,1.0213472E1,2.1399366E1,1.3411093E1,4.6222286E0,2.8123518E1,1.6009888E1,6.5776787E0,3.0872996E0,3.0083556E0,6.777234E1,2.4498566E1,5.1859245E0,1.4266621E1,3.7351358E0,6.478337E0,1.6305294E1,5.094073E0,4.5890117E0,8.822082E0,3.5927482E0,2.4530771E1,3.4880805E0,3.089598E0,2.5016882E1,4.2755455E1,1.2567443E1,1.1931123E1,1.0585588E1,3.681032E0,3.3262913E0,3.1520452E0,6.0713463E0,1.0233947E1,3.0716567E0,5.7504244E0,2.0878979E1,3.6517923E0],"tree_param":{"num_deleted":"0","num_feature":"5","num_nodes":"73","size_leaf_vector":"0"}},{"base_weights":[3.8567644E-2,2.3814236E-1,-4.1025797E-1,3.811231E-1,-4.078281E-2,-1.2062227E0,-2.6086566E-1,5.1586956E-1,-1.3679461E-2,-4.273039E-1,3.854404E-2,2.8500307E-1,-4.9209625E-1,6.866242E-2,5.832685E-1,3.6891013E-1,-4.175262E-1,-9.0567514E-2,-7.674662E-1,5.489129E-1,-1.0403245E-1,-1.1586454E-1,6.376226E-1,-3.530501E-1,-7.7662724E-1,5.078133E-1,-3.5200274E-1,1.7040027E-2,6.4833236E-1,-1.9224738E-1,7.0451516E-1,-6.503542E-1,1.5241787E-1,1.0797195E0,-1.3510416E-1,-6.533988E-1,4.127342E-2,4.9542084E-1,-6.4073676E-1,8.419127E-1,9.312494E-2,2.567917E-1,-4.961467E-1,-2.1061651E-1,-9.378056E-1,-7.1609974E-1,6.890614E-2,1.56544E-1,-2.0946994E-1,7.3697853E-1,2.4451083E-1,1.8297991E-1,-5.290999E-1,1.0292888E0,1.3511878E-1,-4.0216836E-1,-8.861877E-1,-9.1291606E-1,-1.7797852E-1,1.1621975E0,-1.1033218E-1,6.999317E-1,-1.8809707E-1,-5.96029E-1,8.408602E-2,-1.105857E0,-5.013003E-1,4.486635E-1,8.3474344E-1,8.01957E-1,-4.103592E-1,-8.940615E-1,6.2367633E-2,-2.4975124E-1,4.366769E-1,-7.114104E-1,-7.8730024E-2],"categories":[],"categories_nodes":[],"categories_segments":[],"categories_sizes":[],"default_left":[1,1,1,1,1,0,1,1,1,1,1,1,1,1,1,1,1,0,0,1,1,1,1,1,1,0,1,1,1,1,1,1,0,0,0,1,1,0,0,0,0,1,1,0,1,0,0,0,0,1,1,0,0,0,0,1,0,0,0,0,1,0,0,1,0,0,0,0,0,0,0,0,0,0,0,0,0],"id":7,"left_children":[1,3,5,7,9,-1,11,13,15,17,19,21,23,25,27,29,31,-1,-1,33,35,37,39,41,43,-1,45,47,49,51,53,55,-1,-1,-1,57,59,-1,-1,-1,-1,61,63,-1,65,-1,-1,-1,-1,67,69,-1,-1,-1,-1,71,-1,-1,-1,-1,73,-1,-1,75,-1,-1,-1,-1,-1,-1,-1,-1,-1,-1,-1,-1,-1],"loss_changes":[2.6055069E1,8.050422E0,1.0164005E1,7.100439E0,2.1599844E0,0E0,9.974247E0,2.9278755E0,5.6903086E0,1.2597156E0,4.385585E0,3.5013967E0,1.748992E0,2.9910865E0,3.1493893E0,3.7726078E0,2.5295033E0,0E0,0E0,5.000678E0,3.8292694E0,4.476663E0,1.317493E0,3.6531472E0,1.2198076E0,0E0,1.367542E0,3.7829468E-1,2.4828796E0,1.1914827E0,2.0313826E0,2.1391726E-1,0E0,0E0,0E0,9.810791E-1,6.8085685E0,0E0,0E0,0E0,0E0,1.8802603E0,1.9716578E0,0E0,7.554436E-2,0E0,0E0,0E0,0E0,1.187809E0,6.396322E0,0E0,0E0,0E0,0E0,2.172531E0,0E0,0E0,0E0,0E0,2.8768759E0,0E0,0E0,1.5818415E0,0E0,0E0,0E0,0E0,0E0,0E0,0E0,0E0,0E0,0E0,0E0,0E0,0E0],"parents":[2147483647,0,0,1,1,2,2,3,3,4,4,6,6,7,7,8,8,9,9,10,10,11,11,12,12,13,13,14,14,15,15,16,16,19,19,20,20,21,21,22,22,23,23,24,24,26,26,27,27,28,28,29,29,30,30,31,31,35,35,36,36,41,41,42,42,44,44,49,49,50,50,55,55,60,60,63,63],"right_children":[2,4,6,8,10,-1,12,14,16,18,20,22,24,26,28,30,32,-1,-1,34,36,38,40,42,44,-1,46,48,50,52,54,56,-1,-1,-1,58,60,-1,-1,-1,-1,62,64,-1,66,-1,-1,-1,-1,68,70,-1,-1,-1,-1,72,-1,-1,-1,-1,74,-1,-1,76,-1,-1,-1,-1,-1,-1,-1,-1,-1,-1,-1,-1,-1],"split_conditions":[2.5E0,9.279177E0,5.2377396E0,1.5E0,9.910548E0,-6.0311135E-2,4.15E1,9.166667E-2,1.846591E-1,9.717211E0,1.0954931E1,7.0458317E0,2.4807692E-1,1.1395385E0,1.6775703E0,1.2701613E-1,2.5657895E-1,-4.528376E-3,-3.837331E-2,5.1E1,1.1571072E1,6.004052E0,2.595238E-1,9.699419E0,3.5E0,2.5390664E-2,6.458333E-2,1.5606825E0,8.011379E0,1.0405071E-1,3.1E1,2.75E1,7.6208934E-3,5.398598E-2,-6.755208E-3,1.8425927E-1,1.2355078E1,2.4771042E-2,-3.2036837E-2,4.2095635E-2,4.6562473E-3,2.0980047E-1,2.3250979E-1,-1.0530826E-2,2.703373E-1,-3.5804987E-2,3.4453073E-3,7.8272E-3,-1.0473497E-2,1.3118279E-1,1.5590277E-1,9.148995E-3,-2.6454994E-2,5.146444E-2,6.755939E-3,3.0728164E0,-4.4309385E-2,-4.5645803E-2,-8.898926E-3,5.8109876E-2,2.0974077E-1,3.4996584E-2,-9.404854E-3,1.4685133E1,4.204301E-3,-5.5292852E-2,-2.5065014E-2,2.2433175E-2,4.1737173E-2,4.009785E-2,-2.051796E-2,-4.4703078E-2,3.1183816E-3,-1.2487562E-2,2.1833844E-2,-3.557052E-2,-3.936501E-3],"split_indices":[1,2,2,1,2,0,0,3,3,2,2,2,3,2,2,3,3,0,0,0,2,2,3,2,1,0,3,2,2,3,0,0,0,0,0,3,2,0,0,0,0,3,3,0,3,0,0,0,0,3,3,0,0,0,0,2,0,0,0,0,3,0,0,2,0,0,0,0,0,0,0,0,0,0,0,0,0],"split_type":[0,0,0,0,0,0,0,0,0,0,0,0,0,0,0,0,0,0,0,0,0,0,0,0,0,0,0,0,0,0,0,0,0,0,0,0,0,0,0,0,0,0,0,0,0,0,0,0,0,0,0,0,0,0,0,0,0,0,0,0,0,0,0,0,0,0,0,0,0,0,0,0,0,0,0,0,0],"sum_hessian":[2.8775992E2,1.9969151E2,8.806839E1,1.3167792E2,6.80136E1,1.2229767E1,7.583863E1,9.784775E1,3.383017E1,1.0482689E1,5.7530914E1,2.2449577E1,5.338905E1,1.3231339E1,8.461641E1,1.7426216E1,1.6403955E1,6.2371373E0,4.2455516E0,1.1644238E1,4.5886677E1,1.0964078E1,1.1485499E1,3.8144676E1,1.5244374E1,6.3330307E0,6.8983088E0,8.9318695E0,7.568454E1,6.7502403E0,1.0675976E1,1.1508524E1,4.8954306E0,6.076029E0,5.5682096E0,8.515474E0,3.73712E1,5.095171E0,5.8689075E0,7.742788E0,3.7427115E0,7.009644E0,3.113503E1,4.1595173E0,1.1084857E1,3.1474583E0,3.7508504E0,5.841598E0,3.090271E0,6.1025948E1,1.4658588E1,3.5033212E0,3.2469192E0,6.0156612E0,4.6603146E0,7.6052713E0,3.9032526E0,4.6020045E0,3.91347E0,3.2689183E0,3.4102283E1,3.0921836E0,3.9174607E0,2.6542377E1,4.5926533E0,6.326242E0,4.7586155E0,1.7602158E1,4.342379E1,7.744547E0,6.9140415E0,3.0306835E0,4.574588E0,2.783998E1,6.262304E0,2.1225847E1,5.3165298E0],"tree_param":{"num_deleted":"0","num_feature":"5","num_nodes":"77","size_leaf_vector":"0"}},{"base_weights":[6.0601826E-3,1.7617588E-1,-3.6660266E-1,3.3797187E-1,-1.6902918E-1,-8.762343E-1,-2.673571E-1,4.231272E-1,-1.5827996E-1,-3.4964836E-1,2.3498861E-1,-3.8128126E-1,-1.1011474E0,-4.2302415E-2,-5.206029E-1,5.5048424E-1,4.5115583E-2,1.4912993E-1,-7.75464E-1,-4.745423E-3,-6.11525E-1,4.8961252E-1,-6.1872965E-1,3.0488625E-1,-3.7144858E-1,-2.2947761E-1,-7.062176E-1,7.3818016E-1,2.7638698E-1,-3.4819084E-1,1.1478296E-1,-2.2450373E-1,4.332117E-1,-9.050971E-1,4.907113E-1,-2.3567753E-1,-9.209347E-1,8.285935E-1,1.9582765E-1,-1.9971449E-2,5.509456E-1,-5.012258E-2,-6.726083E-1,-5.7351166E-1,4.7776568E-1,-8.4698826E-1,-2.883191E-1,4.115165E-1,9.165518E-1,1.2831785E-1,8.9068073E-1,1.9879527E-1,-3.1854692E-1,8.46548E-1,8.829839E-3,1.7353402E-1,9.934473E-1,-3.5824996E-1,1.1471627E-1,-4.8683697E-1,-1.114218E0,-2.38744E-1,8.710569E-1,-4.7418898E-1,4.695917E-1,9.0497696E-1,-1.1769345E-2,3.588981E-1,-6.535059E-1,-1.06747024E-1,-9.9829197E-1,-2.3704931E-1,-7.8177434E-1,-9.861029E-1,-2.9719704E-1,-4.0173328E-1,-7.440322E-2,6.1033344E-1,-3.247597E-1,7.047068E-1,1.2647096E0,9.879932E-1,-2.6033036E-2,3.844314E-1,-9.34341E-2,4.993868E-1,-2.1252298E-1,-4.6636504E-1,-1.08345844E-1,1.3044311E-1,-5.287209E-1,9.119247E-2,4.8833144E-1],"categories":[],"categories_nodes":[],"categories_segments":[],"categories_sizes":[],"default_left":[1,1,1,1,1,1,1,1,1,1,1,0,0,1,1,1,1,1,0,1,1,1,0,1,1,1,1,1,1,0,1,0,1,0,1,1,1,0,1,1,1,1,1,1,0,1,1,1,1,1,0,1,0,0,0,1,0,1,0,0,0,1,0,0,0,0,0,1,0,0,0,0,0,0,0,0,0,0,0,0,0,0,0,0,0,0,0,0,0,0,0,0,0],"id":8,"left_children":[1,3,5,7,9,11,13,15,17,19,21,-1,-1,23,25,27,29,31,-1,33,35,37,-1,39,41,43,45,47,49,-1,51,-1,53,-1,55,57,59,-1,61,63,65,67,69,71,-1,73,75,77,79,81,-1,83,-1,-1,-1,85,-1,87,-1,-1,-1,89,-1,-1,-1,-1,-1,91,-1,-1,-1,-1,-1,-1,-1,-1,-1,-1,-1,-1,-1,-1,-1,-1,-1,-1,-1,-1,-1,-1,-1,-1,-1],"loss_changes":[1.8544415E1,1.1304917E1,4.2741585E0,5.9038315E0,4.8730097E0,9.437809E-1,4.458773E0,5.6177883E0,4.198038E0,4.107213E0,5.014534E0,0E0,0E0,5.1340322E0,1.7456388E0,4.200939E0,9.148977E-1,1.7809552E0,0E0,1.0129103E1,2.6731186E0,1.4403038E0,0E0,1.776119E0,2.1667116E0,4.4605837E0,9.069557E-1,2.4039726E0,3.2844517E0,0E0,1.1032543E0,0E0,1.6057771E0,0E0,2.0646305E0,6.532672E-1,3.1704998E-1,0E0,3.5731297E0,2.7553978E0,2.5266905E0,3.5034423E0,1.9907069E0,5.446646E-1,0E0,7.363157E-1,1.3950288E-1,3.3484018E0,9.9414444E-1,4.356803E0,0E0,1.3678994E0,0E0,0E0,0E0,1.5216925E0,0E0,2.034539E-1,0E0,0E0,0E0,9.550066E-1,0E0,0E0,0E0,0E0,0E0,2.2408557E-1,0E0,0E0,0E0,0E0,0E0,0E0,0E0,0E0,0E0,0E0,0E0,0E0,0E0,0E0,0E0,0E0,0E0,0E0,0E0,0E0,0E0,0E0,0E0,0E0,0E0],"parents":[2147483647,0,0,1,1,2,2,3,3,4,4,5,5,6,6,7,7,8,8,9,9,10,10,13,13,14,14,15,15,16,16,17,17,19,19,20,20,21,21,23,23,24,24,25,25,26,26,27,27,28,28,30,30,32,32,34,34,35,35,36,36,38,38,39,39,40,40,41,41,42,42,43,43,45,45,46,46,47,47,48,48,49,49,51,51,55,55,57,57,61,61,67,67],"right_children":[2,4,6,8,10,12,14,16,18,20,22,-1,-1,24,26,28,30,32,-1,34,36,38,-1,40,42,44,46,48,50,-1,52,-1,54,-1,56,58,60,-1,62,64,66,68,70,72,-1,74,76,78,80,82,-1,84,-1,-1,-1,86,-1,88,-1,-1,-1,90,-1,-1,-1,-1,-1,92,-1,-1,-1,-1,-1,-1,-1,-1,-1,-1,-1,-1,-1,-1,-1,-1,-1,-1,-1,-1,-1,-1,-1,-1,-1],"split_conditions":[2.5E0,4.15E1,2.45E1,4.919355E-1,6.05E1,2.3443224E-1,5.1E1,2.204861E-1,1.45E1,5.1E1,6.75E1,-1.9064063E-2,-5.5057373E-2,3.5E0,3.1425065E-1,2.75E1,2.2653958E-1,5.147059E-1,-3.87732E-2,5E-1,1.818306E-1,3.2866928E-1,-3.0936483E-2,2.1825397E-1,2.4722221E-1,3.0432808E-1,6.45E1,1.2916666E-1,4.05E1,-1.7409543E-2,2.8869048E-1,-1.1225186E-2,7.416667E-1,-4.5254856E-2,4.75E1,1.5E0,3.565238E-1,4.1429676E-2,3.873632E-1,4.3189964E-1,2.5857145E-1,4.45E1,2.761438E-1,2.7661943E-1,2.3888284E-2,3.759058E-1,2.0273973E-1,2.05E1,3.8104838E-1,2.746615E-1,4.453404E-2,2.05E1,-1.5927346E-2,4.23274E-2,4.4149192E-4,1.5E0,4.9672365E-2,1.5749007E-1,5.7358136E-3,-2.434185E-2,-5.57109E-2,5E-1,4.3552846E-2,-2.370945E-2,2.3479586E-2,4.5248847E-2,-5.884673E-4,3.6456457E-1,-3.2675296E-2,-5.3373515E-3,-4.99146E-2,-1.1852466E-2,-3.908872E-2,-4.9305145E-2,-1.4859852E-2,-2.0086665E-2,-3.720161E-3,3.0516673E-2,-1.6237985E-2,3.523534E-2,6.3235484E-2,4.939966E-2,-1.3016518E-3,1.922157E-2,-4.6717054E-3,2.496934E-2,-1.0626149E-2,-2.3318252E-2,-5.4172925E-3,6.522156E-3,-2.6436046E-2,4.5596235E-3,2.4416571E-2],"split_indices":[1,0,0,4,0,4,0,3,0,0,0,0,0,1,4,0,3,4,0,1,3,4,0,3,3,4,0,3,0,0,3,0,4,0,0,1,4,0,4,4,3,0,4,4,0,4,3,0,4,4,0,0,0,0,0,1,0,3,0,0,0,1,0,0,0,0,0,4,0,0,0,0,0,0,0,0,0,0,0,0,0,0,0,0,0,0,0,0,0,0,0,0,0],"split_type":[0,0,0,0,0,0,0,0,0,0,0,0,0,0,0,0,0,0,0,0,0,0,0,0,0,0,0,0,0,0,0,0,0,0,0,0,0,0,0,0,0,0,0,0,0,0,0,0,0,0,0,0,0,0,0,0,0,0,0,0,0,0,0,0,0,0,0,0,0,0,0,0,0,0,0,0,0,0,0,0,0,0,0,0,0,0,0,0,0,0,0,0,0],"sum_hessian":[2.8951993E2,1.9934106E2,9.017887E1,1.3576775E2,6.357331E1,1.2768369E1,7.74105E1,1.1608849E2,1.9679255E1,4.4089417E1,1.9483896E1,5.2663474E0,7.502021E0,4.193432E1,3.5476185E1,8.630154E1,2.9786957E1,1.3884801E1,5.7944536E0,1.9703896E1,2.438552E1,1.5509576E1,3.9743207E0,2.044684E1,2.1487478E1,1.5139363E1,2.0336819E1,4.9695168E1,3.6606373E1,3.5582876E0,2.6228668E1,6.117822E0,7.766979E0,6.561049E0,1.3142847E1,1.22184E1,1.216712E1,5.9173007E0,9.592275E0,9.388873E0,1.1057966E1,1.1258228E1,1.022925E1,1.0385281E1,4.7540827E0,1.4042463E1,6.294356E0,1.932348E1,3.0371685E1,3.0970793E1,5.635578E0,2.2668686E1,3.5599825E0,3.1668358E0,4.6001434E0,9.308043E0,3.834805E0,9.048146E0,3.170254E0,5.390475E0,6.776645E0,6.417108E0,3.1751664E0,4.905279E0,4.483594E0,6.2384653E0,4.8195014E0,7.062156E0,4.196072E0,4.475541E0,5.753709E0,5.2151713E0,5.1701097E0,1.0242265E1,3.8001988E0,3.2222419E0,3.0721142E0,1.5427696E1,3.8957844E0,2.172031E1,8.651375E0,3.4909413E0,2.7479853E1,1.3594103E1,9.074583E0,4.822859E0,4.4851832E0,5.3809333E0,3.667213E0,3.1708555E0,3.2462525E0,3.1601458E0,3.9020104E0],"tree_param":{"num_deleted":"0","num_feature":"5","num_nodes":"93","size_leaf_vector":"0"}},{"base_weights":[2.0545818E-2,2.0619643E-1,-3.9995384E-1,5.3136885E-1,1.1061128E-1,-2.455523E-1,-6.414212E-1,-6.4721876E-1,6.6025925E-1,2.7872172E-1,-9.027148E-2,-7.4063855E-1,-1.0652807E-1,-1.1959827E-1,-8.766685E-1,8.75463E-1,2.473602E-1,9.028394E-2,5.3838503E-1,-7.45355E-1,-1.651947E-3,-1.2609708E0,2.8787786E-1,4.1476008E-1,-1.9877046E-1,4.030916E-1,-6.1072856E-1,-5.841565E-1,-1.2271745E0,-4.336141E-3,9.93674E-1,5.5820835E-1,1.0320614E-1,4.4876385E-1,-1.4928918E-1,1.3120842E-1,1.1541569E0,-1.21202305E-1,-1.1071067E0,1.762857E-1,-3.3738127E-1,-3.5378033E-1,2.581314E-1,-9.105365E-1,4.487751E-1,-3.8366634E-1,3.485187E-1,5.658741E-1,1.587435E-1,3.0082127E-1,-9.19742E-1,-6.371612E-2,8.7649345E-1,1.4194813E0,6.4504325E-1,-4.3663812E-1,2.65728E-1,3.5159466E-1,-4.8759386E-1,-4.0810457E-3,-4.7450504E-1,3.1896353E-2,4.629217E-1,5.853494E-1,9.638361E-2,6.8536943E-1,1.9130905E-1,8.235511E-1,2.151089E-2,-1.1840285E0,-3.3284232E-1,2.0342582E-1,-3.3128995E-1,6.111434E-1,1.4995277E-1,-7.2783135E-2,-7.480098E-1,-3.218313E-1,2.704151E-1,2.8959552E-2,-7.0323104E-1],"categories":[],"categories_nodes":[],"categories_segments":[],"categories_sizes":[],"default_left":[1,1,1,1,1,1,1,0,1,1,1,1,1,1,1,1,1,1,1,1,1,0,0,0,1,0,0,1,0,0,0,0,1,1,1,1,1,0,0,1,1,1,1,0,0,0,1,1,0,1,1,1,0,0,0,0,1,0,1,1,1,0,0,0,0,0,0,0,0,0,0,0,0,0,0,0,0,0,0,0,0],"id":9,"left_children":[1,3,5,7,9,11,13,-1,15,17,19,21,23,25,27,29,31,33,35,37,39,-1,-1,-1,41,-1,-1,43,-1,-1,-1,-1,45,47,49,51,53,-1,-1,55,57,59,61,-1,-1,-1,63,65,-1,67,69,71,-1,-1,-1,-1,73,-1,75,77,79,-1,-1,-1,-1,-1,-1,-1,-1,-1,-1,-1,-1,-1,-1,-1,-1,-1,-1,-1,-1],"loss_changes":[2.271831E1,6.177911E0,3.0785484E0,7.541909E0,5.371303E0,3.784916E0,3.9837618E0,0E0,3.3692207E0,4.1456985E0,4.230583E0,7.079248E0,2.3401527E0,3.5179574E0,1.2705727E0,2.804163E0,6.4157784E-1,4.5572777E0,8.782619E0,1.7476449E0,4.0245533E0,0E0,0E0,0E0,2.9874535E0,0E0,0E0,5.825025E0,0E0,0E0,0E0,0E0,1.7603104E0,5.768795E-1,1.1585697E1,3.4860969E0,5.134716E-1,0E0,0E0,2.5846891E0,2.6745214E0,1.2879894E0,4.845286E-1,0E0,0E0,0E0,4.7496283E-1,4.421177E-1,0E0,3.0958533E0,1.2938023E0,1.5253907E0,0E0,0E0,0E0,0E0,1.4284372E0,0E0,2.0496826E0,9.5184356E-1,2.660563E0,0E0,0E0,0E0,0E0,0E0,0E0,0E0,0E0,0E0,0E0,0E0,0E0,0E0,0E0,0E0,0E0,0E0,0E0,0E0,0E0],"parents":[2147483647,0,0,1,1,2,2,3,3,4,4,5,5,6,6,8,8,9,9,10,10,11,11,12,12,13,13,14,14,15,15,16,16,17,17,18,18,19,19,20,20,24,24,27,27,32,32,33,33,34,34,35,35,36,36,39,39,40,40,41,41,42,42,46,46,47,47,49,49,50,50,51,51,56,56,58,58,59,59,60,60],"right_children":[2,4,6,8,10,12,14,-1,16,18,20,22,24,26,28,30,32,34,36,38,40,-1,-1,-1,42,-1,-1,44,-1,-1,-1,-1,46,48,50,52,54,-1,-1,56,58,60,62,-1,-1,-1,64,66,-1,68,70,72,-1,-1,-1,-1,74,-1,76,78,80,-1,-1,-1,-1,-1,-1,-1,-1,-1,-1,-1,-1,-1,-1,-1,-1,-1,-1,-1,-1],"split_conditions":[2.5E0,2.8660715E-1,2.4807692E-1,1.7519182E-1,1.630483E-1,1.7316341E-1,2.3746867E-1,-3.2360937E-2,2.326087E-1,1.3125512E-1,1.7001204E-1,4.337607E-1,1.90485E-1,3.1464648E-1,2.7518594E-1,1.4E-1,1.8550369E-1,1.45E1,3.9578113E-1,4.35E1,3.7215495E-1,-6.304854E-2,1.4393893E-2,2.0738004E-2,2.3250979E-1,2.015458E-2,-3.0536428E-2,2.6894376E-1,-6.1358728E-2,-2.1680705E-4,4.96837E-2,2.7910417E-2,2.5403225E-1,1.1E1,4.4142857E-1,1.6100231E-1,1.4772728E-1,-6.0601155E-3,-5.5355337E-2,2.9520696E-1,1.8257576E-1,4.15E1,3.235103E-1,-4.552683E-2,2.2438755E-2,-1.9183317E-2,2.649123E-1,6.75E-1,7.937175E-3,1.0990338E-1,1.5E0,4.45E1,4.3824673E-2,7.097407E-2,3.2252163E-2,-2.1831905E-2,5E-1,1.7579732E-2,1.5E0,2.1680376E-1,3.1461114E-1,1.5948176E-3,2.3146085E-2,2.926747E-2,4.8191804E-3,3.4268472E-2,9.565453E-3,4.1177556E-2,1.0755445E-3,-5.9201427E-2,-1.6642116E-2,1.0171291E-2,-1.6564498E-2,3.055717E-2,7.4976385E-3,-3.6391567E-3,-3.740049E-2,-1.6091565E-2,1.3520755E-2,1.4479776E-3,-3.516155E-2],"split_indices":[1,4,3,4,3,3,4,0,3,3,3,4,3,3,3,3,4,0,4,0,4,0,0,0,3,0,0,3,0,0,0,0,3,0,4,3,3,0,0,4,3,0,4,0,0,0,3,4,0,3,1,0,0,0,0,0,1,0,1,3,4,0,0,0,0,0,0,0,0,0,0,0,0,0,0,0,0,0,0,0,0],"split_type":[0,0,0,0,0,0,0,0,0,0,0,0,0,0,0,0,0,0,0,0,0,0,0,0,0,0,0,0,0,0,0,0,0,0,0,0,0,0,0,0,0,0,0,0,0,0,0,0,0,0,0,0,0,0,0,0,0,0,0,0,0,0,0,0,0,0,0,0,0,0,0,0,0,0,0,0,0,0,0,0,0],"sum_hessian":[2.8795425E2,2.0030698E2,8.764729E1,4.3927185E1,1.5637979E2,5.5332687E1,3.2314606E1,3.728016E0,4.019917E1,8.484505E1,7.1534744E1,1.0692399E1,4.4640285E1,1.0757513E1,2.1557093E1,2.5305336E1,1.4893832E1,5.0359318E1,3.4485725E1,7.18603E0,6.434872E1,6.8816447E0,3.8107545E0,5.906715E0,3.873357E1,5.3317137E0,5.4258E0,1.3946552E1,7.6105404E0,3.1584663E0,2.214687E1,3.3316867E0,1.1562145E1,1.9665401E1,3.0693916E1,2.1864065E1,1.2621662E1,3.3816562E0,3.8043737E0,4.250403E1,2.1844685E1,2.9190687E1,9.542885E0,1.074031E1,3.2062428E0,3.5767035E0,7.985442E0,1.2967794E1,6.697606E0,1.9943792E1,1.0750123E1,1.840793E1,3.4561334E0,6.521257E0,6.1004047E0,4.6569214E0,3.7847107E1,3.5382674E0,1.8306417E1,7.9104085E0,2.1280277E1,5.3809366E0,4.1619487E0,3.0750391E0,4.910403E0,8.867492E0,4.1003036E0,5.915099E0,1.4028694E1,6.348259E0,4.4018645E0,9.372647E0,9.035284E0,7.868124E0,2.9978983E1,7.8152747E0,1.0491143E1,3.5633378E0,4.3470707E0,7.043251E0,1.4237027E1],"tree_param":{"num_deleted":"0","num_feature":"5","num_nodes":"81","size_leaf_vector":"0"}},{"base_weights":[-2.5183617E-3,1.7685139E-1,-4.039979E-1,3.1087115E-1,-1.0158119E-1,-1.2958446E0,-2.5474492E-1,-7.431807E-1,3.4493303E-1,-3.3174169E-3,-7.019783E-1,9.080243E-2,-6.3390136E-1,4.5491907E-1,3.6182355E-2,-1.6560246E-1,3.1436333E-1,-9.9484676E-1,-3.111224E-1,5.127419E-1,-1.1592671E-1,-3.5801992E-1,-7.946444E-1,5.334175E-1,-3.2083303E-1,-7.223278E-2,7.424407E-1,-6.2487847E-1,-4.598516E-2,7.5785404E-1,1.6417308E-2,1.1112076E-1,7.696335E-1,-1.0171527E0,1.4763129E-1,-6.1948013E-1,1.9195463E-1,-1.2020843E0,-4.143991E-1,7.475904E-1,4.2258132E-1,2.0553452E-1,-8.133885E-1,4.354811E-2,-5.3300256E-1,-0E0,-1.0355126E0,8.042769E-2,-5.957857E-1,-2.743166E-1,2.9220918E-1,7.030854E-1,-8.850989E-2,-2.5807288E-1,-8.037192E-1,2.1340545E-1,-6.3018525E-1,3.0364795E-2,1.008049E0,-2.3912697E-1,5.7401323E-1,-3.8568464E-1,3.0430382E-1,-4.4837895E-1,2.2266208E-1,3.025439E-1,-7.991898E-1,-9.125045E-1,-3.0185843E-1],"categories":[],"categories_nodes":[],"categories_segments":[],"categories_sizes":[],"default_left":[1,1,1,1,1,0,1,0,1,1,1,1,1,1,1,1,1,0,0,1,1,1,1,1,1,1,0,1,1,0,1,0,0,0,1,1,0,0,1,1,1,0,0,1,0,0,0,1,0,0,0,0,1,0,0,0,1,0,0,0,0,0,0,0,0,0,0,0,0],"id":10,"left_children":[1,3,5,7,9,-1,11,-1,13,15,17,19,21,23,25,27,29,-1,-1,31,33,35,37,39,41,43,-1,45,47,-1,49,-1,-1,-1,51,53,-1,-1,55,57,59,-1,-1,61,-1,-1,-1,63,-1,-1,-1,-1,65,-1,-1,-1,67,-1,-1,-1,-1,-1,-1,-1,-1,-1,-1,-1,-1],"loss_changes":[2.0555414E1,7.410663E0,1.1223039E1,5.1758747E0,3.8364244E0,0E0,1.023105E1,0E0,4.399109E0,3.0439107E0,5.6999874E-1,3.7381299E0,1.2070465E0,6.105242E0,2.8366516E0,2.0981748E0,2.610711E0,0E0,0E0,1.3108137E0,7.182434E0,2.542617E0,2.6744537E0,1.597683E0,2.7839618E0,1.7727258E0,0E0,2.0282512E0,2.346698E0,0E0,1.201616E0,0E0,0E0,0E0,3.2390318E0,4.4337606E-1,0E0,0E0,2.072678E0,5.1644773E0,6.3530235E0,0E0,0E0,3.234224E0,0E0,0E0,0E0,2.2428389E0,0E0,0E0,0E0,0E0,5.402088E0,0E0,0E0,0E0,5.6152964E-1,0E0,0E0,0E0,0E0,0E0,0E0,0E0,0E0,0E0,0E0,0E0,0E0],"parents":[2147483647,0,0,1,1,2,2,3,3,4,4,6,6,8,8,9,9,10,10,11,11,12,12,13,13,14,14,15,15,16,16,19,19,20,20,21,21,22,22,23,23,24,24,25,25,27,27,28,28,30,30,34,34,35,35,38,38,39,39,40,40,43,43,47,47,52,52,56,56],"right_children":[2,4,6,8,10,-1,12,-1,14,16,18,20,22,24,26,28,30,-1,-1,32,34,36,38,40,42,44,-1,46,48,-1,50,-1,-1,-1,52,54,-1,-1,56,58,60,-1,-1,62,-1,-1,-1,64,-1,-1,-1,-1,66,-1,-1,-1,68,-1,-1,-1,-1,-1,-1,-1,-1,-1,-1,-1,-1],"split_conditions":[2.5E0,9.447381E0,5.2377396E0,1.7519182E-1,3.9863014E-1,-6.479223E-2,5.1E1,-3.7159037E-2,1.5E0,6.05E1,1.1855987E1,3.45E1,3.1461114E-1,5.0641024E-1,8.850908E0,3.1009614E-1,3.267857E-1,-4.9742337E-2,-1.5556119E-2,7.1557636E0,3.75E1,3.0432808E-1,1.222508E1,2.8165066E-1,1.1E1,7.5787973E0,3.7122037E-2,4.4E1,1.416401E1,3.7892703E-2,3.583746E-1,5.556038E-3,3.8481675E-2,-5.0857633E-2,4.15E1,3.5E0,9.597732E-3,-6.0104217E-2,1.3209933E1,3.5682585E0,3.1625E-1,1.0276726E-2,-4.0669426E-2,4.3368835E0,-2.6650129E-2,-0E0,-5.177563E-2,1.0080248E1,-2.9789284E-2,-1.3715831E-2,1.4610459E-2,3.5154272E-2,3.7867925E-1,-1.2903645E-2,-4.0185962E-2,1.0670273E-2,1.4344557E1,1.5182397E-3,5.040245E-2,-1.1956348E-2,2.8700663E-2,-1.9284232E-2,1.5215191E-2,-2.2418948E-2,1.1133104E-2,1.5127196E-2,-3.995949E-2,-4.5625225E-2,-1.5092921E-2],"split_indices":[1,2,2,4,4,0,0,0,1,0,2,0,4,4,2,4,4,0,0,2,0,4,2,4,0,2,0,0,2,0,4,0,0,0,0,1,0,0,2,2,4,0,0,2,0,0,0,2,0,0,0,0,4,0,0,0,2,0,0,0,0,0,0,0,0,0,0,0,0],"split_type":[0,0,0,0,0,0,0,0,0,0,0,0,0,0,0,0,0,0,0,0,0,0,0,0,0,0,0,0,0,0,0,0,0,0,0,0,0,0,0,0,0,0,0,0,0,0,0,0,0,0,0,0,0,0,0,0,0,0,0,0,0,0,0,0,0,0,0,0,0],"sum_hessian":[2.8241943E2,1.9576949E2,8.6649956E1,1.3206361E2,6.370588E1,1.0760618E1,7.5889336E1,3.1473358E0,1.2891628E2,5.6056377E1,7.6495023E0,4.028744E1,3.5601894E1,9.450745E1,3.4408833E1,3.7598824E1,1.8457552E1,3.033192E0,4.61631E0,1.2533739E1,2.77537E1,1.4911903E1,2.0689991E1,8.626023E1,8.247215E0,3.0984882E1,3.423948E0,6.4425993E0,3.1156225E1,6.4732327E0,1.198432E1,5.7429876E0,6.790752E0,5.3179975E0,2.2435703E1,9.990833E0,4.9210706E0,8.410102E0,1.2279888E1,2.644734E1,5.9812893E1,4.399491E0,3.8477244E0,2.583074E1,5.1541433E0,3.1587815E0,3.283818E0,2.63582E1,4.798024E0,5.820372E0,6.1639476E0,5.8206215E0,1.6615082E1,4.6076913E0,5.3831415E0,3.1335113E0,9.146378E0,7.502088E0,1.8945253E1,1.0964946E1,4.8847946E1,9.475694E0,1.6355045E1,4.8876677E0,2.1470533E1,1.1264255E1,5.350827E0,3.4663854E0,5.6799917E0],"tree_param":{"num_deleted":"0","num_feature":"5","num_nodes":"69","size_leaf_vector":"0"}},{"base_weights":[-5.0153177E-2,2.155315E-1,-3.0396315E-1,4.4761023E-1,-2.6200384E-1,-8.510456E-1,-2.1348561E-1,5.5140465E-1,-1.4436911E-1,-4.2421106E-1,2.6780125E-1,-4.221214E-1,-1.3699479E0,-7.7041514E-2,-4.9091485E-1,-1.4758278E-1,6.027328E-1,2.8800943E-1,-1.0738548E0,-2.6916903E-1,-8.952959E-1,5.385951E-1,-3.0636707E-1,4.8326182E-1,-7.799302E-1,7.7313095E-2,-3.6656183E-1,1.5683998E-1,-5.490182E-1,8.2069826E-1,4.820229E-1,-8.7505884E-2,6.268017E-1,-4.689742E-1,9.873464E-2,-1.1107262E0,-3.6512017E-1,9.479694E-1,-6.695589E-2,-9.2846906E-1,-2.924138E-1,-1.2302933E-1,3.458423E-1,-4.70488E-1,3.5758635E-1,-3.301655E-1,-8.94613E-1,1.5191795E-1,9.1771764E-1,-2.0917034E-1,6.8161017E-1,-5.1572952E-2,-6.314332E-1,4.9300066E-1,-1.8932424E-1,-4.490443E-1,1.0213304E-1,9.7359633E-1,1.6841906E-1,-1.6671254E-1,-8.764535E-1,-5.426658E-1,1.953987E-1,-3.6749464E-1,-1.1037092E0,1.0999664E0,2.7366543E-1,3.176103E-1,-7.601889E-1,7.429582E-1,2.4429819E-1,-1.0143838E0,-1.9775349E-1,1.1979499E-1,-4.3694982E-1,-1.0083117E0,-1.4895761E-1,-9.102821E-2,7.496656E-1,4.4776523E-1,-1.4302443E-1,2.6262227E-1,-2.8423318E-1,-1.31408E0,-3.6495256E-1,-2.6189837E-1,-9.74522E-1,7.556939E-1,-3.704972E-1],"categories":[],"categories_nodes":[],"categories_segments":[],"categories_sizes":[],"default_left":[1,1,1,1,1,1,1,1,1,1,1,1,0,1,1,0,1,1,0,1,1,1,0,0,1,1,1,0,1,1,1,0,0,1,1,0,0,0,0,0,0,1,1,1,0,1,1,0,1,1,1,0,1,0,1,1,1,0,1,1,1,1,1,0,0,0,0,0,0,0,0,0,0,0,0,0,0,0,0,0,0,0,0,0,0,0,0,0,0],"id":11,"left_children":[1,3,5,7,9,11,13,15,17,19,21,23,-1,25,27,-1,29,31,-1,33,35,37,-1,-1,39,41,43,-1,45,47,49,-1,-1,51,53,-1,-1,-1,-1,-1,-1,55,57,59,-1,61,63,-1,65,67,69,-1,71,-1,73,75,77,-1,79,81,83,85,87,-1,-1,-1,-1,-1,-1,-1,-1,-1,-1,-1,-1,-1,-1,-1,-1,-1,-1,-1,-1,-1,-1,-1,-1,-1,-1],"loss_changes":[1.9614517E1,1.5942936E1,7.07481E0,6.040331E0,4.2502036E0,3.694539E0,4.8423853E0,3.089159E0,6.7170353E0,2.323936E0,2.1200528E0,4.9235554E0,0E0,4.0074744E0,1.7293949E0,0E0,1.4178638E0,1.5865223E0,0E0,2.2742987E0,3.4581757E-1,2.2680013E0,0E0,0E0,3.204565E-1,3.2425272E0,2.5950985E0,0E0,2.514845E0,1.4190083E0,7.554988E0,0E0,0E0,1.2790761E0,1.4786731E0,0E0,0E0,0E0,0E0,0E0,0E0,2.6342015E0,2.5987947E0,3.2073011E0,0E0,3.1152894E0,9.5640945E-1,0E0,2.0873566E0,4.155163E0,8.346863E-1,0E0,2.015092E0,0E0,6.8368465E-1,2.2056258E0,2.841572E0,0E0,1.9974078E0,1.0106705E0,1.8519297E0,1.9373527E0,3.1827998E0,0E0,0E0,0E0,0E0,0E0,0E0,0E0,0E0,0E0,0E0,0E0,0E0,0E0,0E0,0E0,0E0,0E0,0E0,0E0,0E0,0E0,0E0,0E0,0E0,0E0,0E0],"parents":[2147483647,0,0,1,1,2,2,3,3,4,4,5,5,6,6,7,7,8,8,9,9,10,10,11,11,13,13,14,14,16,16,17,17,19,19,20,20,21,21,24,24,25,25,26,26,28,28,29,29,30,30,33,33,34,34,41,41,42,42,43,43,45,45,46,46,48,48,49,49,50,50,52,52,54,54,55,55,56,56,58,58,59,59,60,60,61,61,62,62],"right_children":[2,4,6,8,10,12,14,16,18,20,22,24,-1,26,28,-1,30,32,-1,34,36,38,-1,-1,40,42,44,-1,46,48,50,-1,-1,52,54,-1,-1,-1,-1,-1,-1,56,58,60,-1,62,64,-1,66,68,70,-1,72,-1,74,76,78,-1,80,82,84,86,88,-1,-1,-1,-1,-1,-1,-1,-1,-1,-1,-1,-1,-1,-1,-1,-1,-1,-1,-1,-1,-1,-1,-1,-1,-1,-1],"split_conditions":[1.5E0,9.029544E0,4.398642E0,4.7511575E-1,2.0144928E-1,3.2294936E0,3.5E0,1.7914438E-1,2.7931428E0,3.9548165E-1,2.2859216E-1,1.8198529E-1,-6.84974E-2,1.2355078E1,2.265409E-1,-7.3791393E-3,2.8165066E-1,6.0661763E-2,-5.369274E-2,3.6140662E-1,1.2748437E1,3.0348969E-1,-1.5318354E-2,2.4163092E-2,2.7402158E0,8.8757305E0,2.3876593E-1,7.842E-3,2.4602774E-1,1.15555555E-1,3.190909E-1,-4.3752943E-3,3.134009E-2,1.5504807E-1,1.0955488E1,-5.553631E-2,-1.8256009E-2,4.739847E-2,-3.3477943E-3,-4.6423454E-2,-1.4620691E-2,3.5067567E-1,9.202579E0,1.9316877E-1,1.7879318E-2,2.3013872E-1,2.761438E-1,7.5958977E-3,2.2956988E-1,2.921748E-1,1.9677418E-1,-2.5786476E-3,1.7028986E-1,2.4650034E-2,1.6780384E-1,2.174941E-1,2.1455939E-1,4.8679817E-2,2.5E0,1.3867521E-1,1.3799341E1,3.793651E-1,9.833931E0,-1.8374732E-2,-5.5185463E-2,5.499832E-2,1.3683272E-2,1.5880516E-2,-3.8009446E-2,3.714791E-2,1.2214909E-2,-5.071919E-2,-9.887675E-3,5.9897495E-3,-2.1847492E-2,-5.0415587E-2,-7.4478807E-3,-4.5514107E-3,3.7483282E-2,2.2388263E-2,-7.1512214E-3,1.3131114E-2,-1.4211659E-2,-6.5704E-2,-1.8247629E-2,-1.3094919E-2,-4.87261E-2,3.7784696E-2,-1.8524861E-2],"split_indices":[1,2,2,4,3,2,1,4,2,4,3,3,0,2,4,0,4,3,0,4,2,4,0,0,2,2,3,0,3,3,4,0,0,3,2,0,0,0,0,0,0,4,2,3,0,3,4,0,3,4,3,0,3,0,3,3,3,0,1,3,2,4,2,0,0,0,0,0,0,0,0,0,0,0,0,0,0,0,0,0,0,0,0,0,0,0,0,0,0],"split_type":[0,0,0,0,0,0,0,0,0,0,0,0,0,0,0,0,0,0,0,0,0,0,0,0,0,0,0,0,0,0,0,0,0,0,0,0,0,0,0,0,0,0,0,0,0,0,0,0,0,0,0,0,0,0,0,0,0,0,0,0,0,0,0,0,0,0,0,0,0,0,0,0,0,0,0,0,0,0,0,0,0,0,0,0,0,0,0,0,0],"sum_hessian":[2.8790195E2,1.4075179E2,1.4715016E2,9.479638E1,4.5955414E1,1.907731E1,1.2807285E2,8.0756645E1,1.4039729E1,3.5426834E1,1.0528583E1,1.19439535E1,7.133357E0,8.715917E1,4.0913673E1,5.318701E0,7.543795E1,1.0281452E1,3.7582772E0,2.8443798E1,6.9830356E0,7.229363E0,3.2992191E0,3.226328E0,8.717626E0,5.7544727E1,2.9614443E1,3.1438556E0,3.7769817E1,2.3757622E1,5.1680325E1,5.3901234E0,4.891329E0,1.8183567E1,1.026023E1,3.784049E0,3.1989865E0,3.8171484E0,3.4122148E0,5.6261716E0,3.0914543E0,3.3400806E1,2.4143925E1,2.6369293E1,3.2451494E0,2.493889E1,1.2830927E1,3.5105205E0,2.02471E1,1.1552072E1,4.0128254E1,5.665385E0,1.2518183E1,3.895707E0,6.3645234E0,1.3053478E1,2.0347326E1,3.8245406E0,2.0319384E1,1.6307415E1,1.0061878E1,1.7737389E1,7.2015023E0,4.8325367E0,7.9983907E0,1.4941673E1,5.305428E0,6.221491E0,5.33058E0,3.4251987E1,5.876265E0,5.5690136E0,6.9491687E0,3.157218E0,3.2073054E0,3.3104367E0,9.743042E0,1.6653284E1,3.6940422E0,1.0382472E1,9.936912E0,3.0882113E0,1.3219203E1,4.143586E0,5.9182916E0,1.22233305E1,5.514058E0,3.3747413E0,3.826761E0],"tree_param":{"num_deleted":"0","num_feature":"5","num_nodes":"89","size_leaf_vector":"0"}},{"base_weights":[-4.72858E-3,1.543212E-1,-3.5437027E-1,2.6099378E-1,-5.8102965E-2,-9.777758E-1,-2.835222E-1,3.7781787E-1,-1.2092259E-1,-3.4057766E-1,1.7866687E-1,-7.8749925E-2,-5.024925E-1,9.376487E-2,5.8759576E-1,1.0134796E-1,-4.6016204E-1,-1.5575476E-1,-8.416341E-1,5.274612E-1,-7.298607E-2,2.1603797E-1,-3.5458225E-1,-9.5642364E-1,-3.7990668E-1,5.4139113E-1,-1.6778159E-1,8.103045E-1,3.528131E-1,-4.4424736E-1,2.4269713E-1,-9.851489E-2,-5.8624995E-1,-5.509317E-1,1.1844689E-1,7.249699E-2,7.5433064E-1,3.1883088E-1,-3.0798092E-1,-2.5831425E-1,4.4344673E-1,4.8350897E-2,-5.017511E-1,-1.7035007E-1,-8.668492E-1,6.695645E-1,6.7583494E-2,2.7063915E-1,-6.1751616E-1,5.6483287E-1,-1.4304954E-1,8.2775824E-2,4.9619287E-1,-9.1107255E-1,-1.8149933E-1,3.5443693E-2,-8.481549E-1,-3.2899594E-1,1.2403338E0,5.9815057E-2,4.4603068E-1,-4.330682E-1,5.217009E-2,-7.874953E-2,-3.6742705E-1,6.9351174E-2,7.219675E-1,1.908917E-1,-6.7179084E-1,-3.298966E-1,1.4956841E-1,3.3124653E-1,1.0608741E0,-3.8637154E-2,4.3844986E-1,-8.976405E-2,8.005585E-1,5.9796643E-1,-9.270157E-1,3.1179902E-1,-1.1590979E-1,-8.1982285E-1,4.6766114E-1,-6.1979747E-1,-2.4961323E-1,3.3363488E-1,-2.2728825E-1,-9.952242E-1,-2.893817E-1,-4.4642878E-1,1.2911804E-1,4.0748018E-1,-1.9558048E-1],"categories":[],"categories_nodes":[],"categories_segments":[],"categories_sizes":[],"default_left":[1,1,1,1,1,0,1,1,1,1,1,1,1,1,1,1,1,1,0,1,1,1,1,0,1,1,1,0,1,0,1,0,1,1,1,0,0,1,1,1,1,0,1,1,0,1,0,1,0,1,1,1,0,0,0,0,0,1,0,0,0,1,0,0,0,1,0,0,1,1,1,0,0,0,0,0,0,0,0,0,0,0,0,0,0,0,0,0,0,0,0,0,0],"id":12,"left_children":[1,3,5,7,9,-1,11,13,15,17,19,21,23,25,27,29,31,33,-1,35,37,39,41,-1,43,45,47,-1,49,-1,51,-1,53,55,57,-1,-1,59,61,63,65,-1,67,69,-1,71,-1,73,-1,75,77,79,-1,-1,-1,-1,-1,81,-1,-1,-1,83,-1,-1,-1,85,-1,-1,87,89,91,-1,-1,-1,-1,-1,-1,-1,-1,-1,-1,-1,-1,-1,-1,-1,-1,-1,-1,-1,-1,-1,-1],"loss_changes":[1.58809185E1,4.4722686E0,3.5152893E0,5.9143124E0,4.5611396E0,0E0,3.62536E0,5.909315E0,2.4708266E0,2.6641362E0,3.3371024E0,3.7212038E0,1.6380386E0,5.357989E0,2.5713902E0,1.7344409E0,4.9354935E-1,2.7571115E0,0E0,1.54421E0,2.2624698E0,2.5841093E0,1.4338017E0,0E0,3.1951718E0,9.454026E-1,6.024064E0,0E0,3.3549957E0,0E0,6.299747E-1,0E0,9.534831E-1,1.8512993E0,8.4943905E0,0E0,0E0,2.6244605E-1,7.1974134E-1,1.12301886E-1,1.5497596E0,0E0,2.241181E0,1.3703008E0,0E0,1.1856956E0,0E0,8.520031E-1,0E0,3.4842443E0,6.8668823E0,6.19165E-1,0E0,0E0,0E0,0E0,0E0,5.423979E0,0E0,0E0,0E0,1.504054E-1,0E0,0E0,0E0,7.704104E-1,0E0,0E0,1.3210783E0,1.0209402E0,9.6291757E-1,0E0,0E0,0E0,0E0,0E0,0E0,0E0,0E0,0E0,0E0,0E0,0E0,0E0,0E0,0E0,0E0,0E0,0E0,0E0,0E0,0E0,0E0],"parents":[2147483647,0,0,1,1,2,2,3,3,4,4,6,6,7,7,8,8,9,9,10,10,11,11,12,12,13,13,14,14,15,15,16,16,17,17,19,19,20,20,21,21,22,22,24,24,25,25,26,26,28,28,30,30,32,32,33,33,34,34,37,37,38,38,39,39,40,40,42,42,43,43,45,45,47,47,49,49,50,50,51,51,57,57,61,61,65,65,68,68,69,69,70,70],"right_children":[2,4,6,8,10,-1,12,14,16,18,20,22,24,26,28,30,32,34,-1,36,38,40,42,-1,44,46,48,-1,50,-1,52,-1,54,56,58,-1,-1,60,62,64,66,-1,68,70,-1,72,-1,74,-1,76,78,80,-1,-1,-1,-1,-1,82,-1,-1,-1,84,-1,-1,-1,86,-1,-1,88,90,92,-1,-1,-1,-1,-1,-1,-1,-1,-1,-1,-1,-1,-1,-1,-1,-1,-1,-1,-1,-1,-1,-1],"split_conditions":[2.5E0,4.15E1,1.75E1,2.204861E-1,1.7362319E-1,-4.888879E-2,5.1E1,1.2973352E-1,2.910783E-1,1.6284958E-1,3.2811353E-1,3.5E0,1.7316341E-1,1.1E1,2.75E1,1.7519182E-1,2.4126984E-1,1.316115E-1,-4.2081706E-2,2.9221594E-1,1.9204426E-1,3.1E1,2.1980676E-1,-4.7821183E-2,2.4807692E-1,6.75E-1,4.3739128E-1,4.0515225E-2,1.9251888E-1,-2.221237E-2,2.5833333E-1,-4.9257446E-3,2.5948593E-1,1.1251758E-1,3.9408976E-1,3.6248495E-3,3.7716534E-2,5.75E1,2.1024685E-1,3.9565217E-1,2.1825397E-1,2.4175448E-3,2.2474748E-1,6.45E1,-4.334246E-2,5E-1,3.3791747E-3,1.14379086E-1,-3.0875808E-2,3.2698172E-1,2.9473686E-1,2.3926869E-1,2.4809644E-2,-4.555363E-2,-9.074966E-3,1.7721847E-3,-4.2407747E-2,5.45E1,6.2016692E-2,2.990753E-3,2.2301534E-2,1.9631094E-1,2.6085046E-3,-3.937477E-3,-1.8371353E-2,1.8469785E-1,3.6098376E-2,9.544585E-3,3.75E1,2.3371848E-1,3.3105022E-1,1.6562326E-2,5.3043704E-2,-1.9318577E-3,2.1922493E-2,-4.4882027E-3,4.0027928E-2,2.9898321E-2,-4.635079E-2,1.5589952E-2,-5.7954895E-3,-4.0991142E-2,2.3383057E-2,-3.0989874E-2,-1.2480661E-2,1.6681744E-2,-1.13644125E-2,-4.976121E-2,-1.4469086E-2,-2.2321438E-2,6.455902E-3,2.037401E-2,-9.779024E-3],"split_indices":[1,0,0,3,3,0,0,3,4,3,4,1,3,0,0,4,3,3,0,4,3,0,3,0,3,4,4,0,3,0,4,0,3,3,4,0,0,0,3,4,3,0,4,0,0,1,0,3,0,4,4,3,0,0,0,0,0,0,0,0,0,3,0,0,0,3,0,0,0,3,4,0,0,0,0,0,0,0,0,0,0,0,0,0,0,0,0,0,0,0,0,0,0],"split_type":[0,0,0,0,0,0,0,0,0,0,0,0,0,0,0,0,0,0,0,0,0,0,0,0,0,0,0,0,0,0,0,0,0,0,0,0,0,0,0,0,0,0,0,0,0,0,0,0,0,0,0,0,0,0,0,0,0,0,0,0,0,0,0,0,0,0,0,0,0,0,0,0,0,0,0,0,0,0,0,0,0,0,0,0,0,0,0,0,0,0,0,0,0],"sum_hessian":[2.825634E2,1.9477213E2,8.779126E1,1.2946373E2,6.530841E1,6.985128E0,8.080613E1,9.9170746E1,3.0292978E1,2.94993E1,3.580911E1,4.283432E1,3.797181E1,4.3069695E1,5.610105E1,1.8919361E1,1.1373617E1,2.3001175E1,6.498124E0,1.4335573E1,2.1473537E1,2.0845356E1,2.1988964E1,5.8871627E0,3.208465E1,1.530651E1,2.7763184E1,2.6881975E1,2.9219076E1,3.2169833E0,1.5702378E1,3.651531E0,7.7220864E0,8.816931E0,1.4184244E1,5.4431953E0,8.892378E0,7.8339567E0,1.363958E1,6.674721E0,1.4170635E1,6.133987E0,1.5854977E1,2.386122E1,8.22343E0,1.1543065E1,3.7634451E0,1.4349638E1,1.3413546E1,2.033557E1,8.883506E0,1.08725395E1,4.8298388E0,3.2293348E0,4.4927516E0,3.398903E0,5.4180284E0,1.0891563E1,3.2926807E0,3.3323357E0,4.5016212E0,9.918699E0,3.7208807E0,3.5336695E0,3.1410513E0,6.862569E0,7.308067E0,3.077258E0,1.2777719E1,1.5910813E1,7.950406E0,7.689877E0,3.8531878E0,5.432517E0,8.917121E0,5.618815E0,1.4716755E1,4.7432475E0,4.1402583E0,4.6773577E0,6.195182E0,6.7201557E0,4.1714077E0,3.1203947E0,6.7983046E0,3.548107E0,3.3144617E0,5.606199E0,7.1715198E0,1.2739492E1,3.1713202E0,4.41179E0,3.5386162E0],"tree_param":{"num_deleted":"0","num_feature":"5","num_nodes":"93","size_leaf_vector":"0"}},{"base_weights":[-3.2099977E-2,9.914693E-2,-3.487541E-1,2.3204878E-1,-3.089667E-1,-1.2482947E-1,-5.7928056E-1,2.9644138E-1,-7.3745176E-2,-4.7682494E-1,4.1615382E-1,-4.6853507E-1,4.9871933E-2,-3.8626602E-1,-9.5529616E-1,3.345341E-1,-2.5134635E-1,-3.3279175E-1,4.2051336E-1,1.4993615E-1,-6.014109E-1,6.2322456E-1,1.2296387E-1,-8.350501E-1,3.2583337E-2,1.5140381E-1,-4.407756E-1,-7.8607213E-1,-1.5851514E-1,-3.3446097E-1,-1.2088763E0,2.9212785E-1,8.5526586E-1,-3.2415647E-2,-4.186453E-1,4.0202954E-1,-5.2735543E-1,9.626956E-1,-3.392349E-1,2.4228624E-1,5.643401E-3,-1.0216665E0,-1.9446763E-1,1.8177044E-1,-1.2615266E-1,-7.362706E-2,4.940141E-1,-6.8235135E-1,5.1825043E-2,3.6536154E-1,-1.0929512E-1,1.2046951E0,2.2654863E-1,-1.1156743E0,2.9038062E-2,-5.617875E-1,-1.2886759E0,7.452603E-1,-5.6728494E-1,-2.0020422E-1,2.4036965E-1,8.9136773E-1,-3.9887458E-2,4.7249055E-1,-3.638422E-1,1.3621704E-1,4.9439806E-1,-1.156574E0,3.1108066E-1,4.9307373E-1,-3.469569E-1,-9.362359E-1,6.511057E-2,-1.1558777E0,-2.3990798E-1,-4.9019724E-1,6.714728E-2,6.224788E-1,1.9710109E-1,-7.5571537E-1,1.6080712E-1],"categories":[],"categories_nodes":[],"categories_segments":[],"categories_sizes":[],"default_left":[1,1,1,1,1,1,1,1,1,1,1,1,1,1,1,1,1,1,1,1,1,0,0,0,1,1,0,0,1,0,0,1,1,0,0,0,1,0,0,0,0,1,1,0,0,1,1,0,1,1,1,0,0,0,1,1,0,0,1,1,0,0,0,1,1,0,0,0,0,0,0,0,0,0,0,0,0,0,0,0,0],"id":13,"left_children":[1,3,5,7,9,11,13,15,17,19,21,23,25,27,29,31,33,35,37,39,41,-1,-1,-1,43,45,-1,-1,47,-1,-1,49,51,-1,-1,-1,53,-1,-1,-1,-1,55,57,-1,-1,59,61,-1,63,65,67,-1,-1,-1,69,71,-1,-1,73,75,-1,-1,-1,77,79,-1,-1,-1,-1,-1,-1,-1,-1,-1,-1,-1,-1,-1,-1,-1,-1],"loss_changes":[1.1602697E1,1.08240795E1,4.1059313E0,2.9872608E0,6.2824135E0,2.6462579E0,2.326068E0,2.7180986E0,3.6985128E0,3.3126192E0,4.8660696E-1,2.7662039E0,1.5977846E0,2.432993E0,1.3436251E0,2.1921415E0,3.0159134E-1,2.9974368E0,4.624159E0,1.0107352E-1,5.54006E0,0E0,0E0,0E0,2.1687314E-1,2.0703194E0,0E0,0E0,2.2951198E0,0E0,0E0,3.3040218E0,1.3331294E0,0E0,0E0,0E0,5.123515E0,0E0,0E0,0E0,0E0,9.1719437E-1,7.374436E0,0E0,0E0,7.488552E-1,2.3011606E0,0E0,3.0318978E0,2.660821E0,8.537019E0,0E0,0E0,0E0,1.8988692E0,2.1472785E0,0E0,0E0,2.3905482E0,1.0601187E0,0E0,0E0,0E0,1.6077447E-1,1.9999566E0,0E0,0E0,0E0,0E0,0E0,0E0,0E0,0E0,0E0,0E0,0E0,0E0,0E0,0E0,0E0,0E0],"parents":[2147483647,0,0,1,1,2,2,3,3,4,4,5,5,6,6,7,7,8,8,9,9,10,10,11,11,12,12,13,13,14,14,15,15,16,16,17,17,18,18,19,19,20,20,24,24,25,25,28,28,31,31,32,32,36,36,41,41,42,42,45,45,46,46,48,48,49,49,50,50,54,54,55,55,58,58,59,59,63,63,64,64],"right_children":[2,4,6,8,10,12,14,16,18,20,22,24,26,28,30,32,34,36,38,40,42,-1,-1,-1,44,46,-1,-1,48,-1,-1,50,52,-1,-1,-1,54,-1,-1,-1,-1,56,58,-1,-1,60,62,-1,64,66,68,-1,-1,-1,70,72,-1,-1,74,76,-1,-1,-1,78,80,-1,-1,-1,-1,-1,-1,-1,-1,-1,-1,-1,-1,-1,-1,-1,-1],"split_conditions":[5.1E1,2.3904762E-1,3.4668803E-1,4.15E1,8.913487E0,2.975603E-1,1.9716907E-1,6.0769236E-1,4.75E1,7.5E0,2.8634146E-1,1.3769798E1,2.3804705E-1,5.75E1,3.643579E-1,4.05E1,6.2360954E-1,9.029544E0,2.0954281E-1,1.6420026E0,4.691017E0,3.1161228E-2,6.1481935E-3,-4.1752506E-2,6.75E1,1.9441752E-1,-2.203878E-2,-3.930361E-2,3.6171496E-1,-1.672305E-2,-6.0443815E-2,3.45E1,3.6835104E-1,-1.6207824E-3,-2.0932265E-2,2.0101478E-2,1.7888889E-1,4.813478E-2,-1.6961744E-2,1.2114312E-2,2.8217005E-4,1.45E1,2.75E1,9.088523E-3,-6.307633E-3,1.4497313E1,3.1461114E-1,-3.411757E-2,6.45E1,1.3118279E-1,3.75E1,6.0234755E-2,1.1327432E-2,-5.5783715E-2,3.272187E-1,2.5696979E0,-6.44338E-2,3.7263017E-2,6.8255E0,1.7301588E-1,1.2018482E-2,4.4568386E-2,-1.994373E-3,1.329307E1,1.7757577E-1,6.8108523E-3,2.4719903E-2,-5.7828702E-2,1.5554033E-2,2.4653686E-2,-1.7347846E-2,-4.6811797E-2,3.2555286E-3,-5.7793885E-2,-1.1995399E-2,-2.4509862E-2,3.3573639E-3,3.112394E-2,9.855054E-3,-3.778577E-2,8.040356E-3],"split_indices":[0,3,4,0,2,4,3,4,0,0,4,2,3,0,4,0,2,2,3,2,2,0,0,0,0,3,0,0,4,0,0,0,4,0,0,0,3,0,0,0,0,0,0,0,0,2,4,0,0,3,0,0,0,0,4,2,0,0,2,3,0,0,0,2,3,0,0,0,0,0,0,0,0,0,0,0,0,0,0,0,0],"split_type":[0,0,0,0,0,0,0,0,0,0,0,0,0,0,0,0,0,0,0,0,0,0,0,0,0,0,0,0,0,0,0,0,0,0,0,0,0,0,0,0,0,0,0,0,0,0,0,0,0,0,0,0,0,0,0,0,0,0,0,0,0,0,0,0,0,0,0,0,0,0,0,0,0,0,0,0,0,0,0,0,0],"sum_hessian":[2.763722E2,1.9609389E2,8.02783E1,1.4842955E2,4.7664337E1,4.191717E1,3.8361126E1,1.2267569E2,2.5753862E1,3.913288E1,8.531455E0,1.3295033E1,2.8622139E1,2.7376064E1,1.0985064E1,1.1526262E2,7.4130707E0,1.7232416E1,8.521447E0,6.424972E0,3.270791E1,3.9904897E0,4.5409656E0,7.1130133E0,6.18202E0,2.4590939E1,4.0312004E0,8.584784E0,1.8791279E1,4.2058444E0,6.779219E0,1.0876587E2,6.4967527E0,4.0125628E0,3.4005077E0,3.261946E0,1.3970469E1,4.7465925E0,3.7748544E0,3.2542152E0,3.1707568E0,1.496397E1,1.7743938E1,3.1071312E0,3.0748892E0,1.5535489E1,9.055449E0,4.432919E0,1.435836E1,9.211965E1,1.6646214E1,3.282385E0,3.2143676E0,6.0662904E0,7.9041796E0,7.220799E0,7.743171E0,4.6067615E0,1.31371765E1,1.1482254E1,4.053235E0,4.626572E0,4.4288764E0,7.046316E0,7.312044E0,3.432532E1,5.7794334E1,4.0223136E0,1.2623899E1,3.3407278E0,4.563452E0,4.0672216E0,3.1535773E0,3.3276842E0,9.809492E0,4.9260902E0,6.5561643E0,3.3143425E0,3.7319736E0,3.8184114E0,3.493633E0],"tree_param":{"num_deleted":"0","num_feature":"5","num_nodes":"81","size_leaf_vector":"0"}},{"base_weights":[-2.9882923E-2,1.8012407E-1,-2.3183149E-1,3.2927096E-1,-1.8797414E-1,2.356931E-2,-4.0476823E-1,3.9184603E-1,-2.6769757E-1,-4.007809E-1,4.4436663E-1,2.2745407E-1,-2.8745177E-1,-1.1207805E0,-2.8920662E-1,5.5720764E-1,2.9505298E-1,1.8654633E-1,-7.487749E-1,-5.9802485E-1,-1.6278577E-1,4.865331E-2,6.8900484E-1,8.277365E-2,1.1029049E0,-6.6464853E-1,4.4897065E-2,-1.7234427E-1,-7.285538E-1,1.2747175E-1,6.9092536E-1,-1.6463801E-1,4.1332534E-1,-1.7355752E-1,-7.182192E-1,5.3593796E-1,-4.9816167E-1,2.3343141E-1,-3.5115162E-1,1.8501187E-2,-1.0079294E0,-5.505671E-1,4.3414524E-1,-2.8355628E-1,4.8433357E-1,-1.356011E0,-5.426653E-2,-1.9249837E-1,4.8646015E-1,8.541207E-1,3.6567742E-1,-6.2236744E-1,1.10010855E-1,4.515856E-1,7.327907E-2,-3.7284335E-1,-1.0490934E0,-1.5135157E-1,-8.162249E-1,-3.440577E-1,3.7895778E-1,-6.144101E-1,2.4055762E-2,1.2555543E-1,5.9862655E-1,-1.14962235E-1,-5.3734505E-1,-1.1522383E-1,8.2261133E-1,-3.4970486E-1,3.096603E-1,6.681005E-1,3.403393E-2,2.2727522E-1,-6.964287E-2,3.3585498E-1,8.628382E-1,-6.035724E-1,-4.40251E-2,5.9752774E-1,6.723247E-2,-4.827797E-1,3.8160294E-1,-1.4954627E-1,-5.961497E-1],"categories":[],"categories_nodes":[],"categories_segments":[],"categories_sizes":[],"default_left":[1,1,1,1,1,1,1,1,1,1,1,1,1,0,1,1,1,0,0,1,1,0,0,1,0,1,1,1,1,1,1,1,1,0,1,0,1,1,1,0,0,0,1,1,1,0,1,0,0,0,1,0,1,1,0,1,0,0,0,0,1,0,0,0,0,1,1,0,0,0,0,0,0,0,0,0,0,0,0,0,0,0,0,0,0],"id":14,"left_children":[1,3,5,7,9,11,13,15,17,19,21,23,25,-1,27,29,31,-1,-1,33,35,-1,-1,37,-1,39,41,43,45,47,49,51,53,-1,55,-1,57,59,61,-1,-1,-1,63,65,67,-1,69,-1,-1,-1,71,-1,73,75,-1,77,-1,-1,-1,-1,79,-1,-1,-1,-1,81,83,-1,-1,-1,-1,-1,-1,-1,-1,-1,-1,-1,-1,-1,-1,-1,-1,-1,-1],"loss_changes":[1.1940802E1,7.67671E0,6.3540874E0,3.851245E0,5.75163E0,3.858523E0,6.58585E0,1.1869555E0,2.456078E0,1.3155556E0,1.0036104E0,4.497454E0,3.075696E0,0E0,3.6930485E0,1.6720715E0,3.369835E0,0E0,0E0,6.4742947E-1,4.2121286E0,0E0,0E0,2.2864254E0,0E0,2.7137904E0,3.652787E0,4.719843E0,6.4068823E0,1.216477E0,7.771406E-1,1.7855461E0,5.723705E-1,0E0,8.14446E-1,0E0,1.1042984E0,2.3386307E0,9.284551E-1,0E0,0E0,0E0,3.5948825E-1,2.20443E0,2.0752687E0,0E0,1.1317056E0,0E0,0E0,0E0,1.0181156E0,0E0,2.2759964E-1,1.6008224E0,0E0,5.9109604E-1,0E0,0E0,0E0,0E0,1.3701782E0,0E0,0E0,0E0,0E0,6.5386176E0,3.3902502E-1,0E0,0E0,0E0,0E0,0E0,0E0,0E0,0E0,0E0,0E0,0E0,0E0,0E0,0E0,0E0,0E0,0E0,0E0],"parents":[2147483647,0,0,1,1,2,2,3,3,4,4,5,5,6,6,7,7,8,8,9,9,10,10,11,11,12,12,14,14,15,15,16,16,19,19,20,20,23,23,25,25,26,26,27,27,28,28,29,29,30,30,31,31,32,32,34,34,36,36,37,37,38,38,42,42,43,43,44,44,46,46,50,50,52,52,53,53,55,55,60,60,65,65,66,66],"right_children":[2,4,6,8,10,12,14,16,18,20,22,24,26,-1,28,30,32,-1,-1,34,36,-1,-1,38,-1,40,42,44,46,48,50,52,54,-1,56,-1,58,60,62,-1,-1,-1,64,66,68,-1,70,-1,-1,-1,72,-1,74,76,-1,78,-1,-1,-1,-1,80,-1,-1,-1,-1,82,84,-1,-1,-1,-1,-1,-1,-1,-1,-1,-1,-1,-1,-1,-1,-1,-1,-1,-1],"split_conditions":[1.5E0,4.15E1,1.9496357E-1,5.0641024E-1,2.0144928E-1,5.1E1,1.75E1,2.8165066E-1,1.1E1,3.636991E-1,4.75E1,4.75E1,1.7362319E-1,-5.6039024E-2,3.7854406E-1,1.05E1,3.190909E-1,9.327317E-3,-3.7438747E-2,1.5504807E-1,3.7987012E-1,2.4326656E-3,3.4450244E-2,2.5E0,5.5145245E-2,1.4519906E-1,5.8E1,3.5834974E-1,4.0547055E-1,2.361111E-1,2.204861E-1,1.8665378E-1,1.9677418E-1,-8.677877E-3,5.7E1,2.6796898E-2,1.6103691E-1,1.2122449E-1,4.3189964E-1,9.250594E-4,-5.0396472E-2,-2.7528355E-2,3.5507247E-1,5.45E1,2.0983419E-1,-6.780055E-2,2.2996795E-1,-9.624919E-3,2.4323007E-2,4.2706035E-2,2.05E1,-3.1118372E-2,2.8989813E-1,1.5707237E-1,3.6639534E-3,1.593045E-1,-5.245467E-2,-7.5675785E-3,-4.0811244E-2,-1.7202886E-2,3.1E1,-3.0720506E-2,1.2027881E-3,6.277771E-3,2.9931327E-2,4.05E1,2.1089697E-1,-5.7611917E-3,4.113057E-2,-1.7485244E-2,1.5483014E-2,3.3405025E-2,1.7016967E-3,1.13637615E-2,-3.4821436E-3,1.679275E-2,4.3141913E-2,-3.0178621E-2,-2.2012552E-3,2.9876387E-2,3.3616235E-3,-2.4138985E-2,1.9080147E-2,-7.4773133E-3,-2.9807484E-2],"split_indices":[1,0,3,4,3,0,0,4,0,4,0,0,3,0,4,0,4,0,0,3,4,0,0,1,0,3,0,4,4,3,3,3,3,0,0,0,3,3,4,0,0,0,4,0,3,0,3,0,0,0,0,0,4,3,0,3,0,0,0,0,0,0,0,0,0,0,3,0,0,0,0,0,0,0,0,0,0,0,0,0,0,0,0,0,0],"split_type":[0,0,0,0,0,0,0,0,0,0,0,0,0,0,0,0,0,0,0,0,0,0,0,0,0,0,0,0,0,0,0,0,0,0,0,0,0,0,0,0,0,0,0,0,0,0,0,0,0,0,0,0,0,0,0,0,0,0,0,0,0,0,0,0,0,0,0,0,0,0,0,0,0,0,0,0,0,0,0,0,0,0,0,0,0],"sum_hessian":[2.785631E2,1.366122E2,1.419509E2,9.7352196E1,3.926E1,5.7810894E1,8.414E1,8.859745E1,8.754748E0,2.979721E1,9.46279E0,3.5182663E1,2.2628233E1,9.867463E0,7.427254E1,3.003951E1,5.8557938E1,4.964613E0,3.790136E0,1.5029776E1,1.4767434E1,4.31778E0,5.1450095E0,3.1611645E1,3.5710166E0,9.910593E0,1.2717641E1,6.0335117E1,1.3937424E1,7.8419933E0,2.2197515E1,1.1845454E1,4.6712486E1,4.1440806E0,1.08856945E1,4.4887342E0,1.02787E1,2.3996304E1,7.6153407E0,3.779395E0,6.1311975E0,4.771282E0,7.9463587E0,5.233878E1,7.996338E0,6.4261775E0,7.511246E0,4.4994206E0,3.342573E0,1.3136404E1,9.061112E0,3.7436428E0,8.101811E0,4.15195E1,5.192984E0,6.901843E0,3.983852E0,5.991214E0,4.287486E0,4.404191E0,1.9592113E1,3.928993E0,3.6863475E0,3.7036345E0,4.2427244E0,3.2780975E1,1.95578E1,3.23038E0,4.765958E0,4.1932406E0,3.3180053E0,3.9276214E0,5.133491E0,4.695195E0,3.4066162E0,3.4546955E1,6.972547E0,3.3014555E0,3.6003876E0,1.0689618E1,8.902495E0,1.8867304E1,1.3913673E1,3.2973666E0,1.6260433E1],"tree_param":{"num_deleted":"0","num_feature":"5","num_nodes":"85","size_leaf_vector":"0"}},{"base_weights":[-2.5318615E-2,1.1665533E-1,-3.437658E-1,2.0652595E-1,-1.5448798E-1,-1.0340078E0,-2.1720102E-1,-5.6962305E-1,2.3199071E-1,1.3899961E-1,-4.057881E-1,-2.9038846E-1,-1.2500311E0,3.965922E-1,-3.4035408E-1,4.84086E-1,1.4545351E-1,-1.0989553E-1,3.8204968E-1,-9.686312E-1,-2.6259395E-1,7.49115E-2,6.3346416E-1,-9.373886E-1,-2.6468736E-1,-1.1716663E-1,6.9583344E-1,-5.1171005E-1,2.24004E-1,3.354911E-1,-3.7269172E-1,8.839836E-1,4.8058476E-2,5.376604E-1,-4.7595206E-1,6.463871E-1,-3.8054785E-1,2.1615653E-1,-4.5986238E-1,9.663487E-1,-1.4354952E-1,-7.843353E-1,-2.0552918E-1,3.1341073E-1,-1.15795426E-1,-6.633624E-1,-5.19709E-2,2.0258863E-1,-1.3218631E-1,-9.513901E-1,-2.953294E-1,-2.6575935E-1,-7.689086E-1,-2.187021E-1,-2.7881717E-2,9.086735E-2,-4.3781516E-1,6.255132E-1,1.5005386E-1,1.5057772E-1,-6.139345E-1,8.561545E-2,-4.590281E-1,-3.4843826E-1,4.084223E-1,-1.026192E0,-2.631306E-2],"categories":[],"categories_nodes":[],"categories_segments":[],"categories_sizes":[],"default_left":[1,1,1,1,1,1,1,0,1,1,1,0,0,1,1,1,1,1,1,0,1,0,0,0,1,1,1,1,1,0,1,0,1,0,1,0,1,0,0,0,1,0,1,1,1,0,0,0,0,0,1,1,1,0,0,0,0,0,0,0,0,0,0,0,0,0,0],"id":15,"left_children":[1,3,5,7,9,11,13,-1,15,17,19,-1,-1,21,23,25,27,29,31,-1,33,-1,-1,-1,35,37,39,41,43,-1,45,-1,47,-1,49,-1,51,-1,-1,-1,53,-1,55,57,59,-1,-1,-1,-1,-1,61,63,65,-1,-1,-1,-1,-1,-1,-1,-1,-1,-1,-1,-1,-1,-1],"loss_changes":[1.299708E1,4.896924E0,7.3925467E0,3.161695E0,3.8016987E0,1.5799341E0,6.0072665E0,0E0,3.0823374E0,1.5375351E0,1.8251514E0,0E0,0E0,9.514222E-1,2.542583E0,4.8060627E0,5.9080563E0,1.7288551E0,2.0501504E0,0E0,4.484516E0,0E0,0E0,0E0,6.6580014E0,1.3899487E0,6.438422E0,7.761097E-1,3.1054907E0,0E0,7.8057015E-1,0E0,2.9720652E-1,0E0,1.2638111E0,0E0,2.083002E0,0E0,0E0,0E0,5.7718366E-2,0E0,6.0357845E-1,3.924316E0,3.0596395E0,0E0,0E0,0E0,0E0,0E0,1.0927153E0,2.6578786E0,2.1402917E0,0E0,0E0,0E0,0E0,0E0,0E0,0E0,0E0,0E0,0E0,0E0,0E0,0E0,0E0],"parents":[2147483647,0,0,1,1,2,2,3,3,4,4,5,5,6,6,8,8,9,9,10,10,13,13,14,14,15,15,16,16,17,17,18,18,20,20,24,24,25,25,26,26,27,27,28,28,30,30,32,32,34,34,36,36,40,40,42,42,43,43,44,44,50,50,51,51,52,52],"right_children":[2,4,6,8,10,12,14,-1,16,18,20,-1,-1,22,24,26,28,30,32,-1,34,-1,-1,-1,36,38,40,42,44,-1,46,-1,48,-1,50,-1,52,-1,-1,-1,54,-1,56,58,60,-1,-1,-1,-1,-1,62,64,66,-1,-1,-1,-1,-1,-1,-1,-1,-1,-1,-1,-1,-1,-1],"split_conditions":[2.5E0,1.06223545E1,5.2377396E0,1.7519182E-1,3.526538E-1,1.45E1,3.45E1,-2.8481154E-2,2.8989813E-1,1.3662941E1,3.6297762E-1,-1.4519423E-2,-6.250156E-2,7.1557636E0,3.75E1,3.5682585E0,3.0602008E-1,5.05E1,5E-1,-4.843156E-2,3.716117E-1,3.745575E-3,3.1673208E-2,-4.686943E-2,4.15E1,1.7653222E0,7.457467E0,3.75E1,4.919355E-1,1.6774556E-2,3.0877572E-1,4.419918E-2,1.5596664E1,2.6883021E-2,4.75E1,3.2319356E-2,3.8227886E-1,1.0807826E-2,-2.299312E-2,4.8317436E-2,2.746615E-1,-3.9216768E-2,9.315666E0,4.8726435E0,1.45E1,-3.316812E-2,-2.598545E-3,1.0129432E-2,-6.6093155E-3,-4.7569506E-2,1.22309885E1,3.695469E-1,4.3650794E-1,-1.0935104E-2,-1.3940859E-3,4.5433673E-3,-2.1890758E-2,3.127566E-2,7.502693E-3,7.528886E-3,-3.0696725E-2,4.2807725E-3,-2.2951405E-2,-1.7421914E-2,2.0421116E-2,-5.1309597E-2,-1.3156531E-3],"split_indices":[1,2,2,4,4,0,0,0,4,2,4,0,0,2,0,2,4,0,1,0,4,0,0,0,0,2,2,0,4,0,4,0,2,0,0,0,4,0,0,0,4,0,2,2,0,0,0,0,0,0,2,4,4,0,0,0,0,0,0,0,0,0,0,0,0,0,0],"split_type":[0,0,0,0,0,0,0,0,0,0,0,0,0,0,0,0,0,0,0,0,0,0,0,0,0,0,0,0,0,0,0,0,0,0,0,0,0,0,0,0,0,0,0,0,0,0,0,0,0,0,0,0,0,0,0,0,0,0,0,0,0,0,0,0,0,0,0],"sum_hessian":[2.8459402E2,1.9747325E2,8.712078E1,1.4861053E2,4.8862705E1,1.1820738E1,7.530004E1,3.6901724E0,1.4492036E2,2.2830276E1,2.6032429E1,3.4629273E0,8.357811E0,1.2013458E1,6.3286587E1,3.524375E1,1.0967662E2,1.1665186E1,1.1165091E1,3.511905E0,2.2520525E1,5.949889E0,6.0635686E0,5.1822524E0,5.8104332E1,9.341506E0,2.5902245E1,1.0813187E1,9.8863434E1,4.1606827E0,7.504503E0,3.4620962E0,7.7029943E0,4.250622E0,1.8269903E1,5.7707725E0,5.233356E1,5.001492E0,4.340014E0,1.9426516E1,6.47573E0,4.4636E0,6.349587E0,7.8384995E1,2.047844E1,3.0796764E0,4.4248266E0,4.0770936E0,3.6259007E0,3.2524545E0,1.5017447E1,4.2364132E1,9.96943E0,3.0629961E0,3.4127338E0,3.1721268E0,3.1774604E0,2.5452211E1,5.293278E1,1.4012141E1,6.4662986E0,4.71035E0,1.0307097E1,3.8395096E1,3.9690347E0,6.9687037E0,3.0007265E0],"tree_param":{"num_deleted":"0","num_feature":"5","num_nodes":"67","size_leaf_vector":"0"}},{"base_weights":[5.130597E-3,1.17207415E-1,-2.6840383E-1,2.9456523E-1,-6.261234E-2,-7.497165E-1,-1.3798825E-1,3.760885E-1,-3.918139E-1,5.8892064E-2,-5.718091E-1,-4.5645216E-1,-1.0771519E0,7.8522585E-2,-2.918085E-1,8.1317425E-1,3.0328077E-1,2.2086342E-1,-1.1700836E0,1.5108426E-1,-5.811388E-1,-1.2571461E0,-2.4237369E-1,-7.4940026E-1,2.2643694E-1,2.8179458E-1,-3.3805475E-1,-1.7805158E-1,-7.692422E-1,1.3316256E-1,1.206374E0,-3.8426495E-1,4.005714E-1,3.659767E-1,-7.859103E-3,-1.0533079E0,-1.5537351E-1,1.6300595E-1,-6.983739E-1,5.5955607E-2,9.475345E-1,-1.1273108E-1,-5.530335E-1,1.6267514E-2,-4.3442693E-1,-6.993722E-1,2.6565408E-2,2.0925711E-1,5.6262743E-1,-2.2883283E-1,4.4867143E-1,-3.1620067E-1,2.8793868E-1,-4.7330752E-2,3.8848245E-1,-3.213359E-1,3.834388E-1,-3.7774768E-1,4.028457E-1,-8.0495137E-1,9.852512E-2,4.0394145E-1,-1.7725597E-1,1.0360622E0,3.234359E-1,5.634023E-1,4.3879487E-2,-1.2910047E-2,-8.098416E-1,5.8202937E-2,9.011656E-1,-6.881467E-1,1.0637914E-1,-1.21200256E-1,7.4871266E-1,-1.8609283E-2,-5.51252E-1,2.0265952E-2,5.815427E-1,-2.9560393E-1,-1.0057992E0],"categories":[],"categories_nodes":[],"categories_segments":[],"categories_sizes":[],"default_left":[1,1,1,1,1,1,1,1,1,1,1,1,0,1,1,1,1,0,0,1,1,0,1,0,0,1,1,1,0,0,0,1,1,1,1,0,0,1,0,1,0,0,0,1,1,0,0,1,1,0,1,1,1,0,0,1,1,1,1,1,0,0,0,0,0,0,0,0,0,0,0,0,0,0,0,0,0,0,0,0,0],"id":16,"left_children":[1,3,5,7,9,11,13,15,17,19,21,23,-1,25,27,29,31,-1,-1,33,35,-1,37,-1,-1,39,41,43,-1,-1,-1,45,47,49,51,-1,-1,53,-1,55,-1,-1,-1,57,59,-1,-1,61,63,-1,65,67,69,-1,-1,71,73,75,77,79,-1,-1,-1,-1,-1,-1,-1,-1,-1,-1,-1,-1,-1,-1,-1,-1,-1,-1,-1,-1,-1],"loss_changes":[8.622396E0,6.3932323E0,4.9670024E0,5.857851E0,6.260084E0,8.8652515E-1,2.2402349E0,2.5091906E0,5.840844E0,4.984006E0,3.9249806E0,2.5854082E0,0E0,2.5674818E0,1.9049172E0,2.9694018E0,5.600204E0,0E0,0E0,2.5063272E0,1.8852258E0,0E0,2.9527874E0,0E0,0E0,2.9297254E0,3.870226E-1,1.6831809E0,0E0,0E0,0E0,1.4201459E0,2.0189047E0,1.6888242E0,4.103398E0,0E0,0E0,4.6524298E-1,0E0,2.236523E0,0E0,0E0,0E0,3.3470623E0,2.9924223E0,0E0,0E0,2.7438254E0,3.7367811E0,0E0,1.2515068E0,3.2735667E0,3.1470182E0,0E0,0E0,1.4516218E0,1.9091846E0,6.581631E-1,7.3333395E-1,4.34834E-1,0E0,0E0,0E0,0E0,0E0,0E0,0E0,0E0,0E0,0E0,0E0,0E0,0E0,0E0,0E0,0E0,0E0,0E0,0E0,0E0,0E0],"parents":[2147483647,0,0,1,1,2,2,3,3,4,4,5,5,6,6,7,7,8,8,9,9,10,10,11,11,13,13,14,14,15,15,16,16,19,19,20,20,22,22,25,25,26,26,27,27,31,31,32,32,33,33,34,34,37,37,39,39,43,43,44,44,47,47,48,48,50,50,51,51,52,52,55,55,56,56,57,57,58,58,59,59],"right_children":[2,4,6,8,10,12,14,16,18,20,22,24,-1,26,28,30,32,-1,-1,34,36,-1,38,-1,-1,40,42,44,-1,-1,-1,46,48,50,52,-1,-1,54,-1,56,-1,-1,-1,58,60,-1,-1,62,64,-1,66,68,70,-1,-1,72,74,76,78,80,-1,-1,-1,-1,-1,-1,-1,-1,-1,-1,-1,-1,-1,-1,-1,-1,-1,-1,-1,-1,-1],"split_conditions":[5.1E1,1.8893422E-1,1.1517876E1,5.522876E-1,3.7854406E-1,1.9848485E-1,3.289405E-1,2.871377E-1,1.45E1,3.153409E-1,4.0678436E-1,1.9201228E-1,-5.3857595E-2,2.3804705E-1,6.75E1,3.6370647E0,3.2200462E-1,1.1043171E-2,-5.8504183E-2,2.7555278E-1,3.5248446E-1,-6.285731E-2,4.4173443E-1,-3.7470013E-2,1.1321847E-2,1.5252253E1,2.576037E-1,1.9238164E-1,-3.8462114E-2,6.658128E-3,6.0318705E-2,1.7028986E-1,1.2973352E-1,1.7156863E-1,7.504012E0,-5.2665394E-2,-7.7686757E-3,3.15E1,-3.4918696E-2,2.0704171E-1,4.7376726E-2,-5.6365537E-3,-2.7651673E-2,3.7119818E-1,2.0974077E-1,-3.496861E-2,1.3282704E-3,4.4222224E-1,1.494681E-1,-1.14416415E-2,7.625827E0,2.4722221E-1,3.4875262E-1,-2.3665377E-3,1.9424124E-2,3.1726676E-1,3.0200073E-1,3.4851623E-1,6.05E1,1.2503939E1,4.9262564E-3,2.0197073E-2,-8.862799E-3,5.1803112E-2,1.6171796E-2,2.8170114E-2,2.1939743E-3,-6.4550235E-4,-4.049208E-2,2.910147E-3,4.505828E-2,-3.4407336E-2,5.318957E-3,-6.060013E-3,3.7435632E-2,-9.304642E-4,-2.7562601E-2,1.0132976E-3,2.9077133E-2,-1.4780196E-2,-5.028996E-2],"split_indices":[0,3,2,4,4,3,4,4,0,3,4,3,0,3,0,2,4,0,0,4,3,0,4,0,0,2,3,3,0,0,0,3,3,4,2,0,0,0,0,3,0,0,0,4,3,0,0,4,3,0,2,3,4,0,0,4,4,4,0,2,0,0,0,0,0,0,0,0,0,0,0,0,0,0,0,0,0,0,0,0,0],"split_type":[0,0,0,0,0,0,0,0,0,0,0,0,0,0,0,0,0,0,0,0,0,0,0,0,0,0,0,0,0,0,0,0,0,0,0,0,0,0,0,0,0,0,0,0,0,0,0,0,0,0,0,0,0,0,0,0,0,0,0,0,0,0,0,0,0,0,0,0,0,0,0,0,0,0,0,0,0,0,0,0,0],"sum_hessian":[2.7826505E2,1.9802213E2,8.024291E1,9.923963E1,9.8782486E1,1.5572232E1,6.467068E1,8.9323135E1,9.916498E0,8.0807175E1,1.7975313E1,1.0125236E1,5.446996E0,2.7139513E1,3.7531162E1,1.0556839E1,7.87663E1,6.142448E0,3.7740505E0,7.164826E1,9.158918E0,4.4543376E0,1.3520975E1,6.9936323E0,3.1316035E0,1.8581741E1,8.557772E0,3.1989462E1,5.5417013E0,4.6127825E0,5.944057E0,9.202889E0,6.956341E1,2.9658651E1,4.198961E1,3.2833529E0,5.875565E0,7.6563883E0,5.8645864E0,1.51003475E1,3.4813948E0,5.31749E0,3.2402813E0,1.897399E1,1.3015472E1,4.6257606E0,4.577129E0,3.350632E1,3.605709E1,3.2817612E0,2.637689E1,2.0524782E1,2.1464827E1,4.5513864E0,3.1050022E0,7.0154767E0,8.08487E0,9.400766E0,9.573223E0,7.237182E0,5.7782907E0,2.2254896E1,1.1251423E1,1.0411128E1,2.5645962E1,2.0074646E1,6.3022437E0,1.3679592E1,6.84519E0,1.6821568E1,4.6432576E0,3.2975361E0,3.7179408E0,3.8041768E0,4.280694E0,3.6220226E0,5.778744E0,3.5974236E0,5.975799E0,3.1093557E0,4.127826E0],"tree_param":{"num_deleted":"0","num_feature":"5","num_nodes":"81","size_leaf_vector":"0"}},{"base_weights":[-1.1091618E-2,9.979185E-2,-2.777434E-1,1.4302173E-1,-6.7792845E-1,-6.3263434E-1,-1.5846293E-1,4.2306733E-1,8.5016266E-2,-1.046008E0,-2.8631753E-1,-7.710258E-1,-1.9123542E-1,-7.563797E-2,-6.202874E-1,-2.3165505E-1,5.049042E-1,1.6280724E-1,-3.7586933E-1,-1.8862814E-1,-1.0831366E0,-2.2743937E-1,3.8247633E-1,7.1293324E-1,2.4645191E-1,5.2708006E-1,9.868899E-2,-5.2484244E-1,2.739063E-1,3.6871615E-1,-3.239632E-1,7.001308E-1,7.4036874E-2,3.1795162E-1,8.430576E-1,-2.711947E-2,7.7658296E-1,2.5222594E-1,6.6170275E-1,1.5011962E-1,-1.1130717E0,-5.027923E-3,-6.6897124E-1,-1.7076756E-1,-7.5047505E-1,-3.5452515E-1,5.1374614E-1,4.7043535E-1,-3.9329946E-1,3.5363314E-1,7.534451E-2,2.184279E-1,8.37162E-1,1.869392E-1,-2.1842991E-1,-8.6582685E-1,-1.5171403E-1,-3.3121443E-1,3.3057734E-1],"categories":[],"categories_nodes":[],"categories_segments":[],"categories_sizes":[],"default_left":[1,1,1,1,1,1,1,1,1,0,0,1,0,1,0,0,1,1,1,0,0,1,1,1,1,1,1,1,0,0,1,0,1,0,0,1,0,1,1,1,0,0,1,1,0,0,0,0,0,0,0,0,0,0,0,0,0,0,0],"id":17,"left_children":[1,3,5,7,9,11,13,15,17,-1,-1,19,-1,21,-1,-1,23,25,27,-1,-1,29,31,33,35,37,39,41,-1,-1,43,-1,45,-1,-1,47,-1,49,51,53,-1,-1,55,57,-1,-1,-1,-1,-1,-1,-1,-1,-1,-1,-1,-1,-1,-1,-1],"loss_changes":[8.296832E0,6.8048744E0,3.3301773E0,3.0118706E0,1.0780268E0,1.0036192E0,2.3592367E0,1.8944259E0,5.7728634E0,0E0,0E0,2.3842087E0,0E0,4.005228E0,0E0,0E0,1.2837777E0,3.1082976E0,2.476098E0,0E0,0E0,2.6429555E0,1.3269484E0,3.6908436E-1,2.2475405E0,4.8386192E-1,7.6011524E0,1.4493489E0,0E0,0E0,2.259861E0,0E0,1.9721862E0,0E0,0E0,2.368595E0,0E0,1.181314E-1,6.9019747E-1,1.6163182E0,0E0,0E0,1.3448563E0,2.5511863E0,0E0,0E0,0E0,0E0,0E0,0E0,0E0,0E0,0E0,0E0,0E0,0E0,0E0,0E0,0E0],"parents":[2147483647,0,0,1,1,2,2,3,3,4,4,5,5,6,6,7,7,8,8,11,11,13,13,16,16,17,17,18,18,21,21,22,22,23,23,24,24,25,25,26,26,27,27,30,30,32,32,35,35,37,37,38,38,39,39,42,42,43,43],"right_children":[2,4,6,8,10,12,14,16,18,-1,-1,20,-1,22,-1,-1,24,26,28,-1,-1,30,32,34,36,38,40,42,-1,-1,44,-1,46,-1,-1,48,-1,50,52,54,-1,-1,56,58,-1,-1,-1,-1,-1,-1,-1,-1,-1,-1,-1,-1,-1,-1,-1],"split_conditions":[5.1E1,3.1180555E-1,1.1644473E1,2.52451E-1,3.5248446E-1,5.75E1,2.3769169E-1,1.6775703E0,2.4722221E-1,-5.23004E-2,-1.4315876E-2,3.1414473E-1,-9.5617715E-3,2.0974077E-1,-3.1014372E-2,-1.1582753E-2,2.05E1,2.5115986E0,9.575222E0,-9.431407E-3,-5.415683E-2,1.2355078E1,2.2557667E-1,2.7558622E0,2.7636364E-1,6.458333E-2,5.522876E-1,2.8867522E-1,1.36953145E-2,1.8435808E-2,1.9316877E-1,3.500654E-2,2.3132664E-1,1.5897581E-2,4.2152878E-2,2.3290321E-1,3.8829148E-2,6.360294E-1,1.2526519E0,1.0718408E1,-5.5653583E-2,-2.5139615E-4,4.1640866E-1,1.804417E-1,-3.7523754E-2,-1.7726257E-2,2.5687307E-2,2.3521768E-2,-1.9664973E-2,1.7681656E-2,3.7672257E-3,1.0921395E-2,4.1858103E-2,9.34696E-3,-1.0921496E-2,-4.329134E-2,-7.5857015E-3,-1.6560722E-2,1.6528867E-2],"split_indices":[0,3,2,4,3,0,3,2,3,0,0,4,0,3,0,0,0,2,2,0,0,2,3,2,3,3,4,4,0,0,3,0,3,0,0,3,0,4,2,2,0,0,4,3,0,0,0,0,0,0,0,0,0,0,0,0,0,0,0],"split_type":[0,0,0,0,0,0,0,0,0,0,0,0,0,0,0,0,0,0,0,0,0,0,0,0,0,0,0,0,0,0,0,0,0,0,0,0,0,0,0,0,0,0,0,0,0,0,0,0,0,0,0,0,0,0,0,0,0,0,0],"sum_hessian":[2.776423E2,1.9673424E2,8.090807E1,1.875464E2,9.187829E0,1.8707842E1,6.2200233E1,3.0531256E1,1.5701515E2,3.4309478E0,5.7568808E0,1.3372385E1,5.3354564E0,5.4239998E1,7.960237E0,3.073554E0,2.74577E1,1.3518898E2,2.1826166E1,5.5167437E0,7.855642E0,4.1323956E1,1.291604E1,1.372999E1,1.3727712E1,1.8589645E1,1.1659934E2,1.8002544E1,3.8236213E0,5.15456E0,3.6169395E1,5.40858E0,7.5074606E0,4.701374E0,9.028616E0,9.981311E0,3.746401E0,7.5532007E0,1.1036444E1,1.131206E2,3.4787402E0,4.2600317E0,1.3742514E1,2.8173857E1,7.995539E0,3.937567E0,3.5698938E0,4.03894E0,5.9423704E0,3.8122058E0,3.740995E0,4.100755E0,6.9356885E0,1.03542564E2,9.578032E0,9.208013E0,4.5345016E0,2.1744022E1,6.4298344E0],"tree_param":{"num_deleted":"0","num_feature":"5","num_nodes":"59","size_leaf_vector":"0"}},{"base_weights":[-1.8003179E-2,1.2218917E-1,-3.606462E-1,2.7363473E-1,-5.8437288E-2,2.0037557E-1,-4.6397138E-1,3.5221213E-1,-1.4664488E-1,-6.618574E-1,1.07989684E-1,3.8083878E-1,-1.9479391E-1,-8.08468E-1,-3.642632E-1,4.2576838E-1,-2.646964E-2,2.1962227E-1,-6.790973E-1,-1.1568098E-1,-1.2007724E0,-3.2603223E-2,3.8144785E-1,1.0410067E-1,5.544812E-1,-2.5413895E-1,-9.829209E-1,-2.6109388E-1,-7.894502E-1,1.4530715E-1,5.086203E-1,-4.0325943E-1,3.7086967E-1,4.2045844E-1,-2.262631E-1,-3.4389618E-1,2.427184E-1,4.453459E-1,-2.2269918E-1,7.140521E-1,-1.021252E-1,-3.376512E-1,2.7608463E-1,-2.6543707E-1,-9.650698E-1,2.6178172E-1,-3.2258138E-1,7.767117E-1,3.5410398E-1,-1.7944112E-1,-5.3154165E-1,-8.208914E-2,7.9096407E-1,1.3472949E-1,5.509156E-1,-4.7233996E-1,-9.656339E-2,7.388691E-1,-3.9963916E-1,-3.5506317E-1,4.6150017E-1,8.815661E-1,6.539095E-2,4.916856E-1,-5.5428994E-1,3.5060862E-1,-4.123205E-1,1.1655246E-1,5.723659E-1,2.091457E-1,8.8437384E-1,-7.306997E-2,5.6879735E-1,3.4632915E-1,1.1311541E0,-2.0826775E-1,-1.1382339E0,4.0627062E-1,1.0375681E0,2.525197E-1,-4.9442834E-1],"categories":[],"categories_nodes":[],"categories_segments":[],"categories_sizes":[],"default_left":[1,1,1,1,1,1,1,1,1,1,1,1,0,1,1,1,1,1,0,1,0,1,1,0,0,0,0,1,1,1,1,1,1,1,0,1,0,1,1,1,1,1,0,0,0,1,0,1,1,0,0,0,0,0,0,0,0,1,0,1,0,1,0,0,0,0,1,0,0,0,0,0,0,0,0,0,0,0,0,0,0],"id":18,"left_children":[1,3,5,7,9,11,13,15,17,19,21,23,-1,25,27,29,31,33,-1,35,-1,37,39,-1,-1,-1,-1,41,43,45,47,49,51,53,-1,55,-1,57,59,61,63,65,-1,-1,-1,67,-1,69,71,-1,-1,-1,-1,-1,-1,-1,-1,73,-1,75,-1,77,-1,-1,-1,-1,79,-1,-1,-1,-1,-1,-1,-1,-1,-1,-1,-1,-1,-1,-1],"loss_changes":[1.3221671E1,5.3717375E0,4.7739677E0,3.599537E0,9.183921E0,1.0730178E0,1.8803635E0,2.5350246E0,3.7051592E0,5.5919075E0,2.7932322E0,3.7608337E-1,0E0,9.666538E-1,2.1125202E0,1.641366E0,2.6306677E0,1.1910102E0,0E0,1.0650539E0,0E0,4.594916E0,4.074752E0,0E0,0E0,0E0,0E0,2.0683622E0,5.2983236E-1,1.1826484E0,1.9705095E0,1.0765886E-1,1.7391384E0,2.0223916E-1,0E0,1.6893905E-1,0E0,4.022078E0,3.508951E0,1.5105677E0,3.4519591E0,2.3616753E0,0E0,0E0,0E0,6.3137054E-1,0E0,9.247446E-1,3.6851234E0,0E0,0E0,0E0,0E0,0E0,0E0,0E0,0E0,1.1277208E0,0E0,3.2018943E0,0E0,2.1469116E-1,0E0,0E0,0E0,0E0,2.28272E0,0E0,0E0,0E0,0E0,0E0,0E0,0E0,0E0,0E0,0E0,0E0,0E0,0E0,0E0],"parents":[2147483647,0,0,1,1,2,2,3,3,4,4,5,5,6,6,7,7,8,8,9,9,10,10,11,11,13,13,14,14,15,15,16,16,17,17,19,19,21,21,22,22,27,27,28,28,29,29,30,30,31,31,32,32,33,33,35,35,37,37,38,38,39,39,40,40,41,41,45,45,47,47,48,48,57,57,59,59,61,61,66,66],"right_children":[2,4,6,8,10,12,14,16,18,20,22,24,-1,26,28,30,32,34,-1,36,-1,38,40,-1,-1,-1,-1,42,44,46,48,50,52,54,-1,56,-1,58,60,62,64,66,-1,-1,-1,68,-1,70,72,-1,-1,-1,-1,-1,-1,-1,-1,74,-1,76,-1,78,-1,-1,-1,-1,80,-1,-1,-1,-1,-1,-1,-1,-1,-1,-1,-1,-1,-1,-1],"split_conditions":[5.1E1,1.5E0,5E-1,4.491744E-1,4.39672E0,3.7360448E-1,1.1524665E1,9.029544E0,2.7931428E0,1.45E1,8.892053E0,6.05E1,-9.739696E-3,9.682702E0,6.75E1,2.6349628E0,5E-1,6.791667E-1,-3.3954866E-2,4.5555556E-1,-6.0038622E-2,2.75E1,3.788889E-1,5.2050333E-3,2.7724061E-2,-1.27069475E-2,-4.9146045E-2,1.5833049E1,1.4255409E1,2.1708815E0,2.8165066E-1,3.6293858E-1,3.0893618E-1,5E-1,-1.1313155E-2,1.1E1,1.213592E-2,4.3779904E-1,4.3617886E-1,1.0865364E1,2.5E0,2.7994895E-1,1.3804232E-2,-1.3271853E-2,-4.8253488E-2,2.009573E0,-1.6129069E-2,1.9677418E-1,3.4578806E-1,-8.972056E-3,-2.6577083E-2,-4.1044573E-3,3.9548203E-2,6.7364746E-3,2.754578E-2,-2.3616998E-2,-4.8281695E-3,3.8104838E-1,-1.9981958E-2,8.683253E0,2.3075009E-2,2.5E0,3.2695476E-3,2.458428E-2,-2.7714496E-2,1.7530432E-2,1.1889847E1,5.827623E-3,2.8618295E-2,1.0457285E-2,4.4218693E-2,-3.6534984E-3,2.8439868E-2,1.7316459E-2,5.6557704E-2,-1.0413388E-2,-5.6911696E-2,2.0313531E-2,5.1878404E-2,1.2625985E-2,-2.4721418E-2],"split_indices":[0,1,1,4,2,4,2,2,2,0,2,0,0,2,0,2,1,4,0,4,0,0,4,0,0,0,0,2,2,2,4,4,4,1,0,0,0,4,4,2,1,4,0,0,0,2,0,4,4,0,0,0,0,0,0,0,0,4,0,2,0,1,0,0,0,0,2,0,0,0,0,0,0,0,0,0,0,0,0,0,0],"split_type":[0,0,0,0,0,0,0,0,0,0,0,0,0,0,0,0,0,0,0,0,0,0,0,0,0,0,0,0,0,0,0,0,0,0,0,0,0,0,0,0,0,0,0,0,0,0,0,0,0,0,0,0,0,0,0,0,0,0,0,0,0,0,0,0,0,0,0,0,0,0,0,0,0,0,0,0,0,0,0,0,0],"sum_hessian":[2.7231976E2,1.9391525E2,7.84045E1,1.0508779E2,8.882747E1,1.1959993E1,6.644451E1,8.875961E1,1.6328173E1,1.825056E1,7.057691E1,8.2652025E0,3.6947913E0,1.2498561E1,5.394595E1,7.418885E1,1.4570765E1,1.0184735E1,6.143439E0,9.978325E0,8.272236E0,4.7460606E1,2.3116302E1,4.133847E0,4.131355E0,3.887717E0,8.610844E0,4.5379486E1,8.566463E0,1.7887955E1,5.6300896E1,7.4802217E0,7.090543E0,7.0963535E0,3.0883813E0,6.1505127E0,3.8278127E0,1.2917085E1,3.454352E1,1.32847395E1,9.831564E0,4.0222805E1,5.1566806E0,3.1102364E0,5.4562273E0,1.4868717E1,3.0192382E0,1.835299E1,3.7947906E1,4.0646477E0,3.415574E0,3.981092E0,3.1094508E0,3.2042162E0,3.8921375E0,3.1234322E0,3.0270805E0,9.735475E0,3.1816106E0,2.9560915E1,4.982607E0,1.0117849E1,3.1668906E0,4.1838503E0,5.647713E0,3.3810482E0,3.6841755E1,1.1558881E1,3.3098366E0,3.644892E0,1.4708097E1,1.3008294E1,2.4939611E1,6.290577E0,3.4448972E0,2.6504622E1,3.0562935E0,3.8520882E0,6.2657604E0,3.6942053E0,3.3147552E1],"tree_param":{"num_deleted":"0",