{"learner":{"attributes":{"scikit_learn":"{\"_estimator_type\": \"classifier\"}"},"feature_names":["num_edges","cyclomatic_complexity","edge_locality_score","ratio_nodes_ge_3","ratio_nodes_eq_2"],"feature_types":["int","int","float","float","float"],"gradient_booster":{"model":{"gbtree_model_param":{"num_parallel_tree":"1","num_trees":"250"},"iteration_indptr":[0,1,2,3,4,5,6,7,8,9,10,11,12,13,14,15,16,17,18,19,20,21,22,23,24,25,26,27,28,29,30,31,32,33,34,35,36,37,38,39,40,41,42,43,44,45,46,47,48,49,50,51,52,53,54,55,56,57,58,59,60,61,62,63,64,65,66,67,68,69,70,71,72,73,74,75,76,77,78,79,80,81,82,83,84,85,86,87,88,89,90,91,92,93,94,95,96,97,98,99,100,101,102,103,104,105,106,107,108,109,110,111,112,113,114,115,116,117,118,119,120,121,122,123,124,125,126,127,128,129,130,131,132,133,134,135,136,137,138,139,140,141,142,143,144,145,146,147,148,149,150,151,152,153,154,155,156,157,158,159,160,161,162,163,164,165,166,167,168,169,170,171,172,173,174,175,176,177,178,179,180,181,182,183,184,185,186,187,188,189,190,191,192,193,194,195,196,197,198,199,200,201,202,203,204,205,206,207,208,209,210,211,212,213,214,215,216,217,218,219,220,221,222,223,224,225,226,227,228,229,230,231,232,233,234,235,236,237,238,239,240,241,242,243,244,245,246,247,248,249,250],"tree_info":[0,0,0,0,0,0,0,0,0,0,0,0,0,0,0,0,0,0,0,0,0,0,0,0,0,0,0,0,0,0,0,0,0,0,0,0,0,0,0,0,0,0,0,0,0,0,0,0,0,0,0,0,0,0,0,0,0,0,0,0,0,0,0,0,0,0,0,0,0,0,0,0,0,0,0,0,0,0,0,0,0,0,0,0,0,0,0,0,0,0,0,0,0,0,0,0,0,0,0,0,0,0,0,0,0,0,0,0,0,0,0,0,0,0,0,0,0,0,0,0,0,0,0,0,0,0,0,0,0,0,0,0,0,0,0,0,0,0,0,0,0,0,0,0,0,0,0,0,0,0,0,0,0,0,0,0,0,0,0,0,0,0,0,0,0,0,0,0,0,0,0,0,0,0,0,0,0,0,0,0,0,0,0,0,0,0,0,0,0,0,0,0,0,0,0,0,0,0,0,0,0,0,0,0,0,0,0,0,0,0,0,0,0,0,0,0,0,0,0,0,0,0,0,0,0,0,0,0,0,0,0,0,0,0,0,0,0,0,0,0,0,0,0,0,0,0,0,0,0,0],"trees":[{"base_weights":[1.8063435E-2,7.621287E-1,-2.0109329E-1,4.753049E-1,8.831396E-2,-6.0040064E-2,-1.4936802E0,8.7848103E-1,-7.0650406E-2,-7.6082087E-1,1.3026783E-1,-2.8870968E-2,-8.057269E-2,1.6029702E0,4.361186E-1,-1.2705165E-1,-8.057269E-2,4.1570017E-1,-5.637607E-1,1.2826088E-2,8.857955E-2,-2.7016575E-2,6.1857145E-2,-6.861446E-2,5.0765026E-2,5.6124507E-3,5.4315068E-2,-6.2364675E-2,2.1220474E-2],"categories":[],"categories_nodes":[],"categories_segments":[],"categories_sizes":[],"default_left":[0,0,0,0,0,0,0,0,0,0,0,0,0,0,0,0,0,0,0,0,0,0,0,0,0,0,0,0,0],"id":0,"left_children":[1,3,5,7,-1,9,11,13,-1,15,17,-1,-1,19,21,23,-1,25,27,-1,-1,-1,-1,-1,-1,-1,-1,-1,-1],"loss_changes":[2.8956484E1,1.077384E1,2.4909573E1,2.6207344E1,0E0,1.6742592E1,4.9903107E-1,8.141983E0,0E0,1.4225886E1,1.983469E1,0E0,0E0,1.8183613E0,1.5184507E1,2.4796978E1,0E0,1.4253155E1,2.0294407E1,0E0,0E0,0E0,0E0,0E0,0E0,0E0,0E0,0E0,0E0],"parents":[2147483647,0,0,1,1,2,2,3,3,5,5,6,6,7,7,9,9,10,10,13,13,14,14,15,15,17,17,18,18],"right_children":[2,4,6,8,-1,10,12,14,-1,16,18,-1,-1,20,22,24,-1,26,28,-1,-1,-1,-1,-1,-1,-1,-1,-1,-1],"split_conditions":[2.1E1,2E1,4.473684E-1,1.5E1,8.831396E-2,7.209714E0,4.509804E-1,8E0,-7.0650406E-2,2.8E1,6.1E1,-2.8870968E-2,-8.057269E-2,1.3461539E-1,2.4963095E0,2.7E1,-8.057269E-2,1.1428859E1,1.4663957E1,1.2826088E-2,8.857955E-2,-2.7016575E-2,6.1857145E-2,-6.861446E-2,5.0765026E-2,5.6124507E-3,5.4315068E-2,-6.2364675E-2,2.1220474E-2],"split_indices":[0,0,4,0,0,2,4,0,0,0,0,0,0,4,2,0,0,2,2,0,0,0,0,0,0,0,0,0,0],"split_type":[0,0,0,0,0,0,0,0,0,0,0,0,0,0,0,0,0,0,0,0,0,0,0,0,0,0,0,0,0],"sum_hessian":[1.756E2,3.94E1,1.362E2,3.1800001E1,7.6E0,1.2375E2,1.245E1,2.665E1,5.15E0,2.58E1,9.7950005E1,2.1E0,1.035E1,9.1E0,1.755E1,1.545E1,1.035E1,6.97E1,2.825E1,1.3E0,7.8E0,8.05E0,9.5E0,7.3E0,8.15E0,4.88E1,2.09E1,1.655E1,1.17E1],"tree_param":{"num_deleted":"0","num_feature":"5","num_nodes":"29","size_leaf_vector":"1"}},{"base_weights":[-3.5033274E-2,9.6808875E-1,-7.7422065E-1,1.5063503E0,6.2330484E-1,-4.2375964E-1,-9.9786687E-1,1.1805423E0,9.045262E-2,8.642705E-1,-4.5523366E-1,-1.4916245E0,-1.7408194E-1,-1.0823524E0,-5.647248E-1,1.236158E0,1.8472156E-2,-1.544728E-2,9.0853035E-1,-6.958436E-1,5.0737155E-3,-8.279725E-2,-1.482209E-2,2.5625803E-2,-1.0386294E0,-1.3324414E0,-9.100934E-1,-1.9750038E-1,-6.325162E-2,6.471277E-2,2.434969E-2,1.6808195E-2,5.2074075E-2,-5.424858E-2,-1.1417404E-3,-3.507033E-2,1.0168159E-2,4.542913E-3,-6.43669E-2,-7.713177E-2,-3.933007E-2,-2.7806763E-2,-6.096515E-2,2.018299E-2,-2.2150023E-2],"categories":[],"categories_nodes":[],"categories_segments":[],"categories_sizes":[],"default_left":[0,0,0,0,0,0,0,0,0,0,0,0,0,0,0,0,0,0,0,0,0,0,0,0,0,0,0,0,0,0,0,0,0,0,0,0,0,0,0,0,0,0,0,0,0],"id":1,"left_children":[1,3,5,7,9,11,13,15,-1,17,19,21,23,25,27,29,-1,-1,31,33,-1,-1,-1,35,37,39,41,43,-1,-1,-1,-1,-1,-1,-1,-1,-1,-1,-1,-1,-1,-1,-1,-1,-1],"loss_changes":[1.3000612E2,1.2846458E1,7.473419E0,6.284714E-1,1.26293545E1,1.0674282E1,1.5992012E0,2.7331543E-1,0E0,2.3026142E0,1.3145676E0,9.907055E-1,5.9810047E0,9.1080856E-1,2.8325548E0,6.4849854E-3,0E0,0E0,2.5029469E0,1.6907878E0,0E0,0E0,0E0,3.876567E0,1.9531608E0,8.4423065E-1,2.8802109E0,1.5214201E0,0E0,0E0,0E0,0E0,0E0,0E0,0E0,0E0,0E0,0E0,0E0,0E0,0E0,0E0,0E0,0E0,0E0],"parents":[2147483647,0,0,1,1,2,2,3,3,4,4,5,5,6,6,7,7,9,9,10,10,11,11,12,12,13,13,14,14,15,15,18,18,19,19,23,23,24,24,25,25,26,26,27,27],"right_children":[2,4,6,8,10,12,14,16,-1,18,20,22,24,26,28,30,-1,-1,32,34,-1,-1,-1,36,38,40,42,44,-1,-1,-1,-1,-1,-1,-1,-1,-1,-1,-1,-1,-1,-1,-1,-1,-1],"split_conditions":[2E0,1E0,3E0,3.5185185E-1,4.6666667E-1,1.3333334E-1,5E0,3.4E-1,9.045262E-2,1.764706E-1,6.875E-1,5.4285717E-1,4.25E-1,3.0508474E-1,6E0,2.1917808E-1,1.8472156E-2,-1.544728E-2,1.4473684E-1,9.210526E-2,5.0737155E-3,-8.279725E-2,-1.482209E-2,3.0232558E-1,1.4E-1,2.9411766E-1,3.7142858E-1,2.65625E-1,-6.325162E-2,6.471277E-2,2.434969E-2,1.6808195E-2,5.2074075E-2,-5.424858E-2,-1.1417404E-3,-3.507033E-2,1.0168159E-2,4.542913E-3,-6.43669E-2,-7.713177E-2,-3.933007E-2,-2.7806763E-2,-6.096515E-2,2.018299E-2,-2.2150023E-2],"split_indices":[1,1,1,4,4,3,1,4,0,4,4,4,4,4,1,3,0,0,3,3,0,0,0,4,3,3,4,4,0,0,0,0,0,0,0,0,0,0,0,0,0,0,0,0,0],"split_type":[0,0,0,0,0,0,0,0,0,0,0,0,0,0,0,0,0,0,0,0,0,0,0,0,0,0,0,0,0,0,0,0,0,0,0,0,0,0,0,0,0,0,0,0,0],"sum_hessian":[1.733215E2,7.339579E1,9.992572E1,2.7330553E1,4.6065235E1,4.0071636E1,5.985408E1,1.5538752E1,1.1791801E1,3.782284E1,8.2423935E0,6.643465E0,3.3428173E1,4.8811375E1,1.1042707E1,1.4039693E1,1.4990582E0,1.1493852E0,3.6673454E1,5.5930896E0,2.6493034E0,5.494207E0,1.1492579E0,2.7934244E1,5.4939294E0,1.7137554E1,3.167382E1,8.094464E0,2.948243E0,1.2341657E1,1.6980367E0,7.5921736E0,2.9081282E1,3.1467092E0,2.4463804E0,4.897699E0,2.3036545E1,1.0987095E0,4.39522E0,1.1041262E1,6.0962925E0,1.6088228E1,1.5585591E1,2.1484792E0,5.9459853E0],"tree_param":{"num_deleted":"0","num_feature":"5","num_nodes":"45","size_leaf_vector":"1"}},{"base_weights":[1.2062448E-2,7.025567E-1,-1.9399855E-1,3.8942823E-1,8.3998546E-2,-7.485822E-2,-7.8510985E-2,7.95137E-1,-1.0813876E0,1.124728E-2,-1.3320103E0,9.579241E-1,-4.5925956E-2,-6.6140786E-2,-4.535722E-1,1.22799285E-1,-1.0929013E0,-4.154689E-3,-7.804505E-2,6.345332E-2,1.5730215E-2,1.6167795E-2,-5.2497774E-2,1.2528056E-2,-5.471642E-2,-1.0973708E-2,-7.314663E-2],"categories":[],"categories_nodes":[],"categories_segments":[],"categories_sizes":[],"default_left":[0,0,0,0,0,0,0,0,0,0,0,0,0,0,0,0,0,0,0,0,0,0,0,0,0,0,0],"id":2,"left_children":[1,3,5,7,-1,-1,9,11,13,15,17,19,-1,-1,21,23,25,-1,-1,-1,-1,-1,-1,-1,-1,-1,-1],"loss_changes":[2.4685696E1,1.1529024E1,1.9977566E1,1.9659367E1,0E0,0E0,1.39584875E1,7.9320087E0,4.7823143E-1,1.44766035E1,2.223422E0,4.304863E0,0E0,0E0,1.9877758E0,1.6863756E1,3.147709E0,0E0,0E0,0E0,0E0,0E0,0E0,0E0,0E0,0E0,0E0],"parents":[2147483647,0,0,1,1,2,2,3,3,6,6,7,7,8,8,9,9,10,10,11,11,14,14,15,15,16,16],"right_children":[2,4,6,8,-1,-1,10,12,14,16,18,20,-1,-1,22,24,26,-1,-1,-1,-1,-1,-1,-1,-1,-1,-1],"split_conditions":[2.1E1,2E1,2.7E1,1.5E1,8.3998546E-2,-7.485822E-2,6.8E1,3.6363637E-1,4.642857E-1,2.6666668E-1,2.3529412E-1,4.6875E-1,-4.5925956E-2,-6.6140786E-2,6.4705884E-1,4.473684E-1,3.5E1,-4.154689E-3,-7.804505E-2,6.345332E-2,1.5730215E-2,1.6167795E-2,-5.2497774E-2,1.2528056E-2,-5.471642E-2,-1.0973708E-2,-7.314663E-2],"split_indices":[0,0,0,0,0,0,0,3,4,3,4,4,0,0,4,4,0,0,0,0,0,0,0,0,0,0,0],"split_type":[0,0,0,0,0,0,0,0,0,0,0,0,0,0,0,0,0,0,0,0,0,0,0,0,0,0,0],"sum_hessian":[1.7150237E2,3.887485E1,1.3262752E2,3.0509392E1,8.3654585E0,9.815753E0,1.2281176E2,2.4278591E1,6.2308E0,1.15522675E2,7.2890854E0,2.2580427E1,1.6981647E0,3.6891763E0,2.5416238E0,1.0573783E2,9.78484E0,1.3468529E0,5.9422326E0,1.4553423E1,8.027004E0,1.2952702E0,1.2463536E0,9.641908E1,9.318754E0,3.3939216E0,6.3909183E0],"tree_param":{"num_deleted":"0","num_feature":"5","num_nodes":"27","size_leaf_vector":"1"}},{"base_weights":[7.027257E-3,8.8487333E-1,-6.6478926E-1,6.638142E-2,6.020482E-1,-3.4148484E-1,-8.8134617E-1,-5.13496E-2,9.7759783E-1,-6.3888185E-2,-1.7693114E-1,-1.1096777E0,-3.1231353E-1,2.4634159E-1,-3.8953257E-1,1.059229E0,-1.5955526E-2,-7.698913E-2,-5.608803E-2,-1.2669126E-2,-1.1468344E0,3.8912587E-2,-5.8825433E-1,-1.3063495E-2,6.569599E-2,-5.238616E-2,1.3846335E-2,6.665676E-2,3.7307724E-2,-5.1333785E-2,5.641061E-4,-6.641446E-2,-3.9409302E-2,-5.701364E-2,-6.6316104E-3],"categories":[],"categories_nodes":[],"categories_segments":[],"categories_sizes":[],"default_left":[0,0,0,0,0,0,0,0,0,0,0,0,0,0,0,0,0,0,0,0,0,0,0,0,0,0,0,0,0,0,0,0,0,0,0],"id":3,"left_children":[1,3,5,-1,7,9,11,13,15,-1,17,19,21,23,25,27,-1,29,-1,-1,31,-1,33,-1,-1,-1,-1,-1,-1,-1,-1,-1,-1,-1,-1],"loss_changes":[1.0462833E2,8.812668E0,6.7229424E0,0E0,1.2028444E1,6.2246304E0,7.3741875E0,1.9843343E0,3.6303787E0,0E0,3.3823314E0,1.0343018E0,6.0086656E0,6.0792484E0,4.3238077E0,1.5085716E0,0E0,2.9069855E0,0E0,0E0,1.5373802E0,0E0,3.6848464E0,0E0,0E0,0E0,0E0,0E0,0E0,0E0,0E0,0E0,0E0,0E0,0E0],"parents":[2147483647,0,0,1,1,2,2,4,4,5,5,6,6,7,7,8,8,10,10,11,11,12,12,13,13,14,14,15,15,17,17,20,20,22,22],"right_children":[2,4,6,-1,8,10,12,14,16,-1,18,20,22,24,26,28,-1,30,-1,-1,32,-1,34,-1,-1,-1,-1,-1,-1,-1,-1,-1,-1,-1,-1],"split_conditions":[2E0,1E0,3E0,6.638142E-2,1.4814815E-1,1.3043478E-1,6E1,2.1E1,6.1E1,-6.3888185E-2,6.8E1,1.5E1,6.1E1,2E1,4.7E1,2.8E1,-1.5955526E-2,1.4E1,-5.608803E-2,-1.2669126E-2,4.7E1,3.8912587E-2,6.7E1,-1.3063495E-2,6.569599E-2,-5.238616E-2,1.3846335E-2,6.665676E-2,3.7307724E-2,-5.1333785E-2,5.641061E-4,-6.641446E-2,-3.9409302E-2,-5.701364E-2,-6.6316104E-3],"split_indices":[1,1,1,0,3,3,0,0,0,0,0,0,0,0,0,0,0,0,0,0,0,0,0,0,0,0,0,0,0,0,0,0,0,0,0],"split_type":[0,0,0,0,0,0,0,0,0,0,0,0,0,0,0,0,0,0,0,0,0,0,0,0,0,0,0,0,0,0,0,0,0,0,0],"sum_hessian":[1.7540968E2,7.5913345E1,9.9496346E1,2.8136656E1,4.7776688E1,4.0963596E1,5.853275E1,1.77431E1,3.0033588E1,5.1029572E0,3.586064E1,4.1080853E1,1.7451895E1,9.565187E0,8.177913E0,2.8434418E1,1.5991699E0,3.3417843E1,2.4427981E0,2.044842E0,3.903601E1,3.149184E0,1.4302711E1,6.988298E0,2.5768895E0,3.8342066E0,4.3437057E0,1.341106E1,1.5023358E1,1.9475071E0,3.1470335E1,2.4107544E1,1.4928467E1,5.7778344E0,8.524876E0],"tree_param":{"num_deleted":"0","num_feature":"5","num_nodes":"35","size_leaf_vector":"1"}},{"base_weights":[2.8855067E-2,1.4298567E-1,-6.313271E-1,4.392774E-1,-1.4747053E-1,2.0617905E-1,-1.049351E0,1.0985962E0,2.6165083E-1,-2.521866E-1,8.8416E-1,7.286572E-1,-2.9733324E-1,-1.2514213E0,-4.222518E-1,6.880315E-1,7.3869035E-2,5.332945E-1,-1.12898014E-1,-3.2971016E-1,9.686625E-1,7.0025176E-2,6.648313E-2,6.718769E-2,-3.274955E-2,-3.928816E-2,3.2065262E-3,-2.0067029E-1,-1.4836911E0,3.796373E-2,-5.2944303E-2,5.3403396E-2,-3.3779807E-2,4.243655E-2,1.1156479E-2,-3.4679305E-2,1.2823746E-2,6.3988636E-3,-2.5840506E-2,5.8232207E-2,1.7138703E-2,-2.465625E-2,3.2171503E-2,-3.206368E-2,1.5296302E-2,-2.0527575E-2,-8.02063E-2,4.038409E-2,-3.131809E-2],"categories":[],"categories_nodes":[],"categories_segments":[],"categories_sizes":[],"default_left":[0,0,0,0,0,0,0,0,0,0,0,0,0,0,0,0,0,0,0,0,0,0,0,0,0,0,0,0,0,0,0,0,0,0,0,0,0,0,0,0,0,0,0,0,0,0,0,0,0],"id":4,"left_children":[1,3,5,7,9,11,13,15,17,19,21,23,25,27,29,31,-1,33,35,37,39,41,-1,-1,-1,-1,-1,43,45,47,-1,-1,-1,-1,-1,-1,-1,-1,-1,-1,-1,-1,-1,-1,-1,-1,-1,-1,-1],"loss_changes":[1.3322011E1,1.3029154E1,9.350297E0,8.461824E0,8.511663E0,2.72182E0,1.6799355E0,1.3809929E0,6.196394E0,6.985098E0,2.5366192E0,5.112476E0,1.035949E0,2.7993088E0,1.7499076E0,5.5703955E0,0E0,3.23629E0,5.790191E0,5.810973E0,1.3223457E-1,1.4946761E0,0E0,0E0,0E0,0E0,0E0,9.749534E-1,6.505203E-1,2.7182693E0,0E0,0E0,0E0,0E0,0E0,0E0,0E0,0E0,0E0,0E0,0E0,0E0,0E0,0E0,0E0,0E0,0E0,0E0,0E0],"parents":[2147483647,0,0,1,1,2,2,3,3,4,4,5,5,6,6,7,7,8,8,9,9,10,10,11,11,12,12,13,13,14,14,15,15,17,17,18,18,19,19,20,20,21,21,27,27,28,28,29,29],"right_children":[2,4,6,8,10,12,14,16,18,20,22,24,26,28,30,32,-1,34,36,38,40,42,-1,-1,-1,-1,-1,44,46,48,-1,-1,-1,-1,-1,-1,-1,-1,-1,-1,-1,-1,-1,-1,-1,-1,-1,-1,-1],"split_conditions":[4.473684E-1,1.9642857E-1,2.5268877E0,3.0612245E-1,1.4473076E1,5.714286E-1,1.8309858E-1,2.875E-1,1.6216215E-1,4.1935483E-1,2.1818182E-1,1.3513513E-1,6.875E-1,8.3333336E-2,6.9466486E0,7.4559245E0,7.3869035E-2,8.324785E0,1.8E-1,2.5641027E-1,1.9673015E0,1.5825495E1,6.648313E-2,6.718769E-2,-3.274955E-2,-3.928816E-2,3.2065262E-3,6.25E-2,4.509804E-1,2.1568628E-1,-5.2944303E-2,5.3403396E-2,-3.3779807E-2,4.243655E-2,1.1156479E-2,-3.4679305E-2,1.2823746E-2,6.3988636E-3,-2.5840506E-2,5.8232207E-2,1.7138703E-2,-2.465625E-2,3.2171503E-2,-3.206368E-2,1.5296302E-2,-2.0527575E-2,-8.02063E-2,4.038409E-2,-3.131809E-2],"split_indices":[4,3,2,4,2,4,3,4,3,4,3,3,4,3,2,2,0,2,3,4,2,2,0,0,0,0,0,3,4,3,0,0,0,0,0,0,0,0,0,0,0,0,0,0,0,0,0,0,0],"split_type":[0,0,0,0,0,0,0,0,0,0,0,0,0,0,0,0,0,0,0,0,0,0,0,0,0,0,0,0,0,0,0,0,0,0,0,0,0,0,0,0,0,0,0,0,0,0,0,0,0],"sum_hessian":[1.7467554E2,1.4960992E2,2.5065619E1,7.382439E1,7.578553E1,8.506265E0,1.6559353E1,1.4555555E1,5.9268833E1,6.94965E1,6.289031E0,3.9648166E0,4.541448E0,1.1758796E1,4.8005576E0,8.348947E0,6.2066092E0,3.4123463E1,2.514537E1,6.604104E1,3.4554608E0,2.6414807E0,3.6475506E0,2.7696414E0,1.1951753E0,1.4440271E0,3.0974212E0,2.4739685E0,9.284826E0,3.3230348E0,1.477523E0,6.7045097E0,1.6444362E0,1.6041101E1,1.808236E1,9.445505E0,1.5699866E1,1.9239517E1,4.680152E1,1.9637868E0,1.4916741E0,1.3944927E0,1.2469878E0,1.1915398E0,1.2824287E0,1.3901131E0,7.8947134E0,1.4464139E0,1.876621E0],"tree_param":{"num_deleted":"0","num_feature":"5","num_nodes":"49","size_leaf_vector":"1"}},{"base_weights":[2.249638E-2,9.0842336E-1,-6.6961354E-1,1.0402107E0,-2.1898098E-2,-7.9526585E-1,2.1604052E-1,1.2723197E0,7.571433E-1,5.9159547E-2,-4.6419927E-1,-3.279797E-1,-1.0622376E0,5.171111E-1,-5.6698103E-2,9.755629E-3,6.531398E-2,3.9344063E-1,1.0043027E0,4.7037378E-2,-8.3726543E-1,-4.3034816E-1,4.608157E-2,-1.3277123E0,-8.4715855E-1,1.0690039E0,4.188872E-3,3.325976E-2,-3.8339127E-2,5.241835E-2,1.09013375E-2,1.3595593E-2,-6.170691E-3,5.302548E-3,-5.6604065E-2,1.2191643E-2,-3.238031E-2,-7.15208E-2,-3.1046975E-2,-5.9646387E-2,-3.088946E-2,6.1147373E-2,1.9355047E-2,2.4067527E-2,-2.3572003E-2],"categories":[],"categories_nodes":[],"categories_segments":[],"categories_sizes":[],"default_left":[0,0,0,0,0,0,0,0,0,0,0,0,0,0,0,0,0,0,0,0,0,0,0,0,0,0,0,0,0,0,0,0,0,0,0,0,0,0,0,0,0,0,0,0,0],"id":5,"left_children":[1,3,5,7,9,11,13,15,17,-1,19,21,23,25,-1,-1,-1,27,29,31,33,35,-1,37,39,41,43,-1,-1,-1,-1,-1,-1,-1,-1,-1,-1,-1,-1,-1,-1,-1,-1,-1,-1],"loss_changes":[1.0962278E2,9.645943E0,1.134848E1,3.5306473E0,6.2445865E0,1.0632439E1,5.965062E0,1.0566788E0,2.59733E0,0E0,1.6780878E0,4.6776686E0,2.0297089E0,3.2474365E0,0E0,0E0,0E0,5.2991724E0,4.257965E-1,2.0916757E-1,1.5230033E0,4.7987833E0,0E0,7.6904297E-1,1.9029083E0,9.190464E-2,1.8127486E0,0E0,0E0,0E0,0E0,0E0,0E0,0E0,0E0,0E0,0E0,0E0,0E0,0E0,0E0,0E0,0E0,0E0,0E0],"parents":[2147483647,0,0,1,1,2,2,3,3,4,4,5,5,6,6,7,7,8,8,10,10,11,11,12,12,13,13,17,17,18,18,19,19,20,20,21,21,23,23,24,24,25,25,26,26],"right_children":[2,4,6,8,10,12,14,16,18,-1,20,22,24,26,-1,-1,-1,28,30,32,34,36,-1,38,40,42,44,-1,-1,-1,-1,-1,-1,-1,-1,-1,-1,-1,-1,-1,-1,-1,-1,-1,-1],"split_conditions":[2E0,4.473684E-1,1.4184815E1,7.900629E0,1E0,3E0,4E-1,1.7391305E-1,1.058389E1,5.9159547E-2,2.1075258E0,1.2784508E1,7.61402E0,1.5007459E1,-5.6698103E-2,9.755629E-3,6.531398E-2,9.817431E0,4.2857143E-1,6.25E-1,4.6666667E-1,3.1578946E-1,4.608157E-2,5E0,3.0508474E-1,4E0,3.2876712E-1,3.325976E-2,-3.8339127E-2,5.241835E-2,1.09013375E-2,1.3595593E-2,-6.170691E-3,5.302548E-3,-5.6604065E-2,1.2191643E-2,-3.238031E-2,-7.15208E-2,-3.1046975E-2,-5.9646387E-2,-3.088946E-2,6.1147373E-2,1.9355047E-2,2.4067527E-2,-2.3572003E-2],"split_indices":[1,4,2,2,1,1,4,4,2,0,2,2,2,2,0,0,0,2,4,4,4,4,0,1,4,1,4,0,0,0,0,0,0,0,0,0,0,0,0,0,0,0,0,0,0],"split_type":[0,0,0,0,0,0,0,0,0,0,0,0,0,0,0,0,0,0,0,0,0,0,0,0,0,0,0,0,0,0,0,0,0,0,0,0,0,0,0,0,0,0,0,0,0],"sum_hessian":[1.767877E2,7.740643E1,9.938126E1,6.7707726E1,9.698701E0,8.713265E1,1.22486105E1,3.5262875E1,3.2444855E1,2.1481595E0,7.5505414E0,3.2504807E1,5.462785E1,1.0525607E1,1.7230039E0,1.2928718E0,3.397E1,1.4192486E1,1.825237E1,3.5427687E0,4.007773E0,3.0656994E1,1.8478113E0,2.2113388E1,3.251446E1,4.538569E0,5.987038E0,1.1851776E1,2.34071E0,1.695607E1,1.2963004E0,1.2961679E0,2.2466006E0,1.098687E0,2.9090858E0,7.4305735E0,2.3226421E1,1.8401396E1,3.7119935E0,1.1274265E1,2.1240196E1,3.0434046E0,1.4951646E0,2.9931936E0,2.9938443E0],"tree_param":{"num_deleted":"0","num_feature":"5","num_nodes":"45","size_leaf_vector":"1"}},{"base_weights":[-5.5957902E-2,7.787321E-1,-6.658323E-1,1.1833831E0,5.006268E-1,-7.6695275E-1,3.180424E-1,1.2465113E0,2.4956667E-1,-1.4285323E-1,8.029395E-1,-3.3414468E-1,-1.0275657E0,-4.6365348E-1,9.355635E-1,7.153459E-2,8.709884E-1,1.9591438E-2,-1.699631E-4,2.331215E-1,-6.8772167E-1,1.3300701E0,4.7000572E-1,-9.2684823E-1,9.7825736E-2,-3.2224604E-1,-1.0662879E0,-4.8987918E-2,-4.7409333E-2,6.1081577E-2,7.491781E-3,9.964476E-3,4.9248256E-2,-6.7490004E-3,5.7308096E-2,-5.8815297E-2,2.220786E-2,2.4607483E-2,7.289341E-2,3.3400472E-2,5.071593E-3,-4.142405E-3,-6.577432E-2,-2.0206878E-2,2.80559E-2,-3.8533673E-2,2.8367653E-2,-6.2282335E-2,-4.02194E-2,1.2267229E-2,-1.46020595E-2],"categories":[],"categories_nodes":[],"categories_segments":[],"categories_sizes":[],"default_left":[0,0,0,0,0,0,0,0,0,0,0,0,0,0,0,0,0,0,0,0,0,0,0,0,0,0,0,0,0,0,0,0,0,0,0,0,0,0,0,0,0,0,0,0,0,0,0,0,0,0,0],"id":6,"left_children":[1,3,5,7,9,11,13,15,17,19,21,23,25,27,29,-1,31,-1,-1,33,35,37,39,41,43,45,47,-1,49,-1,-1,-1,-1,-1,-1,-1,-1,-1,-1,-1,-1,-1,-1,-1,-1,-1,-1,-1,-1,-1,-1],"loss_changes":[8.894322E1,7.6947174E0,1.02884865E1,1.4017143E0,8.968858E0,9.999073E0,5.315297E0,6.116104E-1,1.1736196E-1,3.31474E0,4.815813E0,9.316785E0,1.1940765E0,1.0432346E0,1.1479731E0,0E0,6.739826E-1,0E0,0E0,3.4699564E0,4.1475954E0,4.9264526E-1,1.4295492E0,4.889985E0,5.2794366E0,2.1957648E0,1.486248E0,0E0,3.511296E-1,0E0,0E0,0E0,0E0,0E0,0E0,0E0,0E0,0E0,0E0,0E0,0E0,0E0,0E0,0E0,0E0,0E0,0E0,0E0,0E0,0E0,0E0],"parents":[2147483647,0,0,1,1,2,2,3,3,4,4,5,5,6,6,7,7,8,8,9,9,10,10,11,11,12,12,13,13,14,14,16,16,19,19,20,20,21,21,22,22,23,23,24,24,25,25,26,26,28,28],"right_children":[2,4,6,8,10,12,14,16,18,20,22,24,26,28,30,-1,32,-1,-1,34,36,38,40,42,44,46,48,-1,50,-1,-1,-1,-1,-1,-1,-1,-1,-1,-1,-1,-1,-1,-1,-1,-1,-1,-1,-1,-1,-1,-1],"split_conditions":[2E0,1E0,1.4673881E1,2.1917808E-1,1.4516129E-1,3E0,2.0289855E-1,8.324785E0,1.8642814E0,5.8877425E0,5.9854894E0,1.7142858E-1,2.8674417E0,1.7391305E-1,2.4E-1,7.153459E-2,9.226329E0,1.9591438E-2,-1.699631E-4,5.0605865E0,1.3029745E1,1.6923077E-1,1.9565217E-1,5.7178855E0,8.754848E0,2.8110008E0,9.721537E0,-4.8987918E-2,3E0,6.1081577E-2,7.491781E-3,9.964476E-3,4.9248256E-2,-6.7490004E-3,5.7308096E-2,-5.8815297E-2,2.220786E-2,2.4607483E-2,7.289341E-2,3.3400472E-2,5.071593E-3,-4.142405E-3,-6.577432E-2,-2.0206878E-2,2.80559E-2,-3.8533673E-2,2.8367653E-2,-6.2282335E-2,-4.02194E-2,1.2267229E-2,-1.46020595E-2],"split_indices":[1,1,2,3,3,1,3,2,2,2,2,3,2,3,3,0,2,0,0,2,2,3,3,2,2,2,2,0,1,0,0,0,0,0,0,0,0,0,0,0,0,0,0,0,0,0,0,0,0,0,0],"split_type":[0,0,0,0,0,0,0,0,0,0,0,0,0,0,0,0,0,0,0,0,0,0,0,0,0,0,0,0,0,0,0,0,0,0,0,0,0,0,0,0,0,0,0,0,0,0,0,0,0,0,0],"sum_hessian":[1.7270552E2,7.278998E1,9.991554E1,2.8308788E1,4.448119E1,9.081266E1,9.102885E0,2.6192543E1,2.116245E0,1.4375971E1,3.010522E1,3.500285E1,5.580981E1,4.120227E0,4.9826584E0,1.5670324E1,1.0522219E1,1.0284572E0,1.0877877E0,8.834034E0,5.541937E0,1.0482829E1,1.962239E1,1.42829E1,2.0719948E1,3.4031E0,5.2406708E1,1.2243336E0,2.8958933E0,3.2367263E0,1.745932E0,1.9378915E0,8.584327E0,6.895325E0,1.9387084E0,3.8497474E0,1.6921892E0,2.0395515E0,8.443277E0,1.2218742E1,7.4036493E0,4.8938656E0,9.389034E0,9.995847E0,1.0724101E1,2.358937E0,1.0441629E0,2.8852833E1,2.3553877E1,1.2983503E0,1.5975429E0],"tree_param":{"num_deleted":"0","num_feature":"5","num_nodes":"51","size_leaf_vector":"1"}},{"base_weights":[3.5862293E-2,7.616275E-1,-5.398514E-1,1.201064E0,4.3339455E-1,-1.6892754E-1,-7.753575E-1,6.355837E-2,7.106428E-1,-2.9052344E-1,8.163221E-1,1.3668878E-1,-9.373415E-1,-6.584478E-1,-6.0955204E-2,5.5872787E-2,-6.0437336E-3,-5.1646847E-1,6.564538E-2,6.6027766E-1,7.134374E-2,-5.697182E-1,2.7110285E-1,-1.0959336E0,-3.183039E-1,-7.544938E-1,2.849722E-2,-5.9680708E-2,-4.6637775E-3,2.5732372E-2,-2.2046989E-2,3.805494E-2,-3.2903627E-3,-4.985584E-2,2.574092E-2,-1.35971E-2,2.265381E-2,-9.768105E-3,-6.0259428E-2,-3.4323644E-3,-2.1296347E-2,-6.0881257E-2,-3.304906E-2,-3.2112118E-2,2.8300455E-2],"categories":[],"categories_nodes":[],"categories_segments":[],"categories_sizes":[],"default_left":[0,0,0,0,0,0,0,0,0,0,0,0,0,0,0,0,0,0,0,0,0,0,0,0,0,0,0,0,0,0,0,0,0,0,0,0,0,0,0,0,0,0,0,0,0],"id":7,"left_children":[1,3,5,7,9,11,13,-1,15,17,19,21,23,25,-1,-1,-1,27,29,31,-1,33,35,37,39,41,43,-1,-1,-1,-1,-1,-1,-1,-1,-1,-1,-1,-1,-1,-1,-1,-1,-1,-1],"loss_changes":[7.316614E1,1.0633553E1,8.391916E0,1.9541168E-1,1.2968829E1,9.348143E0,2.262558E0,0E0,2.2946882E0,1.3752053E0,1.9235706E0,2.8982272E0,7.4625206E-1,3.2777843E0,0E0,0E0,0E0,2.8255894E0,1.8921303E0,1.9607229E0,0E0,2.8056781E0,2.5948403E0,5.9397507E-1,6.594086E-2,1.0495872E0,2.8833447E0,0E0,0E0,0E0,0E0,0E0,0E0,0E0,0E0,0E0,0E0,0E0,0E0,0E0,0E0,0E0,0E0,0E0,0E0],"parents":[2147483647,0,0,1,1,2,2,3,3,4,4,5,5,6,6,8,8,9,9,10,10,11,11,12,12,13,13,17,17,18,18,19,19,21,21,22,22,23,23,24,24,25,25,26,26],"right_children":[2,4,6,8,10,12,14,-1,16,18,20,22,24,26,-1,-1,-1,28,30,32,-1,34,36,38,40,42,44,-1,-1,-1,-1,-1,-1,-1,-1,-1,-1,-1,-1,-1,-1,-1,-1,-1,-1],"split_conditions":[2E0,1E0,3E0,1.9736843E-1,1.4516129E-1,4.054054E-1,4.1025642E-1,6.355837E-2,2.5641027E-1,1.2E-1,4.117647E-1,1.5277778E-1,1.780822E-1,3.8297874E-1,-6.0955204E-2,5.5872787E-2,-6.0437336E-3,4.25E-1,4.1935483E-1,3.7179488E-1,7.134374E-2,3.9726028E-1,3.0232558E-1,8.3333336E-2,2.0289855E-1,2.2222222E-1,4E0,-5.9680708E-2,-4.6637775E-3,2.5732372E-2,-2.2046989E-2,3.805494E-2,-3.2903627E-3,-4.985584E-2,2.574092E-2,-1.35971E-2,2.265381E-2,-9.768105E-3,-6.0259428E-2,-3.4323644E-3,-2.1296347E-2,-6.0881257E-2,-3.304906E-2,-3.2112118E-2,2.8300455E-2],"split_indices":[1,1,1,3,3,4,4,0,4,3,4,3,3,4,0,0,0,4,4,4,0,4,4,3,3,4,1,0,0,0,0,0,0,0,0,0,0,0,0,0,0,0,0,0,0],"split_type":[0,0,0,0,0,0,0,0,0,0,0,0,0,0,0,0,0,0,0,0,0,0,0,0,0,0,0,0,0,0,0,0,0,0,0,0,0,0,0,0,0,0,0,0,0],"sum_hessian":[1.7311923E2,7.6444725E1,9.667451E1,3.1535511E1,4.4909218E1,3.8226784E1,5.844772E1,2.6180714E1,5.354798E0,1.5611376E1,2.9297842E1,2.7928188E1,1.0298596E1,4.8243767E1,1.0203952E1,3.372824E0,1.9819742E0,9.29369E0,6.317686E0,2.5004929E1,4.292914E0,3.9350076E0,2.3993181E1,7.5721416E0,2.7264545E0,4.2252422E1,5.9913425E0,2.8651204E0,6.428569E0,3.3512208E0,2.9664652E0,2.1925934E1,3.0789943E0,2.8870811E0,1.0479265E0,5.8841987E0,1.8108982E1,1.1307992E0,6.4413424E0,1.3426443E0,1.38381E0,5.0607243E0,3.71917E1,2.570398E0,3.4209445E0],"tree_param":{"num_deleted":"0","num_feature":"5","num_nodes":"45","size_leaf_vector":"1"}},{"base_weights":[1.0895216E-2,7.6221436E-1,-5.5858344E-1,1.1714106E0,4.6341923E-1,-4.258828E-1,-1.0311124E0,8.274944E-3,1.2147747E0,6.4375246E-1,-4.058334E-1,-5.503605E-3,-6.339922E-1,-2.8595054E-1,-6.1618682E-2,6.757548E-2,8.78913E-1,4.7666147E-1,6.586288E-2,1.876205E-1,-7.5404924E-1,2.1558632E-1,-5.2587813E-1,-9.581887E-1,-3.8273293E-1,2.3162216E-2,-8.551405E-1,-5.8664577E-3,5.2304782E-2,3.6601786E-2,-4.4671535E-3,3.26698E-2,-1.41593935E-2,-6.3538738E-3,-4.634059E-2,-1.4894918E-4,3.6659297E-2,-5.285556E-2,4.926737E-3,-3.4563906E-2,-6.9226466E-2,6.1570138E-2,-2.8153881E-2,-5.3095456E-2,-1.052753E-2],"categories":[],"categories_nodes":[],"categories_segments":[],"categories_sizes":[],"default_left":[0,0,0,0,0,0,0,0,0,0,0,0,0,0,0,0,0,0,0,0,0,0,0,0,0,0,0,0,0,0,0,0,0,0,0,0,0,0,0,0,0,0,0,0,0],"id":8,"left_children":[1,3,5,7,9,11,13,-1,15,17,19,21,23,25,-1,-1,27,29,-1,31,33,35,37,39,41,-1,43,-1,-1,-1,-1,-1,-1,-1,-1,-1,-1,-1,-1,-1,-1,-1,-1,-1,-1],"loss_changes":[7.367887E1,8.5186615E0,5.688637E0,1.122818E0,7.25194E0,6.831339E0,2.745451E0,0E0,1.3225937E-1,3.553771E0,1.8547802E0,3.2134285E0,3.8784924E0,2.842187E0,0E0,0E0,2.0204706E0,4.621848E0,0E0,1.0320939E0,4.5850372E-1,2.2254229E0,2.8771412E0,1.5420876E0,9.750387E0,0E0,2.4527979E-1,0E0,0E0,0E0,0E0,0E0,0E0,0E0,0E0,0E0,0E0,0E0,0E0,0E0,0E0,0E0,0E0,0E0,0E0],"parents":[2147483647,0,0,1,1,2,2,3,3,4,4,5,5,6,6,8,8,9,9,10,10,11,11,12,12,13,13,16,16,17,17,19,19,20,20,21,21,22,22,23,23,24,24,26,26],"right_children":[2,4,6,8,10,12,14,-1,16,18,20,22,24,26,-1,-1,28,30,-1,32,34,36,38,40,42,-1,44,-1,-1,-1,-1,-1,-1,-1,-1,-1,-1,-1,-1,-1,-1,-1,-1,-1,-1],"split_conditions":[2E0,1E0,4.117647E-1,2.0833333E-1,4.473684E-1,3E0,2.1E1,8.274944E-3,4.1E1,4.1666666E-1,1.4E1,5.5E1,4.7E1,4.6875E-1,-6.1618682E-2,6.757548E-2,3E-1,3.4920636E-1,6.586288E-2,6.25E-1,4.6666667E-1,4.7E1,6.7E1,3.5E1,4.8E1,2.3162216E-2,6.25E-1,-5.8664577E-3,5.2304782E-2,3.6601786E-2,-4.4671535E-3,3.26698E-2,-1.41593935E-2,-6.3538738E-3,-4.634059E-2,-1.4894918E-4,3.6659297E-2,-5.285556E-2,4.926737E-3,-3.4563906E-2,-6.9226466E-2,6.1570138E-2,-2.8153881E-2,-5.3095456E-2,-1.052753E-2],"split_indices":[1,1,4,4,4,1,0,0,0,4,0,0,0,4,0,0,4,4,0,4,4,0,0,0,0,0,4,0,0,0,0,0,0,0,0,0,0,0,0,0,0,0,0,0,0],"split_type":[0,0,0,0,0,0,0,0,0,0,0,0,0,0,0,0,0,0,0,0,0,0,0,0,0,0,0,0,0,0,0,0,0,0,0,0,0,0,0,0,0,0,0,0,0],"sum_hessian":[1.7020328E2,7.324695E1,9.695634E1,2.9665918E1,4.3581028E1,7.7198944E1,1.9757393E1,1.434608E0,2.823131E1,3.6317585E1,7.2634425E0,2.591843E1,5.1280514E1,4.7268596E0,1.5030533E1,1.7892998E1,1.0338312E1,3.0478662E1,5.838921E0,2.8458397E0,4.4176025E0,1.8587646E1,7.330784E0,2.1144587E1,3.0135927E1,2.1135156E0,2.6133442E0,1.5198578E0,8.818455E0,2.0812603E1,9.6660595E0,1.2462926E0,1.5995473E0,1.3417407E0,3.075862E0,1.37544985E1,4.8331485E0,3.595165E0,3.735619E0,1.4630215E1,6.514372E0,2.4373617E0,2.7698566E1,1.4767176E0,1.1366266E0],"tree_param":{"num_deleted":"0","num_feature":"5","num_nodes":"45","size_leaf_vector":"1"}},{"base_weights":[-5.3733725E-2,5.999617E-1,-5.651645E-1,1.078982E0,2.8225827E-1,-2.4401385E-1,-7.7158266E-1,6.3434444E-2,6.510417E-1,4.0453184E-1,-9.370404E-1,-4.0044048E-1,6.6691786E-1,-8.7008137E-1,-3.2984275E-2,4.890712E-2,-1.6709733E-1,-2.0572047E-1,5.903495E-1,-5.8363188E-2,-1.0902275E-2,4.262706E-1,-5.21177E-1,6.986102E-2,-3.7308306E-1,-1.0525166E0,-6.14721E-1,5.1838554E-2,-1.0322069E0,-2.212531E-2,4.511106E-3,1.6891273E-3,-5.661534E-2,5.1257085E-2,1.2191951E-2,4.5187127E-2,-2.86872E-2,-5.3479947E-2,-1.6487708E-2,-5.269761E-2,2.7529836E-2,-6.310681E-2,-2.3590125E-2,6.0555607E-2,-3.919922E-2,-6.1957408E-2,-1.0464213E-2],"categories":[],"categories_nodes":[],"categories_segments":[],"categories_sizes":[],"default_left":[0,0,0,0,0,0,0,0,0,0,0,0,0,0,0,0,0,0,0,0,0,0,0,0,0,0,0,0,0,0,0,0,0,0,0,0,0,0,0,0,0,0,0,0,0,0,0],"id":9,"left_children":[1,3,5,7,9,11,13,-1,15,17,19,21,23,25,27,-1,29,31,33,-1,-1,35,37,-1,39,41,43,-1,45,-1,-1,-1,-1,-1,-1,-1,-1,-1,-1,-1,-1,-1,-1,-1,-1,-1,-1],"loss_changes":[5.7147804E1,1.1105635E1,6.156231E0,1.5551033E0,7.306098E0,5.819927E0,4.1725082E0,0E0,3.1558018E0,4.997496E0,4.8181677E-1,3.6076293E0,5.1491146E0,1.7127533E0,9.472883E0,0E0,3.2907152E-1,2.4366958E0,4.740494E0,0E0,0E0,2.842635E0,2.787714E0,0E0,2.6554682E0,2.8354015E0,8.264649E0,0E0,5.045061E-1,0E0,0E0,0E0,0E0,0E0,0E0,0E0,0E0,0E0,0E0,0E0,0E0,0E0,0E0,0E0,0E0,0E0,0E0],"parents":[2147483647,0,0,1,1,2,2,3,3,4,4,5,5,6,6,8,8,9,9,10,10,11,11,12,12,13,13,14,14,16,16,17,17,18,18,21,21,22,22,24,24,25,25,26,26,28,28],"right_children":[2,4,6,8,10,12,14,-1,16,18,20,22,24,26,28,-1,30,32,34,-1,-1,36,38,-1,40,42,44,-1,46,-1,-1,-1,-1,-1,-1,-1,-1,-1,-1,-1,-1,-1,-1,-1,-1,-1,-1],"split_conditions":[2E0,1E0,3E0,4.1E1,6.1E1,2.5333333E-1,6.7E1,6.3434444E-2,1.7391305E-1,1.2E-1,1.7460318E-1,1.5E1,2.638889E-1,4.7E1,6.8E1,4.890712E-2,4.8E1,1.1392405E-1,2.8E1,-5.8363188E-2,-1.0902275E-2,2.0289855E-1,1.4473684E-1,6.986102E-2,2.8846154E-1,2.9411766E-1,4.8E1,5.1838554E-2,2.5E-1,-2.212531E-2,4.511106E-3,1.6891273E-3,-5.661534E-2,5.1257085E-2,1.2191951E-2,4.5187127E-2,-2.86872E-2,-5.3479947E-2,-1.6487708E-2,-5.269761E-2,2.7529836E-2,-6.310681E-2,-2.3590125E-2,6.0555607E-2,-3.919922E-2,-6.1957408E-2,-1.0464213E-2],"split_indices":[1,1,1,0,0,3,0,0,3,3,3,0,3,0,0,0,0,3,0,0,0,3,3,0,3,3,0,0,3,0,0,0,0,0,0,0,0,0,0,0,0,0,0,0,0,0,0],"split_type":[0,0,0,0,0,0,0,0,0,0,0,0,0,0,0,0,0,0,0,0,0,0,0,0,0,0,0,0,0,0,0,0,0,0,0,0,0,0,0,0,0,0,0,0,0,0,0],"sum_hessian":[1.6892424E2,7.406453E1,9.485971E1,2.8566086E1,4.5498447E1,3.7987835E1,5.687188E1,1.841477E1,1.0151316E1,4.1966404E1,3.5320435E0,3.2908173E1,5.0796604E0,5.0010918E1,6.86096E0,7.120941E0,3.0303748E0,9.758182E0,3.220822E1,2.192596E0,1.3394475E0,3.8605666E0,2.9047607E1,2.788015E0,2.2916455E0,2.7327026E1,2.2683891E1,3.2905512E0,3.5704088E0,1.1348892E0,1.8954855E0,8.511013E0,1.2471685E0,1.340307E1,1.8805151E1,2.6848943E0,1.1756723E0,6.315108E0,2.27325E1,1.2442589E0,1.0473866E0,1.920425E1,8.122777E0,1.397277E0,2.1286613E1,2.4391038E0,1.1313049E0],"tree_param":{"num_deleted":"0","num_feature":"5","num_nodes":"47","size_leaf_vector":"1"}},{"base_weights":[6.3289893E-3,6.873393E-1,-5.0910085E-1,1.1488786E0,3.7149706E-1,-7.5233215E-1,1.2117599E-1,1.2123718E0,6.350694E-1,-2.2586118E-2,5.7315266E-1,-4.325643E-1,-9.6197015E-1,-2.0880818E-1,7.229517E-1,6.1772782E-2,1.5944485E-2,5.058658E-2,-2.0318462E-2,1.3952984E-1,-5.5787858E-2,9.229916E-1,3.9492518E-1,-5.798314E-1,4.0571505E-1,-1.1426522E0,-7.125435E-1,2.8638579E-2,-9.285309E-1,9.630638E-1,-3.0213505E-2,-4.7268285E-3,4.894949E-2,1.5009718E-2,5.1272478E-2,2.8939906E-3,4.78674E-2,-1.53279705E-2,-4.5368653E-2,5.9772838E-2,-1.914847E-2,-3.4647476E-2,-6.2194545E-2,1.2802675E-2,-4.0156122E-2,-3.2945327E-2,2.852963E-2,-6.31884E-2,-1.3847336E-3,6.674645E-2,2.3585578E-2],"categories":[],"categories_nodes":[],"categories_segments":[],"categories_sizes":[],"default_left":[0,0,0,0,0,0,0,0,0,0,0,0,0,0,0,0,0,0,0,0,0,0,0,0,0,0,0,0,0,0,0,0,0,0,0,0,0,0,0,0,0,0,0,0,0,0,0,0,0,0,0],"id":10,"left_children":[1,3,5,7,9,11,13,15,17,19,21,23,25,27,29,-1,-1,-1,-1,31,-1,33,35,37,39,41,43,45,47,49,-1,-1,-1,-1,-1,-1,-1,-1,-1,-1,-1,-1,-1,-1,-1,-1,-1,-1,-1,-1,-1],"loss_changes":[6.096104E1,1.046484E1,1.5251369E1,1.8729019E-1,3.6670704E0,4.361271E0,5.7906547E0,1.1644745E-1,2.5381012E0,3.0871902E0,1.519392E0,3.957672E0,1.0751915E0,3.2981534E0,3.8627968E0,0E0,0E0,0E0,0E0,3.0955415E0,0E0,2.8525162E-1,4.090336E0,2.0420237E0,3.6311579E0,1.5993881E-1,2.006549E0,6.0815973E0,1.3944969E0,1.0150013E0,0E0,0E0,0E0,0E0,0E0,0E0,0E0,0E0,0E0,0E0,0E0,0E0,0E0,0E0,0E0,0E0,0E0,0E0,0E0,0E0,0E0],"parents":[2147483647,0,0,1,1,2,2,3,3,4,4,5,5,6,6,7,7,8,8,9,9,10,10,11,11,12,12,13,13,14,14,19,19,21,21,22,22,23,23,24,24,25,25,26,26,27,27,28,28,29,29],"right_children":[2,4,6,8,10,12,14,16,18,20,22,24,26,28,30,-1,-1,-1,-1,32,-1,34,36,38,40,42,44,46,48,50,-1,-1,-1,-1,-1,-1,-1,-1,-1,-1,-1,-1,-1,-1,-1,-1,-1,-1,-1,-1,-1],"split_conditions":[2E0,1E0,1.1996712E1,1.9736843E-1,1.4516129E-1,3E0,2.2727273E-1,1.5007459E1,7.501389E0,1.3114753E-1,5.9854894E0,2.5333333E-1,7.61402E0,2.0454545E-1,2.6666668E-1,6.1772782E-2,1.5944485E-2,5.058658E-2,-2.0318462E-2,1.3029745E1,-5.5787858E-2,2.291288E0,1.058389E1,1.884058E-1,2.638889E-1,3.5270004E0,7.9341106E0,1.7948718E-1,1.3732163E1,2.3809524E-1,-3.0213505E-2,-4.7268285E-3,4.894949E-2,1.5009718E-2,5.1272478E-2,2.8939906E-3,4.78674E-2,-1.53279705E-2,-4.5368653E-2,5.9772838E-2,-1.914847E-2,-3.4647476E-2,-6.2194545E-2,1.2802675E-2,-4.0156122E-2,-3.2945327E-2,2.852963E-2,-6.31884E-2,-1.3847336E-3,6.674645E-2,2.3585578E-2],"split_indices":[1,1,2,3,3,1,3,2,2,3,2,3,2,3,3,0,0,0,0,2,0,2,2,3,3,2,2,3,2,3,0,0,0,0,0,0,0,0,0,0,0,0,0,0,0,0,0,0,0,0,0],"split_type":[0,0,0,0,0,0,0,0,0,0,0,0,0,0,0,0,0,0,0,0,0,0,0,0,0,0,0,0,0,0,0,0,0,0,0,0,0,0,0,0,0,0,0,0,0,0,0,0,0,0,0],"sum_hessian":[1.7166975E2,7.3820496E1,9.784926E1,2.890806E1,4.4912434E1,7.047452E1,2.7374737E1,2.4501307E1,4.406754E0,1.5486506E1,2.9425926E1,2.9138968E1,4.1335552E1,1.8090948E1,9.283789E0,2.3500227E1,1.0010792E0,3.2642746E0,1.1424793E0,1.4238212E1,1.2482953E0,8.502235E0,2.092369E1,2.5057209E1,4.08176E0,2.1871132E1,1.946442E1,1.4314655E1,3.7762935E0,8.100256E0,1.183533E0,1.181837E1,2.4198415E0,1.7700992E0,6.7321367E0,1.3783994E1,7.1396976E0,1.4732322E1,1.0324886E1,1.7881408E0,2.293619E0,5.478611E0,1.639252E1,1.4988941E0,1.7965527E1,6.206537E0,8.108118E0,2.450413E0,1.3258804E0,3.621917E0,4.478339E0],"tree_param":{"num_deleted":"0","num_feature":"5","num_nodes":"51","size_leaf_vector":"1"}},{"base_weights":[6.395785E-2,7.0415616E-1,-4.326198E-1,1.0817446E0,4.2457956E-1,-6.849434E-1,1.7520416E-1,6.32313E-2,5.509921E-1,-4.5860742E-4,6.65717E-1,-7.923894E-1,-5.576872E-2,-3.6600745E-1,3.140306E-1,-2.4184769E-2,3.7090626E-2,6.119412E-1,-2.3631093E-1,9.1425997E-1,3.698314E-1,-4.7663605E-1,-1.0430454E0,6.1084773E-2,-7.440027E-1,4.2307046E-1,-5.9554737E-2,-1.2945616E-1,7.3149306E-1,6.883807E-3,5.3733107E-2,-5.8456387E-2,-7.803149E-4,5.439892E-2,2.1348288E-2,-2.7502645E-2,3.3471253E-2,-1.2517606E-2,-3.3423822E-2,-5.690766E-2,-2.4731722E-2,-4.358525E-2,-1.8042486E-2,-1.3001472E-3,3.2919936E-2,3.645363E-2,-3.139854E-2,6.319652E-2,2.4624933E-2],"categories":[],"categories_nodes":[],"categories_segments":[],"categories_sizes":[],"default_left":[0,0,0,0,0,0,0,0,0,0,0,0,0,0,0,0,0,0,0,0,0,0,0,0,0,0,0,0,0,0,0,0,0,0,0,0,0,0,0,0,0,0,0,0,0,0,0,0,0],"id":11,"left_children":[1,3,5,7,9,11,13,-1,15,17,19,21,23,25,27,-1,-1,29,31,33,35,37,39,-1,41,43,-1,45,47,-1,-1,-1,-1,-1,-1,-1,-1,-1,-1,-1,-1,-1,-1,-1,-1,-1,-1,-1,-1],"loss_changes":[5.4442528E1,7.419285E0,1.4926737E1,2.308628E0,4.5806923E0,4.572304E0,2.3005247E0,0E0,2.2901573E0,2.616099E0,1.7440262E0,4.1054764E0,1.0635488E1,4.6698213E0,4.49019E0,0E0,0E0,9.4415045E-1,2.668046E0,7.71883E-1,4.4214005E0,1.0250273E0,1.0723724E0,0E0,5.5735588E-2,4.4578046E-1,0E0,5.7357364E0,9.346442E-1,0E0,0E0,0E0,0E0,0E0,0E0,0E0,0E0,0E0,0E0,0E0,0E0,0E0,0E0,0E0,0E0,0E0,0E0,0E0,0E0],"parents":[2147483647,0,0,1,1,2,2,3,3,4,4,5,5,6,6,8,8,9,9,10,10,11,11,12,12,13,13,14,14,17,17,18,18,19,19,20,20,21,21,22,22,24,24,25,25,27,27,28,28],"right_children":[2,4,6,8,10,12,14,-1,16,18,20,22,24,26,28,-1,-1,30,32,34,36,38,40,-1,42,44,-1,46,48,-1,-1,-1,-1,-1,-1,-1,-1,-1,-1,-1,-1,-1,-1,-1,-1,-1,-1,-1,-1],"split_conditions":[2E0,1E0,1.2045407E1,9.786022E0,1.4814815E-1,2.9411766E-1,1.7948718E-1,6.32313E-2,1.0668234E1,2.291288E0,7.900629E0,3E0,3.125E-1,1.3867001E1,1.4222214E1,-2.4184769E-2,3.7090626E-2,3.846154E-2,3.5270004E0,2.413793E-1,9.514252E0,1.884058E-1,1.058389E1,6.1084773E-2,4.189935E0,1.3187742E1,-5.9554737E-2,1.2559366E1,1.875E-1,6.883807E-3,5.3733107E-2,-5.8456387E-2,-7.803149E-4,5.439892E-2,2.1348288E-2,-2.7502645E-2,3.3471253E-2,-1.2517606E-2,-3.3423822E-2,-5.690766E-2,-2.4731722E-2,-4.358525E-2,-1.8042486E-2,-1.3001472E-3,3.2919936E-2,3.645363E-2,-3.139854E-2,6.319652E-2,2.4624933E-2],"split_indices":[1,1,2,2,3,3,3,0,2,2,2,1,3,2,2,0,0,3,2,3,2,3,2,0,2,2,0,2,3,0,0,0,0,0,0,0,0,0,0,0,0,0,0,0,0,0,0,0,0],"split_type":[0,0,0,0,0,0,0,0,0,0,0,0,0,0,0,0,0,0,0,0,0,0,0,0,0,0,0,0,0,0,0,0,0,0,0,0,0,0,0,0,0,0,0,0,0,0,0,0,0],"sum_hessian":[1.6928558E2,7.3775185E1,9.551039E1,3.0150185E1,4.3625E1,6.741447E1,2.8095928E1,2.138129E1,8.768894E0,1.6137337E1,2.7487663E1,5.7346012E1,1.0068453E1,5.3868694E0,2.2709059E1,1.1182374E0,7.650657E0,4.031749E0,1.2105589E1,1.3784783E1,1.370288E1,2.6679317E1,3.0666695E1,3.2487135E0,6.8197393E0,2.9963813E0,2.3904881E0,1.1334218E1,1.1374841E1,2.6424851E0,1.3892637E0,1.4853094E0,1.0620279E1,9.238191E0,4.5465927E0,3.152854E0,1.0550026E1,1.3322263E1,1.3357055E1,2.520239E1,5.4643044E0,4.139043E0,2.6806962E0,1.3215315E0,1.6748497E0,3.9863982E0,7.3478203E0,2.1824193E0,9.192422E0],"tree_param":{"num_deleted":"0","num_feature":"5","num_nodes":"49","size_leaf_vector":"1"}},{"base_weights":[-9.960743E-3,7.9794295E-2,-5.5315435E-1,3.369467E-1,-1.5099017E-1,3.5583767E-1,-9.934104E-1,7.270357E-1,1.8481177E-1,-2.8189793E-1,1.0857738E0,8.550502E-1,-2.2113304E-1,-7.236293E-3,-1.054325E0,5.9110384E-2,4.7264868E-1,2.4398655E-1,-5.0970054E-1,1.6466019E-1,-4.9503154E-1,3.4102145E-1,7.162399E-2,5.3884596E-2,1.3779028E-2,-2.297689E-2,2.048674E-4,-6.2077623E-2,-5.2794534E-1,4.0446308E-2,-2.8033534E-2,2.1777859E-2,-3.1467862E-3,1.0857907E-2,-4.430906E-2,5.4364264E-2,-1.7367102E-2,-2.8611606E-2,2.8736612E-2,-1.0642997E-3,3.008987E-2,1.498312E-2,-3.8531587E-2],"categories":[],"categories_nodes":[],"categories_segments":[],"categories_sizes":[],"default_left":[0,0,0,0,0,0,0,0,0,0,0,0,0,0,0,0,0,0,0,0,0,0,0,0,0,0,0,0,0,0,0,0,0,0,0,0,0,0,0,0,0,0,0],"id":12,"left_children":[1,3,5,7,9,11,13,15,17,19,21,23,25,-1,27,-1,29,31,33,35,37,39,-1,-1,-1,-1,-1,-1,41,-1,-1,-1,-1,-1,-1,-1,-1,-1,-1,-1,-1,-1,-1],"loss_changes":[8.397234E0,8.8247595E0,1.0133895E1,4.0250483E0,1.3018459E1,2.700766E0,7.0007515E-1,1.6650572E0,2.254354E0,6.923211E0,1.4868984E0,3.1882024E-1,2.6525646E-1,0E0,8.48011E-1,0E0,5.352769E0,2.8832545E0,1.3990011E0,1.1697972E1,4.367424E0,3.751485E-1,0E0,0E0,0E0,0E0,0E0,0E0,1.4012724E0,0E0,0E0,0E0,0E0,0E0,0E0,0E0,0E0,0E0,0E0,0E0,0E0,0E0,0E0],"parents":[2147483647,0,0,1,1,2,2,3,3,4,4,5,5,6,6,7,7,8,8,9,9,10,10,11,11,12,12,14,14,16,16,17,17,18,18,19,19,20,20,21,21,28,28],"right_children":[2,4,6,8,10,12,14,16,18,20,22,24,26,-1,28,-1,30,32,34,36,38,40,-1,-1,-1,-1,-1,-1,42,-1,-1,-1,-1,-1,-1,-1,-1,-1,-1,-1,-1,-1,-1],"split_conditions":[4.473684E-1,1.9642857E-1,2.5268877E0,5.8877425E0,1.4473076E1,5.714286E-1,6.666667E-2,3.1343284E-1,1.5557753E1,2.6086956E-1,2.1818182E-1,1.2658228E-1,7.777778E-1,-7.236293E-3,1.7777778E-1,5.9110384E-2,1.6176471E-1,3.7777779E-1,3.2142857E-1,2.4590164E-1,4.117647E-1,1.5357548E1,7.162399E-2,5.3884596E-2,1.3779028E-2,-2.297689E-2,2.048674E-4,-6.2077623E-2,1.9565217E-1,4.0446308E-2,-2.8033534E-2,2.1777859E-2,-3.1467862E-3,1.0857907E-2,-4.430906E-2,5.4364264E-2,-1.7367102E-2,-2.8611606E-2,2.8736612E-2,-1.0642997E-3,3.008987E-2,1.498312E-2,-3.8531587E-2],"split_indices":[4,3,2,2,2,4,3,4,2,4,3,3,4,0,3,0,3,4,4,3,4,2,0,0,0,0,0,0,3,0,0,0,0,0,0,0,0,0,0,0,0,0,0],"split_type":[0,0,0,0,0,0,0,0,0,0,0,0,0,0,0,0,0,0,0,0,0,0,0,0,0,0,0,0,0,0,0,0,0,0,0,0,0,0,0,0,0,0,0],"sum_hessian":[1.7023311E2,1.468096E2,2.3423512E1,6.924095E1,7.756865E1,7.6981845E0,1.57253275E1,1.834863E1,5.0892323E1,7.084959E1,6.719062E0,3.8781013E0,3.8200831E0,1.2901747E0,1.4435152E1,5.25655E0,1.3092081E1,4.7507607E1,3.3847153E0,2.2948448E1,4.7901134E1,2.7735975E0,3.9454644E0,2.1680527E0,1.7100487E0,1.3719654E0,2.4481177E0,9.631626E0,4.8035264E0,1.0048719E1,3.0433621E0,2.9012463E1,1.8495142E1,1.290267E0,2.0944483E0,7.7960134E0,1.5152435E1,4.5119476E1,2.7816582E0,1.5291332E0,1.2444644E0,1.0266099E0,3.7769165E0],"tree_param":{"num_deleted":"0","num_feature":"5","num_nodes":"43","size_leaf_vector":"1"}},{"base_weights":[-1.1080498E-2,6.0684536E-2,-1.2952433E0,-3.7135884E-2,9.701553E-1,-7.027386E-2,-1.4566337E-2,5.3314537E-1,-2.3089176E-1,1.1362268E0,-1.5188962E-2,2.9051322E-1,6.931239E-2,-1.1894743E0,-1.3103066E-1,5.9735756E-2,2.224054E-2,3.0488158E-2,-4.999564E-2,-1.7429559E-2,-7.037667E-2,-1.2236667E-3,-5.435286E-2],"categories":[],"categories_nodes":[],"categories_segments":[],"categories_sizes":[],"default_left":[0,0,0,0,0,0,0,0,0,0,0,0,0,0,0,0,0,0,0,0,0,0,0],"id":13,"left_children":[1,3,5,7,9,-1,-1,11,13,15,-1,17,-1,19,21,-1,-1,-1,-1,-1,-1,-1,-1],"loss_changes":[1.537565E1,1.41038475E1,5.5078125E-1,1.599055E1,3.6100512E0,0E0,0E0,7.179739E0,1.0161328E1,1.1684418E-2,0E0,1.290627E1,0E0,1.3342886E0,1.0034209E1,0E0,0E0,0E0,0E0,0E0,0E0,0E0,0E0],"parents":[2147483647,0,0,1,1,2,2,3,3,4,4,7,7,8,8,9,9,11,11,13,13,14,14],"right_children":[2,4,6,8,10,-1,-1,12,14,16,-1,18,-1,20,22,-1,-1,-1,-1,-1,-1,-1,-1],"split_conditions":[6.8E1,1.4124826E1,1.6358822E1,2.1E1,4.054054E-1,-7.027386E-2,-1.4566337E-2,2E1,2.7E1,3.9726028E-1,-1.5188962E-2,1.5E1,6.931239E-2,2.923077E-1,6.1E1,5.9735756E-2,2.224054E-2,3.0488158E-2,-4.999564E-2,-1.7429559E-2,-7.037667E-2,-1.2236667E-3,-5.435286E-2],"split_indices":[0,2,2,0,4,0,0,0,0,4,0,0,0,4,0,0,0,0,0,0,0,0,0],"split_type":[0,0,0,0,0,0,0,0,0,0,0,0,0,0,0,0,0,0,0,0,0,0,0],"sum_hessian":[1.6485327E2,1.5702304E2,7.8302264E0,1.4263026E2,1.4392785E1,6.686111E0,1.1441156E0,3.5713005E1,1.0691725E2,1.2835483E1,1.5573018E0,2.8857782E1,6.855224E0,9.048437E0,9.786881E1,1.1149902E1,1.685581E0,2.3563435E1,5.2943463E0,2.4078214E0,6.6406155E0,8.8986565E1,8.882254E0],"tree_param":{"num_deleted":"0","num_feature":"5","num_nodes":"23","size_leaf_vector":"1"}},{"base_weights":[-4.6467416E-2,5.990043E-1,-5.2208096E-1,-6.468854E-1,6.849487E-1,-2.2467604E-1,-7.0682126E-1,3.5888322E-3,-4.221099E-2,9.8446304E-1,4.7755378E-1,-1.0169541E0,-5.608419E-2,-6.18526E-2,-6.2787014E-1,9.445158E-3,5.1351715E-2,-2.1955863E-2,6.52335E-1,-6.133065E-3,-5.8475167E-2,4.621611E-2,-1.4456749E-1,6.260241E-1,-7.2540605E-1,2.6990509E-2,-1.992601E-2,-1.3489978E-2,3.5168078E-2,2.524024E-4,-4.7215223E-2,7.2440546E-4,5.1265832E-2,-3.163208E-2,-6.0491443E-2],"categories":[],"categories_nodes":[],"categories_segments":[],"categories_sizes":[],"default_left":[0,0,0,0,0,0,0,0,0,0,0,0,0,0,0,0,0,0,0,0,0,0,0,0,0,0,0,0,0,0,0,0,0,0,0],"id":14,"left_children":[1,3,5,7,9,11,13,-1,-1,15,17,19,21,-1,23,-1,-1,25,27,-1,-1,-1,29,31,33,-1,-1,-1,-1,-1,-1,-1,-1,-1,-1],"loss_changes":[5.1227234E1,8.026428E0,5.1081676E0,7.882819E-1,3.6610546E0,5.045744E0,1.6640434E0,0E0,0E0,6.8605804E-1,3.6347618E0,7.5060415E-1,2.9568725E0,0E0,6.9593525E0,0E0,0E0,2.6851344E0,1.639287E0,0E0,0E0,0E0,3.7003412E0,1.0412581E0,1.4547329E0,0E0,0E0,0E0,0E0,0E0,0E0,0E0,0E0,0E0,0E0],"parents":[2147483647,0,0,1,1,2,2,3,3,4,4,5,5,6,6,9,9,10,10,11,11,12,12,14,14,17,17,18,18,22,22,23,23,24,24],"right_children":[2,4,6,8,10,12,14,-1,-1,16,18,20,22,-1,24,-1,-1,26,28,-1,-1,-1,30,32,34,-1,-1,-1,-1,-1,-1,-1,-1,-1,-1],"split_conditions":[2E0,6.25E-2,3E0,6E-1,1E0,1.3333334E-1,2.2222222E-1,3.5888322E-3,-4.221099E-2,1.7857143E-1,1.4516129E-1,8.3333336E-2,1.3513513E-1,-6.18526E-2,2.3684211E-1,9.445158E-3,5.1351715E-2,1.1392405E-1,1.764706E-1,-6.133065E-3,-5.8475167E-2,4.621611E-2,4.25E-1,2.3076923E-1,2.7450982E-1,2.6990509E-2,-1.992601E-2,-1.3489978E-2,3.5168078E-2,2.524024E-4,-4.7215223E-2,7.2440546E-4,5.1265832E-2,-3.163208E-2,-6.0491443E-2],"split_indices":[1,3,1,4,1,3,4,0,0,4,3,3,3,0,4,0,0,3,4,0,0,0,4,4,3,0,0,0,0,0,0,0,0,0,0],"split_type":[0,0,0,0,0,0,0,0,0,0,0,0,0,0,0,0,0,0,0,0,0,0,0,0,0,0,0,0,0,0,0,0,0,0,0],"sum_hessian":[1.6485043E2,6.9817795E1,9.503263E1,4.076712E0,6.574109E1,3.72829E1,5.774973E1,1.0044069E0,3.0723054E0,2.5344372E1,4.0396713E1,5.6482477E0,3.1634653E1,5.566986E0,5.2182743E1,1.5754292E0,2.3768944E1,1.0682943E1,2.971377E1,1.0955293E0,4.552718E0,1.8274101E0,2.9807243E1,3.3676949E0,4.881505E1,4.102574E0,6.580369E0,1.3229228E0,2.8390846E1,2.593625E1,3.870994E0,1.7495308E0,1.6181641E0,4.292227E1,5.892777E0],"tree_param":{"num_deleted":"0","num_feature":"5","num_nodes":"35","size_leaf_vector":"1"}},{"base_weights":[4.1711554E-3,5.592636E-1,-4.2374763E-1,9.5589757E-1,2.9164472E-1,-8.42857E-2,-6.308001E-1,7.758729E-1,5.817098E-2,-2.8429425E-1,6.0261536E-1,-8.686416E-1,5.2430365E-2,-4.396997E-2,-3.9989316E-1,5.595209E-2,5.12182E-1,3.955906E-3,-5.918097E-1,4.8575938E-1,5.3762365E-2,-5.976382E-3,-5.134811E-2,7.6868224E-1,-4.6552498E-2,3.863541E-1,-4.8653552E-1,-6.7278245E-3,3.3567887E-2,1.8609779E-2,-2.8952673E-2,-5.0437015E-2,-1.576799E-2,3.68147E-2,1.1522929E-3,4.569039E-3,5.8049828E-2,-6.363731E-2,9.048196E-3,3.806957E-2,-8.63254E-3,-4.9741287E-2,-1.7817605E-2],"categories":[],"categories_nodes":[],"categories_segments":[],"categories_sizes":[],"default_left":[0,0,0,0,0,0,0,0,0,0,0,0,0,0,0,0,0,0,0,0,0,0,0,0,0,0,0,0,0,0,0,0,0,0,0,0,0,0,0,0,0,0,0],"id":15,"left_children":[1,3,5,7,9,11,13,15,-1,17,19,21,23,-1,25,-1,27,29,31,33,-1,-1,-1,35,37,39,41,-1,-1,-1,-1,-1,-1,-1,-1,-1,-1,-1,-1,-1,-1,-1,-1],"loss_changes":[3.8990967E1,7.2940598E0,6.4541492E0,1.3656616E-1,8.077155E0,3.9449072E0,2.9303532E0,1.0575819E0,0E0,1.4388148E0,1.0629215E0,5.126195E-1,2.299865E0,0E0,2.342493E0,0E0,1.346796E0,2.2115648E0,5.7136774E-1,2.8828888E0,0E0,0E0,0E0,9.2682076E-1,8.303363E0,9.096341E-1,1.5462222E0,0E0,0E0,0E0,0E0,0E0,0E0,0E0,0E0,0E0,0E0,0E0,0E0,0E0,0E0,0E0,0E0],"parents":[2147483647,0,0,1,1,2,2,3,3,4,4,5,5,6,6,7,7,9,9,10,10,11,11,12,12,14,14,16,16,17,17,18,18,19,19,23,23,24,24,25,25,26,26],"right_children":[2,4,6,8,10,12,14,16,-1,18,20,22,24,-1,26,-1,28,30,32,34,-1,-1,-1,36,38,40,42,-1,-1,-1,-1,-1,-1,-1,-1,-1,-1,-1,-1,-1,-1,-1,-1],"split_conditions":[2E0,1E0,3E0,3.611111E-1,1.4814815E-1,1.3043478E-1,2.2857143E-1,2.5641027E-1,5.817098E-2,4.4444445E-1,4.117647E-1,8.3333336E-2,2.3529412E-1,-4.396997E-2,2.3529412E-1,5.595209E-2,2.982456E-1,1.2658228E-1,4.909091E-1,3.0232558E-1,5.3762365E-2,-5.976382E-3,-5.134811E-2,2.9411766E-1,2.9577464E-1,4E0,2.2222222E-1,-6.7278245E-3,3.3567887E-2,1.8609779E-2,-2.8952673E-2,-5.0437015E-2,-1.576799E-2,3.68147E-2,1.1522929E-3,4.569039E-3,5.8049828E-2,-6.363731E-2,9.048196E-3,3.806957E-2,-8.63254E-3,-4.9741287E-2,-1.7817605E-2],"split_indices":[1,1,1,4,3,3,3,4,0,4,4,3,4,0,3,0,4,3,4,4,0,0,0,3,4,1,4,0,0,0,0,0,0,0,0,0,0,0,0,0,0,0,0],"split_type":[0,0,0,0,0,0,0,0,0,0,0,0,0,0,0,0,0,0,0,0,0,0,0,0,0,0,0,0,0,0,0,0,0,0,0,0,0,0,0,0,0,0,0],"sum_hessian":[1.6214525E2,7.046069E1,9.1684555E1,2.7336477E1,4.3124214E1,3.5287E1,5.6397552E1,1.7201324E1,1.0135154E1,1.5139131E1,2.7985083E1,4.4539127E0,3.0833088E1,2.5785055E1,3.0612495E1,6.0483184E0,1.1153006E1,8.307087E0,6.832044E0,2.4080282E1,3.904801E0,1.0942872E0,3.3596256E0,2.9344285E0,2.7898659E1,2.6837611E0,2.7928736E1,2.220965E0,8.93204E0,5.3234463E0,2.9836404E0,1.6533895E0,5.1786547E0,1.5224284E1,8.855998E0,1.5378546E0,1.3965739E0,3.6542172E0,2.4244442E1,1.4002035E0,1.2835577E0,4.324715E0,2.360402E1],"tree_param":{"num_deleted":"0","num_feature":"5","num_nodes":"43","size_leaf_vector":"1"}},{"base_weights":[-7.649672E-2,4.644144E-1,-4.4372472E-1,9.063374E-1,1.8940149E-1,-6.2132937E-1,2.9624991E-2,9.768957E-1,1.0080953E-1,-4.5982575E-1,3.9762715E-1,-7.4968356E-1,-3.1318972E-1,-3.8424268E-1,6.8237555E-1,1.0150243E0,4.0343925E-1,1.548854E-2,-8.048286E-3,-2.030529E-1,-6.047827E-2,7.85609E-1,1.7548753E-1,-4.4461212E-1,-1.030251E0,-6.678766E-1,2.6386383E-1,-7.436813E-2,-5.4385293E-2,7.646849E-2,-4.5354698E-2,1.4392686E-2,5.2172434E-2,-8.903756E-3,3.904083E-2,-1.880694E-2,2.4982756E-2,4.701726E-2,1.8424924E-2,1.8874928E-3,3.8914185E-2,5.0997995E-3,-3.488375E-2,-5.641525E-2,-3.116301E-2,-8.814707E-3,-4.323372E-2,3.1602617E-2,-4.65602E-2,-3.4196083E-2,2.3203988E-2,4.240642E-2,-1.94395E-2],"categories":[],"categories_nodes":[],"categories_segments":[],"categories_sizes":[],"default_left":[0,0,0,0,0,0,0,0,0,0,0,0,0,0,0,0,0,0,0,0,0,0,0,0,0,0,0,0,0,0,0,0,0,0,0,0,0,0,0,0,0,0,0,0,0,0,0,0,0,0,0,0,0],"id":16,"left_children":[1,3,5,7,9,11,13,15,17,19,21,23,25,27,29,31,33,-1,-1,35,-1,37,39,41,43,45,47,49,-1,-1,51,-1,-1,-1,-1,-1,-1,-1,-1,-1,-1,-1,-1,-1,-1,-1,-1,-1,-1,-1,-1,-1,-1],"loss_changes":[3.2317444E1,7.8202276E0,8.163113E0,1.3105774E0,5.8420916E0,2.5412636E0,7.6545744E0,7.5769424E-2,2.2302382E-1,1.784606E0,2.6318684E0,3.721157E0,4.77705E0,3.6938338E0,6.8539257E0,1.150589E-1,8.2539135E-1,0E0,0E0,1.2961805E0,0E0,3.7857962E-1,1.7733707E0,3.5699391E0,2.6688766E-1,1.2112312E0,4.6581426E0,4.6327653E0,0E0,0E0,2.433922E0,0E0,0E0,0E0,0E0,0E0,0E0,0E0,0E0,0E0,0E0,0E0,0E0,0E0,0E0,0E0,0E0,0E0,0E0,0E0,0E0,0E0,0E0],"parents":[2147483647,0,0,1,1,2,2,3,3,4,4,5,5,6,6,7,7,8,8,9,9,10,10,11,11,12,12,13,13,14,14,15,15,16,16,19,19,21,21,22,22,23,23,24,24,25,25,26,26,27,27,30,30],"right_children":[2,4,6,8,10,12,14,16,18,20,22,24,26,28,30,32,34,-1,-1,36,-1,38,40,42,44,46,48,50,-1,-1,52,-1,-1,-1,-1,-1,-1,-1,-1,-1,-1,-1,-1,-1,-1,-1,-1,-1,-1,-1,-1,-1,-1],"split_conditions":[2E0,1E0,1.2045407E1,2.1917808E-1,1.2E-1,2.5531915E-1,2.278481E-1,1.3667381E1,1.8642814E0,1.1392405E-1,5.6465225E0,1.9148937E-1,7.61402E0,2.0454545E-1,2.4E-1,1.0318578E0,1.4342884E1,1.548854E-2,-8.048286E-3,1.3029745E1,-6.047827E-2,2.264151E-1,1.35937195E1,5.7178855E0,9.711014E0,3.5270004E0,5E0,1.7948718E-1,-5.4385293E-2,7.646849E-2,1.2559366E1,1.4392686E-2,5.2172434E-2,-8.903756E-3,3.904083E-2,-1.880694E-2,2.4982756E-2,4.701726E-2,1.8424924E-2,1.8874928E-3,3.8914185E-2,5.0997995E-3,-3.488375E-2,-5.641525E-2,-3.116301E-2,-8.814707E-3,-4.323372E-2,3.1602617E-2,-4.65602E-2,-3.4196083E-2,2.3203988E-2,4.240642E-2,-1.94395E-2],"split_indices":[1,1,2,3,3,3,3,2,2,3,2,3,2,3,3,2,2,0,0,2,0,3,2,2,2,2,1,3,0,0,2,0,0,0,0,0,0,0,0,0,0,0,0,0,0,0,0,0,0,0,0,0,0],"split_type":[0,0,0,0,0,0,0,0,0,0,0,0,0,0,0,0,0,0,0,0,0,0,0,0,0,0,0,0,0,0,0,0,0,0,0,0,0,0,0,0,0,0,0,0,0,0,0,0,0,0,0,0,0],"sum_hessian":[1.6065903E2,6.4848335E1,9.58107E1,2.3980951E1,4.0867386E1,6.9458E1,2.6352697E1,2.184255E1,2.138401E0,9.619231E0,3.1248154E1,4.799889E1,2.145911E1,1.6369724E1,9.982974E0,1.9742443E1,2.1001081E0,1.1084436E0,1.0299573E0,8.121819E0,1.4974132E0,1.0437239E1,2.0810915E1,2.425062E1,2.374827E1,1.3203497E1,8.255613E0,1.2141391E1,4.228333E0,4.1107335E0,5.87224E0,1.1744971E0,1.8567945E1,1.0239275E0,1.0761808E0,6.90098E0,1.2208383E0,6.680544E0,3.7566946E0,1.7818613E1,2.9923017E0,7.850727E0,1.6399893E1,1.7689548E1,6.0587215E0,4.331197E0,8.872301E0,6.677749E0,1.5778643E0,5.5766764E0,6.5647144E0,1.2143413E0,4.6578984E0],"tree_param":{"num_deleted":"0","num_feature":"5","num_nodes":"53","size_leaf_vector":"1"}},{"base_weights":[1.8335918E-2,1.8104282E-1,-1.6088647E-1,9.738479E-1,3.7779845E-2,-2.5967228E-1,7.707911E-1,1.2017701E0,-7.242547E-3,1.3606985E-1,-3.0849147E-1,1.9128372E-1,-4.3861076E-1,-2.5882248E-2,1.1447E0,2.1579994E-2,6.3870005E-2,4.984818E-1,-1.518529E-2,1.9932956E-1,-5.605504E-2,-3.3031368E-1,6.383696E-1,-5.854846E-1,-6.9366015E-2,6.710582E-2,1.8597279E-2,9.475109E-3,4.408786E-2,-5.8333524E-2,3.1507858E-3,2.8126497E-2,-9.7432695E-3,3.4254678E-2,-4.1195136E-2,4.482299E-2,-1.5882967E-2,-4.6219036E-2,-1.0952859E-2,-2.1653466E-2,5.4123193E-2],"categories":[],"categories_nodes":[],"categories_segments":[],"categories_sizes":[],"default_left":[0,0,0,0,0,0,0,0,0,0,0,0,0,0,0,0,0,0,0,0,0,0,0,0,0,0,0,0,0,0,0,0,0,0,0,0,0,0,0,0,0],"id":17,"left_children":[1,3,5,7,9,11,13,15,-1,17,19,21,23,-1,25,-1,-1,27,29,31,-1,33,35,37,39,-1,-1,-1,-1,-1,-1,-1,-1,-1,-1,-1,-1,-1,-1,-1,-1],"loss_changes":[4.6472816E0,9.437598E0,7.176637E0,3.4303007E0,2.4831522E0,5.681848E0,4.2189083E0,5.4242134E-2,0E0,3.1162994E0,6.8983326E0,4.9663105E0,2.6624737E0,0E0,4.2058563E-1,0E0,0E0,1.8025284E0,3.7675653E0,1.6569932E0,0E0,5.605052E0,3.0848117E0,4.205838E0,6.902014E0,0E0,0E0,0E0,0E0,0E0,0E0,0E0,0E0,0E0,0E0,0E0,0E0,0E0,0E0,0E0,0E0],"parents":[2147483647,0,0,1,1,2,2,3,3,4,4,5,5,6,6,7,7,9,9,10,10,11,11,12,12,14,14,17,17,18,18,19,19,21,21,22,22,23,23,24,24],"right_children":[2,4,6,8,10,12,14,16,-1,18,20,22,24,-1,26,-1,-1,28,30,32,-1,34,36,38,40,-1,-1,-1,-1,-1,-1,-1,-1,-1,-1,-1,-1,-1,-1,-1,-1],"split_conditions":[1.9565217E-1,3.0612245E-1,1.4473076E1,9.596131E0,4.509804E-1,2.6086956E-1,2.5925925E-1,2.1621622E-1,-7.242547E-3,1.3513513E-1,5.9854894E0,2.0833333E-1,2.5531915E-1,-2.5882248E-2,3.3898306E-1,2.1579994E-2,6.3870005E-2,1.25E-1,1.4545454E-1,6E-1,-5.605504E-2,2.4390244E-1,3.125E-1,9.721537E0,3.8E-1,6.710582E-2,1.8597279E-2,9.475109E-3,4.408786E-2,-5.8333524E-2,3.1507858E-3,2.8126497E-2,-9.7432695E-3,3.4254678E-2,-4.1195136E-2,4.482299E-2,-1.5882967E-2,-4.6219036E-2,-1.0952859E-2,-2.1653466E-2,5.4123193E-2],"split_indices":[3,4,2,2,4,4,4,4,0,3,2,4,3,0,4,0,0,3,3,4,0,3,3,2,4,0,0,0,0,0,0,0,0,0,0,0,0,0,0,0,0],"split_type":[0,0,0,0,0,0,0,0,0,0,0,0,0,0,0,0,0,0,0,0,0,0,0,0,0,0,0,0,0,0,0,0,0,0,0,0,0,0,0,0,0],"sum_hessian":[1.5736212E2,8.250535E1,7.485677E1,1.1729249E1,7.07761E1,6.834244E1,6.5143337E0,9.6897545E0,2.0394948E0,5.5623222E1,1.5152873E1,1.9379034E1,4.8963406E1,1.3727787E0,5.141555E0,1.4779689E0,8.211785E0,1.5722385E1,3.9900837E1,9.782148E0,5.370725E0,9.05442E0,1.0324615E1,3.4591354E1,1.4372051E1,3.498145E0,1.6434098E0,9.546743E0,6.175642E0,1.6604367E0,3.8240402E1,4.882178E0,4.8999705E0,2.8281431E0,6.226277E0,8.18717E0,2.137445E0,1.716555E1,1.7425802E1,1.1403853E1,2.9681976E0],"tree_param":{"num_deleted":"0","num_feature":"5","num_nodes":"41","size_leaf_vector":"1"}},{"base_weights":[-2.5845332E-2,5.086542E-1,-3.7439716E-1,-3.362689E-2,5.5286753E-1,-2.1531582E-1,-1.0199769E0,-1.7522471E-2,6.072235E-1,1.3179176E-1,-4.078654E-1,-5.342705E-2,-3.998283E-3,8.2254165E-1,4.662242E-1,2.4211751E-1,-5.4996914E-1,-6.9334924E-1,-2.2662649E-1,5.5835504E-2,3.5016127E-2,4.3055057E-3,3.0427871E-2,3.898435E-2,1.0223936E-4,-6.0314257E-2,3.1402975E-2,-4.0819015E-2,1.9963274E-2,-5.058095E-2,-2.5645758E-3],"categories":[],"categories_nodes":[],"categories_segments":[],"categories_sizes":[],"default_left":[0,0,0,0,0,0,0,0,0,0,0,0,0,0,0,0,0,0,0,0,0,0,0,0,0,0,0,0,0,0,0],"id":18,"left_children":[1,3,5,-1,7,9,11,-1,13,15,17,-1,-1,19,21,23,25,27,29,-1,-1,-1,-1,-1,-1,-1,-1,-1,-1,-1,-1],"loss_changes":[3.0687162E1,3.7667065E0,1.0004607E1,0E0,3.3204556E0,5.4868374E0,7.898693E-1,0E0,1.4260025E0,2.3660145E0,2.5512094E0,0E0,0E0,5.719185E-3,2.029541E0,3.3839016E0,4.191249E0,3.0036535E0,4.5667076E0,0E0,0E0,0E0,0E0,0E0,0E0,0E0,0E0,0E0,0E0,0E0,0E0],"parents":[2147483647,0,0,1,1,2,2,4,4,5,5,6,6,8,8,9,9,10,10,13,13,14,14,15,15,16,16,17,17,18,18],"right_children":[2,4,6,-1,8,10,12,-1,14,16,18,-1,-1,20,22,24,26,28,30,-1,-1,-1,-1,-1,-1,-1,-1,-1,-1,-1,-1],"split_conditions":[2E0,1.764706E-1,4.117647E-1,-3.362689E-2,5.882353E-2,3E0,2.5333333E-1,-1.7522471E-2,1E0,2.638889E-1,2.2857143E-1,-5.342705E-2,-3.998283E-3,2.7272728E-1,1.4634146E-1,3.2142857E-1,2.9411766E-1,3.9215687E-1,2.2222222E-1,5.5835504E-2,3.5016127E-2,4.3055057E-3,3.0427871E-2,3.898435E-2,1.0223936E-4,-6.0314257E-2,3.1402975E-2,-4.0819015E-2,1.9963274E-2,-5.058095E-2,-2.5645758E-3],"split_indices":[1,4,4,0,3,1,3,0,1,3,3,0,0,4,3,4,3,4,4,0,0,0,0,0,0,0,0,0,0,0,0],"split_type":[0,0,0,0,0,0,0,0,0,0,0,0,0,0,0,0,0,0,0,0,0,0,0,0,0,0,0,0,0,0,0],"sum_hessian":[1.6270335E2,6.4028496E1,9.867486E1,1.7892789E0,6.223922E1,8.024917E1,1.842569E1,3.2129736E0,5.9026245E1,2.8726946E1,5.1522224E1,1.7380388E1,1.0453014E0,2.1416626E1,3.760962E1,2.5293385E1,3.4335616E0,1.8888561E1,3.2633663E1,3.873866E0,1.7542759E1,1.0702596E1,2.6907024E1,7.101772E0,1.8191614E1,2.1951041E0,1.2384574E0,1.721238E1,1.6761827E0,5.076954E0,2.7556707E1],"tree_param":{"num_deleted":"0","num_feature":"5","num_nodes":"31","size_leaf_vector":"1"}},{"base_weights":[2.3498934E-2,5.597631E-1,-3.5846892E-1,9.0218717E-1,3.2914817E-1,-2.7865466E-1,-6.4688124E-2,5.6492543E-1,5.8965947E-2,4.2125008E-1,-4.8055887E-2,-3.7007967E-1,7.18688E-1,8.3044714E-1,2.525212E-2,5.5945855E-1,-2.8347766E-1,3.8192564E-1,-4.749812E-1,2.4355492E-3,4.351192E-2,4.89568E-2,1.8237204E-3,-4.8731413E-2,2.4917645E-2,2.0004509E-2,5.256318E-2,1.3809157E-2,-4.716183E-2,-2.913016E-2,4.4159357E-2,-5.7762485E-2,-1.8428648E-2],"categories":[],"categories_nodes":[],"categories_segments":[],"categories_sizes":[],"default_left":[0,0,0,0,0,0,0,0,0,0,0,0,0,0,0,0,0,0,0,0,0,0,0,0,0,0,0,0,0,0,0,0,0],"id":19,"left_children":[1,3,5,7,9,11,-1,13,-1,15,-1,17,19,21,23,25,27,29,31,-1,-1,-1,-1,-1,-1,-1,-1,-1,-1,-1,-1,-1,-1],"loss_changes":[3.325632E1,5.0232067E0,6.7035303E0,1.8010101E0,5.383817E0,8.347346E0,0E0,1.9661131E0,0E0,4.042821E0,0E0,6.642436E0,7.379799E-1,1.0509205E0,3.1471622E0,2.2035055E0,2.9204888E0,5.6268044E0,4.7941837E0,0E0,0E0,0E0,0E0,0E0,0E0,0E0,0E0,0E0,0E0,0E0,0E0,0E0,0E0],"parents":[2147483647,0,0,1,1,2,2,3,3,4,4,5,5,7,7,9,9,11,11,12,12,13,13,14,14,15,15,16,16,17,17,18,18],"right_children":[2,4,6,8,10,12,-1,14,-1,16,-1,18,20,22,24,26,28,30,32,-1,-1,-1,-1,-1,-1,-1,-1,-1,-1,-1,-1,-1,-1],"split_conditions":[2E0,1E0,6.8E1,3.3846155E-1,6.1E1,6.7E1,-6.4688124E-2,4.1E1,5.8965947E-2,4.6666667E-1,-4.8055887E-2,2.3684211E-1,2.682927E-1,3.1914893E-1,2.982456E-1,4.1304347E-1,1.4E1,1.891892E-1,2.9032257E-1,2.4355492E-3,4.351192E-2,4.89568E-2,1.8237204E-3,-4.8731413E-2,2.4917645E-2,2.0004509E-2,5.256318E-2,1.3809157E-2,-4.716183E-2,-2.913016E-2,4.4159357E-2,-5.7762485E-2,-1.8428648E-2],"split_indices":[1,1,0,4,0,0,0,0,0,4,0,4,4,4,4,4,0,4,4,0,0,0,0,0,0,0,0,0,0,0,0,0,0],"split_type":[0,0,0,0,0,0,0,0,0,0,0,0,0,0,0,0,0,0,0,0,0,0,0,0,0,0,0,0,0,0,0,0,0],"sum_hessian":[1.6036668E2,6.652689E1,9.383979E1,2.558381E1,4.094308E1,8.766724E1,6.1725507E0,1.2926803E1,1.2657008E1,3.8851078E1,2.092004E0,8.089103E1,6.7762065E0,8.290509E0,4.636294E0,3.2665226E1,6.1858516E0,9.567632E0,7.13234E1,1.5059727E0,5.2702336E0,6.7757883E0,1.5147209E0,1.1418387E0,3.494455E0,2.6055758E1,6.6094666E0,3.6531692E0,2.5326827E0,3.2095609E0,6.3580704E0,8.301447E0,6.3021954E1],"tree_param":{"num_deleted":"0","num_feature":"5","num_nodes":"33","size_leaf_vector":"1"}},{"base_weights":[3.0854119E-2,6.138277E-1,-1.3216706E-1,3.9395094E-1,6.727527E-2,-5.72774E-2,-4.448638E-2,6.714404E-1,-4.2280015E-2,3.2816812E-2,-1.0069469E0,7.931934E-1,-2.3905706E-2,9.9410444E-2,-9.647925E-1,-5.626117E-2,-6.3383766E-3,4.468007E-2,-3.7197277E-3,8.925441E-3,-2.6229395E-2,-6.4192526E-2,-1.1588933E-2],"categories":[],"categories_nodes":[],"categories_segments":[],"categories_sizes":[],"default_left":[0,0,0,0,0,0,0,0,0,0,0,0,0,0,0,0,0,0,0,0,0,0,0],"id":20,"left_children":[1,3,5,7,-1,-1,9,11,-1,13,15,17,-1,19,21,-1,-1,-1,-1,-1,-1,-1,-1],"loss_changes":[1.5708631E1,5.262436E0,1.1423447E1,1.0607388E1,0E0,0E0,8.972947E0,3.7998772E0,0E0,7.532044E0,7.781162E-1,2.0314684E0,0E0,5.3203597E0,1.3469434E0,0E0,0E0,0E0,0E0,0E0,0E0,0E0,0E0],"parents":[2147483647,0,0,1,1,2,2,3,3,6,6,7,7,9,9,10,10,11,11,13,13,14,14],"right_children":[2,4,6,8,-1,-1,10,12,-1,14,16,18,-1,20,22,-1,-1,-1,-1,-1,-1,-1,-1],"split_conditions":[2.1E1,2E1,2.7E1,1.5E1,6.727527E-2,-5.72774E-2,4.473684E-1,3.6363637E-1,-4.2280015E-2,6.8E1,2.0289855E-1,7.777778E-1,-2.3905706E-2,2.6666668E-1,2.238806E-1,-5.626117E-2,-6.3383766E-3,4.468007E-2,-3.7197277E-3,8.925441E-3,-2.6229395E-2,-6.4192526E-2,-1.1588933E-2],"split_indices":[0,0,0,0,0,0,4,3,0,0,3,4,0,3,3,0,0,0,0,0,0,0,0],"split_type":[0,0,0,0,0,0,0,0,0,0,0,0,0,0,0,0,0,0,0,0,0,0,0],"sum_hessian":[1.6338524E2,3.511345E1,1.2827179E2,2.8193188E1,6.920259E0,9.244797E0,1.19027E2,2.341731E1,4.7758784E0,1.1106219E2,7.964813E0,2.1462812E1,1.9544969E0,1.0496576E2,6.096427E0,6.765867E0,1.198946E0,1.9219982E1,2.2428317E0,9.380495E1,1.1160811E1,3.7145076E0,2.3819194E0],"tree_param":{"num_deleted":"0","num_feature":"5","num_nodes":"23","size_leaf_vector":"1"}},{"base_weights":[-3.7189845E-2,4.1598463E-1,-3.4990624E-1,8.486932E-1,1.760712E-1,-5.32564E-1,6.412163E-2,9.599176E-1,-6.3365094E-2,6.0634315E-1,-3.3128828E-2,-2.5843632E-1,-7.4217474E-1,4.4438496E-1,-1.0856167E0,1.2236412E-2,4.9366813E-2,-3.135209E-2,2.199293E-2,8.7006405E-2,5.849285E-2,7.081255E-2,-3.567676E-2,-1.3220227E-1,-4.7538858E-2,4.894451E-2,-8.055799E-1,2.169131E-1,8.404004E-1,-6.152901E-2,-3.889062E-3,2.8549585E-2,-4.551896E-2,-6.234068E-3,5.312386E-2,-1.06676845E-2,3.8557738E-2,-2.9373622E-2,3.802393E-2,-5.340128E-2,-2.694617E-2,2.893968E-2,-3.772449E-2,1.1257618E-2,4.9284037E-2],"categories":[],"categories_nodes":[],"categories_segments":[],"categories_sizes":[],"default_left":[0,0,0,0,0,0,0,0,0,0,0,0,0,0,0,0,0,0,0,0,0,0,0,0,0,0,0,0,0,0,0,0,0,0,0,0,0,0,0,0,0,0,0,0,0],"id":21,"left_children":[1,3,5,7,9,11,13,15,17,19,21,23,25,27,29,-1,-1,-1,-1,31,-1,33,-1,35,-1,37,39,41,43,-1,-1,-1,-1,-1,-1,-1,-1,-1,-1,-1,-1,-1,-1,-1,-1],"loss_changes":[2.3175034E1,6.7747316E0,7.3527775E0,2.4586658E0,4.0087514E0,3.6613026E0,1.3802654E1,1.5904617E-1,1.26705E0,4.1417356E0,2.2285101E0,2.545442E0,1.9302406E0,1.9350424E0,1.0395021E0,0E0,0E0,0E0,0E0,4.695716E0,0E0,5.4795694E0,0E0,2.1477103E0,0E0,2.1315622E0,1.8456612E0,6.188676E0,5.0375175E-1,0E0,0E0,0E0,0E0,0E0,0E0,0E0,0E0,0E0,0E0,0E0,0E0,0E0,0E0,0E0,0E0],"parents":[2147483647,0,0,1,1,2,2,3,3,4,4,5,5,6,6,7,7,8,8,9,9,10,10,11,11,12,12,13,13,14,14,19,19,21,21,23,23,25,25,26,26,27,27,28,28],"right_children":[2,4,6,8,10,12,14,16,18,20,22,24,26,28,30,-1,-1,-1,-1,32,-1,34,-1,36,-1,38,40,42,44,-1,-1,-1,-1,-1,-1,-1,-1,-1,-1,-1,-1,-1,-1,-1,-1],"split_conditions":[2E0,1E0,1.2045407E1,1.3667381E1,2.1E1,3E0,6.8E1,1.2472191E0,1.4468969E1,3.0776699E0,6.1E1,4.8E1,1.5E1,1.4673881E1,5E0,1.2236412E-2,4.9366813E-2,-3.135209E-2,2.199293E-2,1.4E1,5.849285E-2,5.5E1,-3.567676E-2,4.7E1,-4.7538858E-2,1.8708287E0,7.61402E0,6.2E1,6.7E1,-6.152901E-2,-3.889062E-3,2.8549585E-2,-4.551896E-2,-6.234068E-3,5.312386E-2,-1.06676845E-2,3.8557738E-2,-2.9373622E-2,3.802393E-2,-5.340128E-2,-2.694617E-2,2.893968E-2,-3.772449E-2,1.1257618E-2,4.9284037E-2],"split_indices":[1,1,2,2,0,1,0,2,2,2,0,0,0,2,1,0,0,0,0,0,0,0,0,0,0,2,2,0,0,0,0,0,0,0,0,0,0,0,0,0,0,0,0,0,0],"split_type":[0,0,0,0,0,0,0,0,0,0,0,0,0,0,0,0,0,0,0,0,0,0,0,0,0,0,0,0,0,0,0,0,0,0,0,0,0,0,0,0,0,0,0,0,0],"sum_hessian":[1.6151015E2,6.579737E1,9.571278E1,2.254891E1,4.3248463E1,6.623123E1,2.9481548E1,2.0060987E1,2.487923E0,1.3543105E1,2.9705357E1,2.9687174E1,3.654406E1,2.2621819E1,6.8597302E0,1.1206349E0,1.8940351E1,1.0667945E0,1.4211284E0,7.657795E0,5.88531E0,2.6533266E1,3.1720905E0,2.6128563E1,3.5586107E0,2.7167656E0,3.3827297E1,1.5367623E1,7.2541947E0,5.795229E0,1.0645013E0,5.4504704E0,2.2073245E0,2.2885809E1,3.6474557E0,2.4685846E1,1.4427167E0,1.5187E0,1.1980658E0,1.551477E1,1.8312525E1,1.1498503E1,3.86912E0,1.8859582E0,5.3682365E0],"tree_param":{"num_deleted":"0","num_feature":"5","num_nodes":"45","size_leaf_vector":"1"}},{"base_weights":[-2.3635061E-2,5.467454E-1,-4.256088E-1,9.5470124E-1,3.396704E-1,-7.5686336E-2,-6.6735E-1,5.6651082E-2,5.666732E-1,-6.8596E-2,4.495454E-1,4.2018604E-2,-1.6293941E-1,-9.055144E-1,-4.5889506E-1,5.011607E-2,2.0649818E-1,-1.9409269E-1,5.400482E-1,-5.901385E-2,-5.4460824E-2,7.4325576E-3,-1.0124896E0,3.752888E-2,-5.6392044E-1,3.465132E-2,-2.4689427E-3,1.12966625E-2,-4.0989365E-2,1.2514479E-2,3.974461E-2,3.9678153E-2,-7.7242735E-3,-3.8934108E-2,-6.398528E-2,-1.634021E-2,-5.6215674E-2],"categories":[],"categories_nodes":[],"categories_segments":[],"categories_sizes":[],"default_left":[0,0,0,0,0,0,0,0,0,0,0,0,0,0,0,0,0,0,0,0,0,0,0,0,0,0,0,0,0,0,0,0,0,0,0,0,0],"id":22,"left_children":[1,3,5,7,9,11,13,-1,15,-1,17,-1,19,21,23,-1,25,27,29,-1,31,-1,33,-1,35,-1,-1,-1,-1,-1,-1,-1,-1,-1,-1,-1,-1],"loss_changes":[3.5498493E1,5.0706844E0,7.6230297E0,7.929745E-1,8.888029E0,3.1869917E0,2.2297497E0,0E0,1.1343706E0,0E0,2.5626059E0,0E0,3.8704937E0,2.859682E0,4.3096185E0,0E0,7.868391E-1,1.7459563E0,2.5388575E0,0E0,2.9473557E0,0E0,3.4979057E-1,0E0,3.4373474E0,0E0,0E0,0E0,0E0,0E0,0E0,0E0,0E0,0E0,0E0,0E0,0E0],"parents":[2147483647,0,0,1,1,2,2,3,3,4,4,5,5,6,6,8,8,10,10,12,12,13,13,14,14,16,16,17,17,18,18,20,20,22,22,24,24],"right_children":[2,4,6,8,10,12,14,-1,16,-1,18,-1,20,22,24,-1,26,28,30,-1,32,-1,34,-1,36,-1,-1,-1,-1,-1,-1,-1,-1,-1,-1,-1,-1],"split_conditions":[2E0,2.1E1,3E0,4.054054E-1,2.7E1,2.3076923E-1,4.7E1,5.6651082E-2,8E0,-6.8596E-2,2.682927E-1,4.2018604E-2,2.9577464E-1,1.5E1,4.8E1,5.011607E-2,1E0,4.1E1,4.7E1,-5.901385E-2,3.1578946E-1,7.4325576E-3,3.5E1,3.752888E-2,3.7142858E-1,3.465132E-2,-2.4689427E-3,1.12966625E-2,-4.0989365E-2,1.2514479E-2,3.974461E-2,3.9678153E-2,-7.7242735E-3,-3.8934108E-2,-6.398528E-2,-1.634021E-2,-5.6215674E-2],"split_indices":[1,0,1,4,0,4,0,0,0,0,4,0,4,0,0,0,1,0,0,0,4,0,0,0,4,0,0,0,0,0,0,0,0,0,0,0,0],"split_type":[0,0,0,0,0,0,0,0,0,0,0,0,0,0,0,0,0,0,0,0,0,0,0,0,0,0,0,0,0,0,0,0,0,0,0,0,0],"sum_hessian":[1.5281767E2,6.3016045E1,8.980162E1,1.9985054E1,4.3030994E1,3.7244434E1,5.2557186E1,1.2359473E1,7.62558E0,1.897366E0,4.1133625E1,2.4783654E0,3.476607E1,2.2947388E1,2.96098E1,2.6317368E0,4.993843E0,4.9161096E0,3.6217518E1,2.389001E0,3.2377068E1,2.0696235E0,2.0877764E1,1.8670456E0,2.7742754E1,1.1458168E0,3.8480263E0,3.3142166E0,1.6018928E0,1.7893692E1,1.8323824E1,2.6738782E0,2.970319E1,1.3242437E1,7.635326E0,2.0619251E1,7.123503E0],"tree_param":{"num_deleted":"0","num_feature":"5","num_nodes":"37","size_leaf_vector":"1"}},{"base_weights":[-1.5774602E-2,4.7924274E-1,-1.4695117E-1,2.6671374E-1,6.331089E-2,-5.57626E-2,-1.0215648E0,5.6435895E-1,-8.830107E-1,-9.544502E-1,3.1505034E-3,-5.6620713E-2,-1.7080389E-2,7.2508216E-1,-1.5068917E-1,-5.8214612E-2,-0E0,-4.8876396E-1,-5.9046652E-2,5.9360623E-2,-8.7474513E-1,4.2829953E-2,-1.8573103E-2,-2.9518267E-2,1.7784853E-2,-4.3777913E-2,-2.544998E-3,1.4604758E-2,-8.409531E-3,-5.7434794E-2,9.585332E-3],"categories":[],"categories_nodes":[],"categories_segments":[],"categories_sizes":[],"default_left":[0,0,0,0,0,0,0,0,0,0,0,0,0,0,0,0,0,0,0,0,0,0,0,0,0,0,0,0,0,0,0],"id":23,"left_children":[1,3,5,7,-1,9,11,13,15,17,19,-1,-1,21,23,-1,-1,25,-1,27,29,-1,-1,-1,-1,-1,-1,-1,-1,-1,-1],"loss_changes":[1.0544423E1,5.336807E0,1.0167403E1,1.0098337E1,0E0,6.2220554E0,5.06567E-1,2.747746E0,1.5186577E0,1.68571E-1,5.523945E0,0E0,0E0,3.046914E0,1.3301774E0,0E0,0E0,6.3819414E-1,0E0,5.627964E0,2.1976218E0,0E0,0E0,0E0,0E0,0E0,0E0,0E0,0E0,0E0,0E0],"parents":[2147483647,0,0,1,1,2,2,3,3,5,5,6,6,7,7,8,8,9,9,10,10,13,13,14,14,17,17,19,19,20,20],"right_children":[2,4,6,8,-1,10,12,14,16,18,20,-1,-1,22,24,-1,-1,26,-1,28,30,-1,-1,-1,-1,-1,-1,-1,-1,-1,-1],"split_conditions":[2.1E1,2E1,4.473684E-1,1.5E1,6.331089E-2,2.7E1,2.0754717E-1,5.135135E-1,5.714286E-1,2.923077E-1,6.8E1,-5.6620713E-2,-1.7080389E-2,3.6363637E-1,7.777778E-1,-5.8214612E-2,-0E0,1.9736843E-1,-5.9046652E-2,1.9642857E-1,2.5E-1,4.2829953E-2,-1.8573103E-2,-2.9518267E-2,1.7784853E-2,-4.3777913E-2,-2.544998E-3,1.4604758E-2,-8.409531E-3,-5.7434794E-2,9.585332E-3],"split_indices":[0,0,4,0,0,0,3,4,4,4,0,0,0,3,4,0,0,4,0,3,3,0,0,0,0,0,0,0,0,0,0],"split_type":[0,0,0,0,0,0,0,0,0,0,0,0,0,0,0,0,0,0,0,0,0,0,0,0,0,0,0,0,0,0,0],"sum_hessian":[1.603517E2,3.3019035E1,1.2733266E2,2.706227E1,5.9567676E0,1.16283905E2,1.104875E1,2.1908375E1,5.1538935E0,6.2292233E0,1.1005469E2,8.915226E0,2.1335247E0,1.788767E1,4.020705E0,3.6599348E0,1.4939588E0,3.0860364E0,3.143187E0,1.0431909E2,5.7355947E0,1.6175552E1,1.7121181E0,2.0739124E0,1.9467928E0,1.0956903E0,1.9903462E0,5.1453674E1,5.2865417E1,4.50946E0,1.226135E0],"tree_param":{"num_deleted":"0","num_feature":"5","num_nodes":"31","size_leaf_vector":"1"}},{"base_weights":[-3.2638945E-2,1.931996E-2,-4.7878549E-1,1.3734128E-1,-3.199787E-1,1.8975808E-1,-7.06046E-1,3.361339E-1,-8.821251E-2,1.4937629E-1,-6.5837294E-1,4.4688072E-2,-2.4185041E-2,-5.99292E-2,-3.0432072E-1,9.0089864E-1,1.8149348E-1,-1.6885667E-1,5.1784422E-2,4.7140276E-1,-5.609979E-1,-9.237969E-1,-4.523643E-1,2.044669E-2,-4.9996886E-1,5.528741E-2,-0E0,1.59813E-3,3.8838122E-2,-1.1265766E-2,5.6002807E-2,3.5547864E-2,-1.9451877E-3,-3.3457275E-2,-3.2118042E-3,-5.152858E-3,-6.2329132E-2,1.1445911E-2,-3.4908604E-2,-3.3396732E-2,-3.5109539E-3],"categories":[],"categories_nodes":[],"categories_segments":[],"categories_sizes":[],"default_left":[0,0,0,0,0,0,0,0,0,0,0,0,0,0,0,0,0,0,0,0,0,0,0,0,0,0,0,0,0,0,0,0,0,0,0,0,0,0,0,0,0],"id":24,"left_children":[1,3,5,7,9,11,13,15,17,19,21,-1,-1,-1,23,25,27,29,-1,31,33,35,37,-1,39,-1,-1,-1,-1,-1,-1,-1,-1,-1,-1,-1,-1,-1,-1,-1,-1],"loss_changes":[3.518667E0,5.5026536E0,2.5442715E0,4.6008153E0,5.736957E0,2.7088716E0,2.0019426E0,4.5758805E0,4.5622225E0,3.8464146E0,7.0608807E-1,0E0,0E0,0E0,1.3191211E0,2.0978785E0,3.8804631E0,3.5997794E0,0E0,1.4194124E0,2.361505E-1,2.0070248E0,2.4580567E0,0E0,4.3108678E-1,0E0,0E0,0E0,0E0,0E0,0E0,0E0,0E0,0E0,0E0,0E0,0E0,0E0,0E0,0E0,0E0],"parents":[2147483647,0,0,1,1,2,2,3,3,4,4,5,5,6,6,7,7,8,8,9,9,10,10,14,14,15,15,16,16,17,17,19,19,20,20,21,21,22,22,24,24],"right_children":[2,4,6,8,10,12,14,16,18,20,22,-1,-1,-1,24,26,28,30,-1,32,34,36,38,-1,40,-1,-1,-1,-1,-1,-1,-1,-1,-1,-1,-1,-1,-1,-1,-1,-1],"split_conditions":[2.7450982E-1,4.054054E-1,2.8674417E0,1.9736843E-1,4.877388E0,3.125E-1,2.9411766E-1,3.0612245E-1,1.5825495E1,6E-1,1.521739E-1,4.4688072E-2,-2.4185041E-2,-5.99292E-2,3.0136988E-1,9.596131E0,3.9215687E-1,2.7118644E-1,5.1784422E-2,1.3513513E-1,6.666667E-2,1.1392405E-1,1.6176471E-1,2.044669E-2,3.478261E-1,5.528741E-2,-0E0,1.59813E-3,3.8838122E-2,-1.1265766E-2,5.6002807E-2,3.5547864E-2,-1.9451877E-3,-3.3457275E-2,-3.2118042E-3,-5.152858E-3,-6.2329132E-2,1.1445911E-2,-3.4908604E-2,-3.3396732E-2,-3.5109539E-3],"split_indices":[3,4,2,3,2,3,3,4,2,4,3,0,0,0,3,2,4,3,0,3,3,3,3,0,3,0,0,0,0,0,0,0,0,0,0,0,0,0,0,0,0],"split_type":[0,0,0,0,0,0,0,0,0,0,0,0,0,0,0,0,0,0,0,0,0,0,0,0,0,0,0,0,0,0,0,0,0,0,0,0,0,0,0,0,0],"sum_hessian":[1.5019188E2,1.3536172E2,1.4830152E1,1.0089218E2,3.4469543E1,3.7930284E0,1.1037124E1,5.3390423E1,4.750176E1,1.4662116E1,1.9807428E1,1.701786E0,2.0912423E0,4.0558887E0,6.9812346E0,1.0425362E1,4.296506E1,4.5122692E1,2.3790681E0,1.0329865E1,4.3322506E0,7.111754E0,1.2695676E1,1.2570981E0,5.724137E0,8.299997E0,2.1253643E0,3.519469E1,7.770372E0,4.4027107E1,1.0955851E0,6.775585E0,3.5542803E0,3.2562118E0,1.0760387E0,2.3885915E0,4.723162E0,3.37355E0,9.322125E0,3.7003582E0,2.0237784E0],"tree_param":{"num_deleted":"0","num_feature":"5","num_nodes":"41","size_leaf_vector":"1"}},{"base_weights":[6.7240368E-3,4.5532873E-1,-3.3812714E-1,-4.395932E-2,4.9921066E-1,-6.2405948E-2,-5.269059E-1,7.441689E-1,3.4108695E-1,8.5515815E-1,-1.5129288E-1,-7.0749515E-1,-3.8269928E-1,4.92105E-2,3.2912943E-1,4.6047983E-1,-2.0770325E-1,1.51298335E-2,5.1793385E-2,-5.677407E-2,-4.622203E-2,-8.45092E-2,-8.948037E-1,5.7185777E-2,-4.8033413E-1,-4.8643302E-2,2.9125376E-2,2.5732657E-2,-1.2151147E-2,1.9014481E-2,-2.8376225E-2,5.1592577E-2,-6.337275E-3,-3.5479452E-2,4.0495213E-2,-4.8054077E-2,-5.116315E-4,-1.6338585E-2,-4.704307E-2],"categories":[],"categories_nodes":[],"categories_segments":[],"categories_sizes":[],"default_left":[0,0,0,0,0,0,0,0,0,0,0,0,0,0,0,0,0,0,0,0,0,0,0,0,0,0,0,0,0,0,0,0,0,0,0,0,0,0,0],"id":25,"left_children":[1,3,5,-1,7,9,11,13,15,17,19,21,23,-1,25,27,29,-1,-1,-1,31,33,35,-1,37,-1,-1,-1,-1,-1,-1,-1,-1,-1,-1,-1,-1,-1,-1],"loss_changes":[2.452895E1,4.470809E0,4.6269608E0,0E0,2.3446426E0,3.1878605E0,1.0999479E0,2.2089558E0,2.903154E0,1.8647432E-2,3.5681043E0,2.5221405E0,5.268037E0,0E0,4.1527553E0,1.4802151E0,1.9787405E0,0E0,0E0,0E0,2.9682124E0,4.085909E0,9.80855E-1,0E0,1.8376074E0,0E0,0E0,0E0,0E0,0E0,0E0,0E0,0E0,0E0,0E0,0E0,0E0,0E0,0E0],"parents":[2147483647,0,0,1,1,2,2,4,4,5,5,6,6,7,7,8,8,9,9,10,10,11,11,12,12,14,14,15,15,16,16,20,20,21,21,22,22,24,24],"right_children":[2,4,6,-1,8,10,12,14,16,18,20,22,24,-1,26,28,30,-1,-1,-1,32,34,36,-1,38,-1,-1,-1,-1,-1,-1,-1,-1,-1,-1,-1,-1,-1,-1],"split_conditions":[2E0,1.764706E-1,3E0,-4.395932E-2,1E0,2.4E-1,4.7E1,4.1E1,4.473684E-1,2.0833333E-1,3.0232558E-1,2.3684211E-1,4.8E1,4.92105E-2,2.982456E-1,6.1E1,1.4E1,1.51298335E-2,5.1793385E-2,-5.677407E-2,3.0508474E-1,2.2222222E-1,4.8E-1,5.7185777E-2,3.7777779E-1,-4.8643302E-2,2.9125376E-2,2.5732657E-2,-1.2151147E-2,1.9014481E-2,-2.8376225E-2,5.1592577E-2,-6.337275E-3,-3.5479452E-2,4.0495213E-2,-4.8054077E-2,-5.116315E-4,-1.6338585E-2,-4.704307E-2],"split_indices":[1,4,1,0,1,4,0,0,4,4,4,4,0,0,4,0,0,0,0,0,4,4,4,0,4,0,0,0,0,0,0,0,0,0,0,0,0,0,0],"split_type":[0,0,0,0,0,0,0,0,0,0,0,0,0,0,0,0,0,0,0,0,0,0,0,0,0,0,0,0,0,0,0,0,0,0,0,0,0,0,0],"sum_hessian":[1.565535E2,6.791453E1,8.863898E1,1.548839E0,6.6365685E1,3.6586315E1,5.205266E1,2.4555662E1,4.1810024E1,2.4599051E0,3.412641E1,2.1345867E1,3.0706795E1,1.4673613E1,9.8820505E0,3.448642E1,7.323604E0,1.278974E0,1.1809312E0,2.3367074E0,3.1789703E1,5.28213E0,1.6063736E1,1.1957598E0,2.9511034E1,1.1408236E0,8.741226E0,3.228311E1,2.2033086E0,2.748134E0,4.5754704E0,1.3796762E0,3.0410027E1,3.2374165E0,2.0447135E0,1.4853051E1,1.210686E0,2.3429695E1,6.081339E0],"tree_param":{"num_deleted":"0","num_feature":"5","num_nodes":"39","size_leaf_vector":"1"}},{"base_weights":[2.5362205E-3,4.0131637E-1,-2.7414945E-1,7.516947E-1,1.8969414E-1,-4.425675E-2,-4.3587583E-1,8.2642704E-1,-8.0278143E-4,-3.630311E-1,4.643284E-1,1.6726778E-1,-5.9145284E-1,-6.3726264E-1,-2.6763254E-1,5.1556207E-2,6.646748E-1,-6.9809005E-2,-6.199622E-1,2.4103893E-1,5.5278953E-2,-1.3507568E-2,5.650383E-1,-7.2058153E-1,-1.07546784E-1,7.907007E-2,-7.697486E-1,-4.9082045E-2,-1.2237818E-1,1.6567024E-3,4.3459766E-2,2.4582887E-2,-1.9643115E-2,-3.902525E-2,-1.0741601E-2,2.4246171E-2,-1.4597948E-2,4.5688283E-2,-8.146259E-3,4.557925E-2,7.442012E-3,-5.063134E-2,-1.5054867E-2,1.884444E-2,-2.643755E-2,-1.8739834E-2,4.1044302E-2,-4.8540123E-2,-2.3743203E-2,4.2521838E-2,-1.3737236E-2],"categories":[],"categories_nodes":[],"categories_segments":[],"categories_sizes":[],"default_left":[0,0,0,0,0,0,0,0,0,0,0,0,0,0,0,0,0,0,0,0,0,0,0,0,0,0,0,0,0,0,0,0,0,0,0,0,0,0,0,0,0,0,0,0,0,0,0,0,0,0,0],"id":26,"left_children":[1,3,5,7,9,11,13,15,-1,17,19,21,23,25,27,-1,29,31,33,35,-1,37,39,41,43,45,47,-1,49,-1,-1,-1,-1,-1,-1,-1,-1,-1,-1,-1,-1,-1,-1,-1,-1,-1,-1,-1,-1,-1,-1],"loss_changes":[1.7073849E1,4.548497E0,3.371932E0,1.3706036E0,6.3747497E0,4.6009703E0,1.632451E0,8.245468E-3,0E0,1.013459E0,3.6948195E0,2.0835047E0,6.0577536E-1,2.3067303E0,3.0724685E0,0E0,1.8775268E0,1.5958059E0,3.0234957E-1,2.9877515E0,0E0,3.016985E0,1.1571636E0,7.287183E-1,9.1964287E-1,1.8532517E0,7.1115494E-1,0E0,4.203551E0,0E0,0E0,0E0,0E0,0E0,0E0,0E0,0E0,0E0,0E0,0E0,0E0,0E0,0E0,0E0,0E0,0E0,0E0,0E0,0E0,0E0,0E0],"parents":[2147483647,0,0,1,1,2,2,3,3,4,4,5,5,6,6,7,7,9,9,10,10,11,11,12,12,13,13,14,14,16,16,17,17,18,18,19,19,21,21,22,22,23,23,24,24,25,25,26,26,28,28],"right_children":[2,4,6,8,10,12,14,16,-1,18,20,22,24,26,28,-1,30,32,34,36,-1,38,40,42,44,46,48,-1,50,-1,-1,-1,-1,-1,-1,-1,-1,-1,-1,-1,-1,-1,-1,-1,-1,-1,-1,-1,-1,-1,-1],"split_conditions":[2E0,1E0,3E0,2.1917808E-1,1.2903225E-1,4.054054E-1,2.2857143E-1,3.1343284E-1,-8.0278143E-4,4.4444445E-1,3.8636363E-1,3.7288135E-1,1.9402985E-1,1.5853658E-1,2.2222222E-1,5.1556207E-2,3.5185185E-1,1.0204082E-1,6.875E-1,3.0232558E-1,5.5278953E-2,2.3529412E-1,3.877551E-1,4.642857E-1,4.6875E-1,1.5625E-1,4E0,-4.9082045E-2,2.3684211E-1,1.6567024E-3,4.3459766E-2,2.4582887E-2,-1.9643115E-2,-3.902525E-2,-1.0741601E-2,2.4246171E-2,-1.4597948E-2,4.5688283E-2,-8.146259E-3,4.557925E-2,7.442012E-3,-5.063134E-2,-1.5054867E-2,1.884444E-2,-2.643755E-2,-1.8739834E-2,4.1044302E-2,-4.8540123E-2,-2.3743203E-2,4.2521838E-2,-1.3737236E-2],"split_indices":[1,1,1,3,3,4,3,4,0,4,4,4,3,3,4,0,4,3,4,4,0,4,4,4,4,3,1,0,4,0,0,0,0,0,0,0,0,0,0,0,0,0,0,0,0,0,0,0,0,0,0],"split_type":[0,0,0,0,0,0,0,0,0,0,0,0,0,0,0,0,0,0,0,0,0,0,0,0,0,0,0,0,0,0,0,0,0,0,0,0,0,0,0,0,0,0,0,0,0,0,0,0,0,0,0],"sum_hessian":[1.5273442E2,6.239367E1,9.0340744E1,2.2515665E1,3.9878006E1,3.78594E1,5.248134E1,2.0460636E1,2.0550282E0,1.3118204E1,2.6759802E1,2.7792107E1,1.0067296E1,2.2591814E1,2.9889526E1,6.631702E0,1.3828935E1,6.7385135E0,6.37969E0,2.0880499E1,5.879303E0,1.975495E1,8.037159E0,7.5443516E0,2.5229442E0,3.577343E0,1.9014471E1,4.0676703E0,2.5821856E1,3.6791024E0,1.0149833E1,2.259185E0,4.4793286E0,3.8878121E0,2.491878E0,1.4400296E1,6.4802027E0,2.0222974E0,1.773265E1,3.7229533E0,4.3142056E0,3.600123E0,3.9442286E0,1.2112875E0,1.3116567E0,2.5180168E0,1.059326E0,9.922919E0,9.091552E0,2.8673742E0,2.2954481E1],"tree_param":{"num_deleted":"0","num_feature":"5","num_nodes":"51","size_leaf_vector":"1"}},{"base_weights":[-3.684457E-2,8.9749306E-1,-8.363325E-2,-5.494115E-3,5.4982074E-2,-4.5214584E-3,-6.142692E-1,9.936012E-2,-4.342254E-1,-7.796269E-1,1.1025558E-1,-4.952761E-2,9.76209E-1,-7.700996E-1,9.605702E-2,-4.3158698E-1,-4.7141988E-2,1.5502239E-3,9.307864E-3,8.412708E-3,-2.2951176E-2,5.3987782E-2,-1.4568813E-3,-3.0338798E-2,-6.2390227E-2,2.434056E-2,-3.317942E-2,-3.0126143E-2,8.989728E-3],"categories":[],"categories_nodes":[],"categories_segments":[],"categories_sizes":[],"default_left":[0,0,0,0,0,0,0,0,0,0,0,0,0,0,0,0,0,0,0,0,0,0,0,0,0,0,0,0,0],"id":27,"left_children":[1,3,5,-1,-1,7,9,11,13,15,17,19,21,23,25,27,-1,-1,-1,-1,-1,-1,-1,-1,-1,-1,-1,-1,-1],"loss_changes":[6.874619E0,1.6582947E0,6.2553368E0,0E0,0E0,5.889006E0,2.409348E0,1.3922117E1,4.655695E0,4.8133945E-1,1.8873326E-2,8.260333E0,1.6527157E0,4.6081448E-1,3.5384145E0,8.3710134E-1,0E0,0E0,0E0,0E0,0E0,0E0,0E0,0E0,0E0,0E0,0E0,0E0,0E0],"parents":[2147483647,0,0,1,1,2,2,5,5,6,6,7,7,8,8,9,9,10,10,11,11,12,12,13,13,14,14,15,15],"right_children":[2,4,6,-1,-1,8,10,12,14,16,18,20,22,24,26,28,-1,-1,-1,-1,-1,-1,-1,-1,-1,-1,-1,-1,-1],"split_conditions":[8E0,1.3461539E-1,4.509804E-1,-5.494115E-3,5.4982074E-2,6.1E1,6.875E-1,1.1996712E1,1.4663957E1,4.2715697E0,1.0318578E0,4.1E1,4.2857143E-1,1.4296685E1,6.8E1,3.5270004E0,-4.7141988E-2,1.5502239E-3,9.307864E-3,8.412708E-3,-2.2951176E-2,5.3987782E-2,-1.4568813E-3,-3.0338798E-2,-6.2390227E-2,2.434056E-2,-3.317942E-2,-3.0126143E-2,8.989728E-3],"split_indices":[0,4,4,0,0,0,4,2,2,2,2,0,4,2,0,2,0,0,0,0,0,0,0,0,0,0,0,0,0],"split_type":[0,0,0,0,0,0,0,0,0,0,0,0,0,0,0,0,0,0,0,0,0,0,0,0,0,0,0,0,0],"sum_hessian":[1.54724E2,6.501332E0,1.4822267E2,1.1545862E0,5.3467455E0,1.2988557E2,1.8337097E1,1.0519904E2,2.468653E1,1.487902E1,3.4580772E0,9.0726006E1,1.447304E1,1.4848372E1,9.838157E0,5.9329686E0,8.946052E0,2.4452033E0,1.0128739E0,5.9595886E1,3.1130117E1,1.3063486E1,1.4095532E0,1.2772632E1,2.0757403E0,6.7423053E0,3.0958517E0,4.660725E0,1.2722437E0],"tree_param":{"num_deleted":"0","num_feature":"5","num_nodes":"29","size_leaf_vector":"1"}},{"base_weights":[-2.0102099E-2,4.1662747E-1,-3.3787656E-1,7.005264E-1,2.4991019E-1,-5.352143E-1,2.676303E-1,4.7833126E-2,3.4831455E-1,3.368544E-1,-2.5623938E-1,1.2779482E-1,-6.3499755E-1,4.0455076E-1,-4.5146625E-2,-4.6502266E-2,6.493484E-1,7.353178E-1,1.7493895E-1,1.11853234E-1,-3.6435608E-2,-4.7819793E-1,7.1163476E-1,-5.2361935E-2,-5.398764E-1,-2.6807567E-2,5.3386027E-1,3.7499025E-2,3.4121014E-3,-2.3855094E-2,4.6966124E-2,-3.6686532E-2,1.3342382E-2,3.0093133E-2,-1.38402525E-2,-3.5131276E-2,4.590701E-3,4.942212E-2,1.9366538E-2,2.138826E-2,-2.9668117E-2,3.262588E-2,8.802308E-3],"categories":[],"categories_nodes":[],"categories_segments":[],"categories_sizes":[],"default_left":[0,0,0,0,0,0,0,0,0,0,0,0,0,0,0,0,0,0,0,0,0,0,0,0,0,0,0,0,0,0,0,0,0,0,0,0,0,0,0,0,0,0,0],"id":28,"left_children":[1,3,5,7,9,11,13,-1,15,17,19,21,23,25,-1,-1,27,29,31,33,-1,35,37,-1,39,-1,41,-1,-1,-1,-1,-1,-1,-1,-1,-1,-1,-1,-1,-1,-1,-1,-1],"loss_changes":[2.0986984E1,2.8304224E0,1.0602924E1,1.7278318E0,1.9226251E0,4.4756947E0,3.9127736E0,0E0,4.937747E0,2.1877317E0,1.2468977E0,3.7032988E0,1.6872311E0,2.7849848E0,0E0,0E0,5.0882673E-1,2.947074E0,2.4426427E0,1.046213E0,0E0,7.4231064E-1,7.4507E-2,0E0,2.7960548E0,0E0,6.6527414E-1,0E0,0E0,0E0,0E0,0E0,0E0,0E0,0E0,0E0,0E0,0E0,0E0,0E0,0E0,0E0,0E0],"parents":[2147483647,0,0,1,1,2,2,3,3,4,4,5,5,6,6,8,8,9,9,10,10,11,11,12,12,13,13,16,16,17,17,18,18,19,19,21,21,22,22,24,24,26,26],"right_children":[2,4,6,8,10,12,14,-1,16,18,20,22,24,26,-1,-1,28,30,32,34,-1,36,38,-1,40,-1,42,-1,-1,-1,-1,-1,-1,-1,-1,-1,-1,-1,-1,-1,-1,-1,-1],"split_conditions":[2E0,1E0,1.2784508E1,8.324785E0,4.6666667E-1,2.4E-1,4E-1,4.7833126E-2,2.982456E-1,5.9854894E0,1.8642814E0,2.1621622E-1,3.0232558E-1,2.5925925E-1,-4.5146625E-2,-4.6502266E-2,1.4184815E1,1.764706E-1,6.475799E0,6.25E-1,-3.6435608E-2,7.854371E0,3E0,-5.2361935E-2,3.0508474E-1,-2.6807567E-2,3.6666667E-1,3.7499025E-2,3.4121014E-3,-2.3855094E-2,4.6966124E-2,-3.6686532E-2,1.3342382E-2,3.0093133E-2,-1.38402525E-2,-3.5131276E-2,4.590701E-3,4.942212E-2,1.9366538E-2,2.138826E-2,-2.9668117E-2,3.262588E-2,8.802308E-3],"split_indices":[1,1,2,2,4,4,4,0,4,2,2,4,4,4,0,0,2,4,2,4,0,2,1,0,4,0,4,0,0,0,0,0,0,0,0,0,0,0,0,0,0,0,0],"split_type":[0,0,0,0,0,0,0,0,0,0,0,0,0,0,0,0,0,0,0,0,0,0,0,0,0,0,0,0,0,0,0,0,0,0,0,0,0,0,0,0,0,0,0],"sum_hessian":[1.4921457E2,6.2700428E1,8.6514145E1,2.1990856E1,4.070957E1,6.534914E1,2.1165012E1,1.1721891E1,1.0268965E1,3.5044083E1,5.6654897E0,8.498688E0,5.6850445E1,1.9542114E1,1.6228973E0,1.5526806E0,8.716284E0,9.084526E0,2.5959557E1,3.6016343E0,2.0638552E0,4.2506104E0,4.2480774E0,8.762101E0,4.8088345E1,1.9720712E0,1.7570044E1,7.167284E0,1.5489995E0,1.1085579E0,7.975968E0,1.7330842E0,2.422647E1,1.3618352E0,2.239799E0,2.8954818E0,1.3551286E0,1.1703819E0,3.0776956E0,2.1425056E0,4.594584E1,1.2555016E1,5.0150275E0],"tree_param":{"num_deleted":"0","num_feature":"5","num_nodes":"43","size_leaf_vector":"1"}},{"base_weights":[4.5554124E-2,9.300791E-1,-1.0316594E-1,5.9496153E-2,4.4419485E-1,9.89964E-2,-3.9663413E-1,-4.593803E-2,3.755061E-2,1.920574E-1,-5.877792E-1,-6.9333655E-1,-1.8088531E-1,1.03522964E-1,5.639113E-2,-1.2734648E-3,-8.94832E-1,-3.296193E-2,-9.288325E-1,6.242612E-2,-3.3681977E-1,2.077266E-2,-3.1650835E-3,-2.8264169E-2,3.0463023E-2,-6.881588E-2,-1.8087149E-2,-2.9722774E-2,5.7404608E-2,-5.270776E-2,-2.1726448E-2,-5.299985E-3,-5.0989907E-2],"categories":[],"categories_nodes":[],"categories_segments":[],"categories_sizes":[],"default_left":[0,0,0,0,0,0,0,0,0,0,0,0,0,0,0,0,0,0,0,0,0,0,0,0,0,0,0,0,0,0,0,0,0],"id":29,"left_children":[1,3,5,-1,7,9,11,-1,-1,13,15,17,19,21,-1,23,25,27,29,-1,31,-1,-1,-1,-1,-1,-1,-1,-1,-1,-1,-1,-1],"loss_changes":[2.025589E1,2.25276E0,7.8754277E0,0E0,4.590012E0,5.15525E0,3.3272982E0,0E0,0E0,5.695234E0,1.7287846E0,3.4422894E0,7.695731E0,3.429748E0,0E0,1.8351988E0,1.1082468E0,5.2755795E0,5.4664326E-1,0E0,4.6509914E0,0E0,0E0,0E0,0E0,0E0,0E0,0E0,0E0,0E0,0E0,0E0,0E0],"parents":[2147483647,0,0,1,1,2,2,4,4,5,5,6,6,9,9,10,10,11,11,12,12,13,13,15,15,16,16,17,17,18,18,20,20],"right_children":[2,4,6,-1,8,10,12,-1,-1,14,16,18,20,22,-1,24,26,28,30,-1,32,-1,-1,-1,-1,-1,-1,-1,-1,-1,-1,-1,-1],"split_conditions":[1E0,4.1E1,3E0,5.9496153E-2,2.982456E-1,6.1E1,4.7E1,-4.593803E-2,3.755061E-2,6E1,3.2876712E-1,2.3684211E-1,4.8E1,3.181818E-1,5.639113E-2,2.875E-1,2E0,2.3076923E-1,4.0625E-1,6.242612E-2,3.7142858E-1,2.077266E-2,-3.1650835E-3,-2.8264169E-2,3.0463023E-2,-6.881588E-2,-1.8087149E-2,-2.9722774E-2,5.7404608E-2,-5.270776E-2,-2.1726448E-2,-5.299985E-3,-5.0989907E-2],"split_indices":[1,0,1,0,4,0,0,0,0,0,4,4,0,4,0,4,1,4,4,0,4,0,0,0,0,0,0,0,0,0,0,0,0],"split_type":[0,0,0,0,0,0,0,0,0,0,0,0,0,0,0,0,0,0,0,0,0,0,0,0,0,0,0,0,0,0,0,0,0],"sum_hessian":[1.5219034E2,2.1158966E1,1.3103137E2,1.2828763E1,8.330203E0,7.795728E1,5.307408E1,1.1581861E0,7.172017E0,6.9301544E1,8.655742E0,2.1393417E1,3.1680664E1,6.433592E1,4.965622E0,3.3306112E0,5.325131E0,5.9344745E0,1.5458944E1,2.420625E0,2.926004E1,2.1919752E1,4.241617E1,1.7783087E0,1.5523024E0,1.9570178E0,3.3681133E0,4.364606E0,1.5698683E0,1.1412619E1,4.0463257E0,2.2743475E1,6.5165644E0],"tree_param":{"num_deleted":"0","num_feature":"5","num_nodes":"33","size_leaf_vector":"1"}},{"base_weights":[1.56958E-2,4.1829082E-1,-2.6743937E-1,7.6330316E-1,2.330636E-1,-7.3910676E-2,-4.0466103E-1,5.639979E-1,4.564377E-2,-9.074513E-2,6.2934834E-1,-7.7074087E-1,4.0691383E-2,-5.8489347E-1,-2.416139E-1,7.886047E-1,-1.1280446E-2,2.517413E-1,-2.063533E-1,-2.2960812E-2,7.232262E-1,4.1537546E-4,-4.757925E-2,1.5834935E-1,-5.072315E-1,-3.9460397E-1,-5.817638E-2,3.0636324E-2,-3.380036E-1,4.655185E-2,1.7364066E-2,-5.129286E-3,2.9128993E-2,-4.183295E-2,-1.9273757E-3,1.7197933E-2,4.1551095E-2,2.3898067E-2,-3.4131308E-3,-4.678428E-2,-4.9445177E-3,-3.0752858E-2,-4.344203E-3,-2.3966754E-2,3.8380274E-3],"categories":[],"categories_nodes":[],"categories_segments":[],"categories_sizes":[],"default_left":[0,0,0,0,0,0,0,0,0,0,0,0,0,0,0,0,0,0,0,0,0,0,0,0,0,0,0,0,0,0,0,0,0,0,0,0,0,0,0,0,0,0,0,0,0],"id":30,"left_children":[1,3,5,7,9,11,13,15,-1,17,19,21,23,25,27,29,-1,31,33,-1,35,-1,-1,37,39,41,-1,-1,43,-1,-1,-1,-1,-1,-1,-1,-1,-1,-1,-1,-1,-1,-1,-1,-1],"loss_changes":[1.7132797E1,3.777689E0,2.3090253E0,1.0290527E-1,5.4307446E0,3.0627944E0,1.3604612E0,2.266028E0,0E0,9.9711233E-1,2.2714987E0,7.796519E-1,2.2337804E0,2.1319532E0,2.568791E0,2.5312567E-1,0E0,8.2135236E-1,1.9079881E0,0E0,4.31942E-1,0E0,0E0,2.0879202E0,9.7089756E-1,1.2516115E0,0E0,0E0,1.59166E0,0E0,0E0,0E0,0E0,0E0,0E0,0E0,0E0,0E0,0E0,0E0,0E0,0E0,0E0,0E0,0E0],"parents":[2147483647,0,0,1,1,2,2,3,3,4,4,5,5,6,6,7,7,9,9,10,10,11,11,12,12,13,13,14,14,15,15,17,17,18,18,20,20,23,23,24,24,25,25,28,28],"right_children":[2,4,6,8,10,12,14,16,-1,18,20,22,24,26,28,30,-1,32,34,-1,36,-1,-1,38,40,42,-1,-1,44,-1,-1,-1,-1,-1,-1,-1,-1,-1,-1,-1,-1,-1,-1,-1,-1],"split_conditions":[2E0,1E0,3E0,3.3846155E-1,1.7460318E-1,1.3333334E-1,2.2857143E-1,3.1343284E-1,4.564377E-2,3.617021E-1,1.7391305E-1,9.210526E-2,4.25E-1,2.112676E-1,2.3188406E-1,2.0289855E-1,-1.1280446E-2,3.3333334E-1,3.968254E-1,-2.2960812E-2,2.638889E-1,4.1537546E-4,-4.757925E-2,1.884058E-1,4.5714286E-1,1.8965517E-1,-5.817638E-2,3.0636324E-2,5E0,4.655185E-2,1.7364066E-2,-5.129286E-3,2.9128993E-2,-4.183295E-2,-1.9273757E-3,1.7197933E-2,4.1551095E-2,2.3898067E-2,-3.4131308E-3,-4.678428E-2,-4.9445177E-3,-3.0752858E-2,-4.344203E-3,-2.3966754E-2,3.8380274E-3],"split_indices":[1,1,1,4,3,3,3,4,0,4,4,3,4,3,3,3,0,4,4,0,4,0,0,3,4,3,0,0,1,0,0,0,0,0,0,0,0,0,0,0,0,0,0,0,0],"split_type":[0,0,0,0,0,0,0,0,0,0,0,0,0,0,0,0,0,0,0,0,0,0,0,0,0,0,0,0,0,0,0,0,0,0,0,0,0,0,0,0,0,0,0,0,0],"sum_hessian":[1.4830783E2,6.105318E1,8.725466E1,2.0218475E1,4.08347E1,3.6868782E1,5.0385876E1,1.0742147E1,9.476328E0,2.2882736E1,1.7951967E1,4.4108424E0,3.245794E1,2.2673727E1,2.771215E1,8.37405E0,2.3680973E0,5.4558563E0,1.742688E1,1.1078372E0,1.684413E1,1.0003326E0,3.4105096E0,2.732053E1,5.1374106E0,1.8341263E1,4.3324637E0,2.255981E0,2.545617E1,5.4748087E0,2.8992417E0,2.9529514E0,2.5029051E0,2.8134897E0,1.461339E1,4.6759415E0,1.2168188E1,1.0892619E1,1.642791E1,1.8648185E0,3.2725918E0,1.0085016E1,8.256247E0,1.8888361E1,6.5678077E0],"tree_param":{"num_deleted":"0","num_feature":"5","num_nodes":"45","size_leaf_vector":"1"}},{"base_weights":[2.702332E-3,3.9086863E-1,-2.4864057E-1,6.5912984E-2,5.6819516E-1,-4.6905413E-1,-1.1132628E-2,6.750498E-1,-3.31556E-1,7.329894E-1,3.0603132E-1,-2.9546982E-1,-6.1179716E-2,6.606996E-2,-1.9899678E-1,4.1869257E-2,3.175584E-1,1.2847921E-1,-6.9602877E-1,8.109612E-1,4.8139936E-1,-4.6437132E-1,6.482133E-1,-4.11316E-1,5.3857513E-2,-5.4091692E-2,-1.6813299E-2,1.7162511E-3,3.164231E-2,-1.558273E-2,3.6818434E-2,-3.960174E-2,-1.9896526E-3,2.0617185E-2,4.4246107E-2,3.972937E-2,-1.6498657E-2,1.2836165E-2,-3.5313733E-2,4.2901803E-2,-0E0,-1.4019648E-2,-5.264501E-2,6.2029487E-3,-3.2865148E-2],"categories":[],"categories_nodes":[],"categories_segments":[],"categories_sizes":[],"default_left":[0,0,0,0,0,0,0,0,0,0,0,0,0,0,0,0,0,0,0,0,0,0,0,0,0,0,0,0,0,0,0,0,0,0,0,0,0,0,0,0,0,0,0,0,0],"id":31,"left_children":[1,3,5,7,9,11,13,15,17,19,21,23,-1,-1,25,-1,27,29,31,33,35,37,39,41,-1,-1,43,-1,-1,-1,-1,-1,-1,-1,-1,-1,-1,-1,-1,-1,-1,-1,-1,-1,-1],"loss_changes":[1.4579688E1,3.3410206E0,4.7374835E0,5.526849E0,1.4005919E0,5.777914E0,1.1441044E1,2.438116E-1,2.4268155E0,3.8092613E-2,4.612957E0,6.7223444E0,0E0,0E0,6.4124207E0,0E0,3.676709E-1,2.101102E0,4.5959377E-1,8.461666E-2,2.2526703E0,1.1630193E0,1.5929022E0,2.8148975E0,0E0,0E0,3.1748402E0,0E0,0E0,0E0,0E0,0E0,0E0,0E0,0E0,0E0,0E0,0E0,0E0,0E0,0E0,0E0,0E0,0E0,0E0],"parents":[2147483647,0,0,1,1,2,2,3,3,4,4,5,5,6,6,7,7,8,8,9,9,10,10,11,11,14,14,16,16,17,17,18,18,19,19,20,20,21,21,22,22,23,23,26,26],"right_children":[2,4,6,8,10,12,14,16,18,20,22,24,-1,-1,26,-1,28,30,32,34,36,38,40,42,-1,-1,44,-1,-1,-1,-1,-1,-1,-1,-1,-1,-1,-1,-1,-1,-1,-1,-1,-1,-1],"split_conditions":[2E0,1.4814815E-1,4.7E1,1E0,4.1E1,4.1E1,4.8E1,1.1940298E-1,2.1E1,2.264151E-1,5.4E1,4E1,-6.1179716E-2,6.606996E-2,5.4E1,4.1869257E-2,1.2658228E-1,1.5E1,1.4516129E-1,1.641791E-1,2.2E1,1.7021276E-1,6.1E1,3.5E1,5.3857513E-2,-5.4091692E-2,6.8E1,1.7162511E-3,3.164231E-2,-1.558273E-2,3.6818434E-2,-3.960174E-2,-1.9896526E-3,2.0617185E-2,4.4246107E-2,3.972937E-2,-1.6498657E-2,1.2836165E-2,-3.5313733E-2,4.2901803E-2,-0E0,-1.4019648E-2,-5.264501E-2,6.2029487E-3,-3.2865148E-2],"split_indices":[1,3,0,1,0,0,0,3,0,3,0,0,0,0,0,0,3,0,3,3,0,3,0,0,0,0,0,0,0,0,0,0,0,0,0,0,0,0,0,0,0,0,0,0,0],"split_type":[0,0,0,0,0,0,0,0,0,0,0,0,0,0,0,0,0,0,0,0,0,0,0,0,0,0,0,0,0,0,0,0,0,0,0,0,0,0,0,0,0,0,0,0,0],"sum_hessian":[1.4742824E2,5.77404E1,8.968784E1,2.088894E1,3.6851456E1,4.5990475E1,4.369737E1,7.982395E0,1.2906546E1,2.1501629E1,1.5349829E1,3.8531113E1,7.4593616E0,4.647233E0,3.9050137E1,4.547177E0,3.4352183E0,5.9794183E0,6.927128E0,1.4686846E1,6.814782E0,4.6021175E0,1.074771E1,3.6184822E1,2.3462934E0,5.8258405E0,3.3224297E1,2.410433E0,1.0247854E0,3.7413867E0,2.2380316E0,5.8492227E0,1.0779048E0,3.3487735E0,1.1338073E1,4.940696E0,1.8740864E0,1.1302699E0,3.4718478E0,7.868285E0,2.8794258E0,3.1258718E1,4.9261026E0,2.7882402E1,5.3418927E0],"tree_param":{"num_deleted":"0","num_feature":"5","num_nodes":"45","size_leaf_vector":"1"}},{"base_weights":[-4.6949867E-2,6.2932754E-1,-1.6700807E-1,7.008469E-1,-4.8891217E-3,-3.1682264E-2,-3.721079E-1,4.9268603E-1,9.107047E-1,-3.689545E-1,1.18674085E-1,-4.5684617E-2,-3.0815718E-1,2.8745916E-1,4.7345385E-2,5.2058775E-2,2.2549178E-2,-4.9472436E-2,-1.4347218E-1,-3.9510958E-2,1.5399356E-1,5.431893E-2,-4.0317205E-1,2.0233653E-2,-6.7716017E-3,4.9516942E-2,-1.4949582E-2,4.2240646E-2,2.465334E-3,-4.588512E-2,-1.3810533E-2],"categories":[],"categories_nodes":[],"categories_segments":[],"categories_sizes":[],"default_left":[0,0,0,0,0,0,0,0,0,0,0,0,0,0,0,0,0,0,0,0,0,0,0,0,0,0,0,0,0,0,0],"id":32,"left_children":[1,3,5,7,-1,9,11,13,15,17,19,-1,21,23,-1,-1,-1,-1,25,-1,27,-1,29,-1,-1,-1,-1,-1,-1,-1,-1],"loss_changes":[1.1951804E1,1.2291918E0,3.4469807E0,4.262476E-1,0E0,3.9149892E0,1.4196997E0,8.7312484E-1,5.1216602E-2,3.1747663E0,1.8328321E0,0E0,6.496225E0,5.534355E-1,0E0,0E0,0E0,0E0,3.5739224E0,0E0,3.7352195E0,0E0,2.5821023E0,0E0,0E0,0E0,0E0,0E0,0E0,0E0,0E0],"parents":[2147483647,0,0,1,1,2,2,3,3,5,5,6,6,7,7,8,8,9,9,10,10,12,12,13,13,18,18,20,20,22,22],"right_children":[2,4,6,8,-1,10,12,14,16,18,20,-1,22,24,-1,-1,-1,-1,26,-1,28,-1,30,-1,-1,-1,-1,-1,-1,-1,-1],"split_conditions":[1E0,2.1917808E-1,3E0,3.611111E-1,-4.8891217E-3,1.4814815E-1,2.2222222E-1,1.9178082E-1,1.3513513E-1,3.9726028E-1,1.764706E-1,-4.5684617E-2,2.3684211E-1,1.7460318E-1,4.7345385E-2,5.2058775E-2,2.2549178E-2,-4.9472436E-2,4.054054E-1,-3.9510958E-2,2.3076923E-1,5.431893E-2,2.9166666E-1,2.0233653E-2,-6.7716017E-3,4.9516942E-2,-1.4949582E-2,4.2240646E-2,2.465334E-3,-4.588512E-2,-1.3810533E-2],"split_indices":[1,3,1,4,0,3,4,3,3,4,4,0,4,3,0,0,0,0,4,0,4,0,4,0,0,0,0,0,0,0,0],"split_type":[0,0,0,0,0,0,0,0,0,0,0,0,0,0,0,0,0,0,0,0,0,0,0,0,0,0,0,0,0,0,0],"sum_hessian":[1.4496547E2,2.1203402E1,1.2376206E2,1.9349989E1,1.8534138E0,7.5289154E1,4.8472908E1,1.1418842E1,7.931146E0,2.2787024E1,5.2502132E1,3.6994312E0,4.4773476E1,9.005049E0,2.4137936E0,5.175708E0,2.755438E0,5.15866E0,1.7628365E1,1.1538166E0,5.1348316E1,2.183734E0,4.2589745E1,7.103014E0,1.902035E0,1.4711001E0,1.6157263E1,5.814372E0,4.5533943E1,7.1809354E0,3.5408806E1],"tree_param":{"num_deleted":"0","num_feature":"5","num_nodes":"31","size_leaf_vector":"1"}},{"base_weights":[-7.84405E-3,3.1893677E-1,-2.4521124E-1,6.234784E-1,1.5583755E-1,-5.593322E-1,-6.481522E-2,7.7503324E-1,2.3296879E-1,-2.090738E-1,3.860758E-1,-3.8352823E-1,-4.699877E-2,5.82232E-2,-1.4912748E-1,8.5214067E-1,4.2277537E-3,-1.0086502E-2,4.8394096E-1,2.0711983E-2,-3.5197493E-1,7.178122E-1,3.8705714E-2,-4.8091716E-1,3.7436288E-2,-7.958152E-1,3.475918E-2,6.881253E-3,4.5170065E-2,3.536583E-2,-6.730703E-3,-5.4455664E-2,-3.7258992E-3,2.3452556E-2,5.6863677E-2,-2.4701938E-2,2.2012064E-2,-4.8946183E-2,-1.6855748E-2,-5.7393473E-2,-1.3818668E-2,-3.62246E-2,6.9974335E-3],"categories":[],"categories_nodes":[],"categories_segments":[],"categories_sizes":[],"default_left":[0,0,0,0,0,0,0,0,0,0,0,0,0,0,0,0,0,0,0,0,0,0,0,0,0,0,0,0,0,0,0,0,0,0,0,0,0,0,0,0,0,0,0],"id":33,"left_children":[1,3,5,7,9,11,13,15,17,19,21,23,-1,-1,25,27,-1,-1,29,-1,31,33,35,37,-1,39,41,-1,-1,-1,-1,-1,-1,-1,-1,-1,-1,-1,-1,-1,-1,-1,-1],"loss_changes":[1.1273623E1,2.932355E0,4.72837E0,1.0505838E0,3.5420198E0,1.6713877E0,5.825636E0,6.991205E-1,8.981519E-1,1.6203451E0,2.91644E0,2.8509212E0,0E0,0E0,6.221182E0,3.4377098E-1,0E0,0E0,7.8410125E-1,0E0,2.77594E0,8.1020355E-1,3.122906E0,1.1921816E0,0E0,1.784462E0,3.405797E0,0E0,0E0,0E0,0E0,0E0,0E0,0E0,0E0,0E0,0E0,0E0,0E0,0E0,0E0,0E0,0E0],"parents":[2147483647,0,0,1,1,2,2,3,3,4,4,5,5,6,6,7,7,8,8,9,9,10,10,11,11,14,14,15,15,18,18,20,20,21,21,22,22,23,23,25,25,26,26],"right_children":[2,4,6,8,10,12,14,16,18,20,22,24,-1,-1,26,28,-1,-1,30,-1,32,34,36,38,-1,40,42,-1,-1,-1,-1,-1,-1,-1,-1,-1,-1,-1,-1,-1,-1,-1,-1],"split_conditions":[2E0,1E0,7.5209866E0,9.786022E0,1.4814815E-1,5.7178855E0,7.7675285E0,2.1917808E-1,1.1362236E1,1.4883717E0,7.900629E0,5.66589E0,-4.699877E-2,5.82232E-2,1.7948718E-1,1.0318578E0,4.2277537E-3,-1.0086502E-2,1.7391305E-1,2.0711983E-2,3.5270004E0,6.3328404E0,1.058389E1,1.9673015E0,3.7436288E-2,3E0,8.788001E0,6.881253E-3,4.5170065E-2,3.536583E-2,-6.730703E-3,-5.4455664E-2,-3.7258992E-3,2.3452556E-2,5.6863677E-2,-2.4701938E-2,2.2012064E-2,-4.8946183E-2,-1.6855748E-2,-5.7393473E-2,-1.3818668E-2,-3.62246E-2,6.9974335E-3],"split_indices":[1,1,2,2,3,2,2,3,2,2,2,2,0,0,3,2,0,0,3,0,2,2,2,2,0,1,2,0,0,0,0,0,0,0,0,0,0,0,0,0,0,0,0],"split_type":[0,0,0,0,0,0,0,0,0,0,0,0,0,0,0,0,0,0,0,0,0,0,0,0,0,0,0,0,0,0,0,0,0,0,0,0,0,0,0,0,0,0,0],"sum_hessian":[1.4334164E2,6.0149166E1,8.319247E1,1.9972383E1,4.0176785E1,2.9561483E1,5.3630985E1,1.3660523E1,6.3118606E0,1.556146E1,2.4615324E1,2.1613102E1,7.9483814E0,2.6123781E0,5.101861E1,1.2064623E1,1.5959011E0,2.3675253E0,3.9443352E0,2.5350754E0,1.3026384E1,1.2030787E1,1.2584537E1,2.0439152E1,1.1739504E0,1.0570651E1,4.0447956E1,1.0673164E0,1.0997306E1,2.8043008E0,1.1400343E0,2.752432E0,1.02739525E1,8.896683E0,3.1341043E0,5.2988777E0,7.285659E0,3.2627687E0,1.7176384E1,5.5679092E0,5.002742E0,4.193923E0,3.6254032E1],"tree_param":{"num_deleted":"0","num_feature":"5","num_nodes":"43","size_leaf_vector":"1"}},{"base_weights":[1.3615876E-2,-3.3178724E-2,7.615677E-1,-1.5403066E-2,-4.851116E-2,2.1022555E-1,9.9394506E-1,-1.0912371E-1,2.4530917E-1,3.964758E-2,-1.9725181E-2,9.981614E-3,6.332659E-2,4.7880444E-3,-4.460043E-1,4.2953083E-1,-4.4387797E-1,-3.948469E-3,2.9497912E-2,-6.600427E-2,-1.2391382E-2,-4.207586E-2,2.5529925E-2,-4.556896E-2,-8.24272E-3],"categories":[],"categories_nodes":[],"categories_segments":[],"categories_sizes":[],"default_left":[0,0,0,0,0,0,0,0,0,0,0,0,0,0,0,0,0,0,0,0,0,0,0,0,0],"id":34,"left_children":[1,3,5,7,-1,9,11,13,15,-1,-1,-1,-1,17,19,21,23,-1,-1,-1,-1,-1,-1,-1,-1],"loss_changes":[5.0291924E0,2.2288456E0,8.6290455E-1,3.2948976E0,0E0,1.6521796E0,9.6029377E-1,3.8112626E0,4.718258E0,0E0,0E0,0E0,0E0,3.7305741E0,4.0026903E0,3.3794827E0,8.8283443E-1,0E0,0E0,0E0,0E0,0E0,0E0,0E0,0E0],"parents":[2147483647,0,0,1,1,2,2,3,3,5,5,6,6,7,7,8,8,13,13,14,14,15,15,16,16],"right_children":[2,4,6,8,-1,10,12,14,16,-1,-1,-1,-1,18,20,22,24,-1,-1,-1,-1,-1,-1,-1,-1],"split_conditions":[1.5357548E1,1.5007459E1,1.6666667E-1,1.1362236E1,-4.851116E-2,1.15384616E-1,3.125E-1,9.102529E0,3.8709676E-1,3.964758E-2,-1.9725181E-2,9.981614E-3,6.332659E-2,8.638061E0,1.5517241E-1,2.2222222E-1,3.9726028E-1,-3.948469E-3,2.9497912E-2,-6.600427E-2,-1.2391382E-2,-4.207586E-2,2.5529925E-2,-4.556896E-2,-8.24272E-3],"split_indices":[2,2,3,2,0,3,4,2,4,0,0,0,0,2,3,4,4,0,0,0,0,0,0,0,0],"split_type":[0,0,0,0,0,0,0,0,0,0,0,0,0,0,0,0,0,0,0,0,0,0,0,0,0],"sum_hessian":[1.4176073E2,1.3430066E2,7.4600687E0,1.328084E2,1.4922549E0,2.7894592E0,4.6706095E0,9.8146545E1,3.466185E1,1.2704859E0,1.5189735E0,1.6452961E0,3.0253134E0,7.406017E1,2.4086372E1,2.7659624E1,7.0022283E0,6.552878E1,8.5314E0,3.3960576E0,2.0690315E1,1.0885546E0,2.6571068E1,1.7567145E0,5.2455134E0],"tree_param":{"num_deleted":"0","num_feature":"5","num_nodes":"25","size_leaf_vector":"1"}},{"base_weights":[-2.1565268E-2,3.5017034E-1,-1.1908588E-1,9.369018E-2,6.102551E-2,-5.1769067E-2,-3.9082605E-2,3.7948614E-1,-4.1052796E-2,1.4584725E-1,-2.1807839E-1,7.712566E-1,1.78713E-1,2.3852684E-1,-4.3909933E-2,-4.829019E-1,-4.82771E-2,-7.5545893E-3,5.0647985E-2,-1.1126988E-2,2.5256952E-2,1.5869938E-2,-5.0190564E-2,9.524035E-3,-3.7796523E-2,4.2029213E-2,-1.1962484E-2],"categories":[],"categories_nodes":[],"categories_segments":[],"categories_sizes":[],"default_left":[0,0,0,0,0,0,0,0,0,0,0,0,0,0,0,0,0,0,0,0,0,0,0,0,0,0,0],"id":35,"left_children":[1,3,5,7,-1,-1,9,11,-1,13,15,17,19,21,-1,23,25,-1,-1,-1,-1,-1,-1,-1,-1,-1,-1],"loss_changes":[5.4289556E0,6.821273E0,8.638629E0,6.8783846E0,0E0,0E0,3.6760726E0,1.4135492E0,0E0,5.395505E0,2.5057957E0,1.5896461E0,2.0064235E0,5.3055677E0,0E0,4.173337E0,6.2170625E0,0E0,0E0,0E0,0E0,0E0,0E0,0E0,0E0,0E0,0E0],"parents":[2147483647,0,0,1,1,2,2,3,3,6,6,7,7,9,9,10,10,11,11,12,12,13,13,15,15,16,16],"right_children":[2,4,6,8,-1,-1,10,12,-1,14,16,18,20,22,-1,24,26,-1,-1,-1,-1,-1,-1,-1,-1,-1,-1],"split_conditions":[2.1E1,2E1,2.7E1,1.5E1,6.102551E-2,-5.1769067E-2,1.9565217E-1,8E0,-4.1052796E-2,4.509804E-1,4.7E1,2.0833333E-1,1.4E1,6.8E1,-4.3909933E-2,2.3684211E-1,4.8E1,-7.5545893E-3,5.0647985E-2,-1.1126988E-2,2.5256952E-2,1.5869938E-2,-5.0190564E-2,9.524035E-3,-3.7796523E-2,4.2029213E-2,-1.1962484E-2],"split_indices":[0,0,0,0,0,0,3,0,0,4,0,4,0,0,0,4,0,0,0,0,0,0,0,0,0,0,0],"split_type":[0,0,0,0,0,0,0,0,0,0,0,0,0,0,0,0,0,0,0,0,0,0,0,0,0,0,0],"sum_hessian":[1.4766997E2,3.0128988E1,1.1754097E2,2.413561E1,5.993377E0,8.469633E0,1.0907134E2,1.8844168E1,5.2914433E0,5.3710033E1,5.5361305E1,5.4053726E0,1.3438795E1,4.9964886E1,3.74515E0,2.0885416E1,3.4475887E1,1.1916193E0,4.213753E0,6.1574683E0,7.281327E0,4.7689785E1,2.2751017E0,6.101854E0,1.4783563E1,5.4863415E0,2.8989548E1],"tree_param":{"num_deleted":"0","num_feature":"5","num_nodes":"27","size_leaf_vector":"1"}},{"base_weights":[-3.7161812E-2,1.5159692E-1,-3.872051E-1,5.189363E-1,2.9050421E-3,-7.8829306E-1,-2.3535156E-1,8.1059486E-1,-8.245054E-2,-8.814999E-1,8.4849045E-2,-3.769376E-1,-4.8217807E-2,6.523124E-2,-3.571992E-1,-4.518451E-4,8.7485427E-1,3.764551E-2,-3.1104484E-1,3.5034828E-3,-1.1057144E0,3.4397164E-1,-1.1057154E-1,-3.1515818E-2,1.0327729E-2,-1.0197759E0,-1.881305E-1,3.3150982E-2,5.764698E-2,-2.2678118E-2,-9.3727285E-5,-6.3027315E-2,-1.759293E-2,2.8812094E-3,5.188642E-2,-7.307939E-2,5.379045E-3,-5.5136472E-2,-1.5690131E-2,1.8240908E-2,-2.3388626E-2],"categories":[],"categories_nodes":[],"categories_segments":[],"categories_sizes":[],"default_left":[0,0,0,0,0,0,0,0,0,0,0,0,0,0,0,0,0,0,0,0,0,0,0,0,0,0,0,0,0,0,0,0,0,0,0,0,0,0,0,0,0],"id":36,"left_children":[1,3,5,7,9,11,13,15,17,19,21,23,-1,-1,25,-1,27,-1,29,-1,31,33,35,-1,-1,37,39,-1,-1,-1,-1,-1,-1,-1,-1,-1,-1,-1,-1,-1,-1],"loss_changes":[9.486459E0,5.0934696E0,2.8662868E0,4.7889676E0,4.9582815E0,5.909004E-1,7.570324E0,9.7541714E-1,2.07737E0,1.3254757E0,3.2150521E0,9.718144E-1,0E0,0E0,3.8201704E0,0E0,2.1315765E-1,0E0,3.609131E-1,0E0,9.625435E-2,5.336465E0,1.0920901E1,0E0,0E0,5.3521633E-2,4.7885695E0,0E0,0E0,0E0,0E0,0E0,0E0,0E0,0E0,0E0,0E0,0E0,0E0,0E0,0E0],"parents":[2147483647,0,0,1,1,2,2,3,3,4,4,5,5,6,6,7,7,8,8,9,9,10,10,11,11,14,14,16,16,18,18,20,20,21,21,22,22,25,25,26,26],"right_children":[2,4,6,8,10,12,14,16,18,20,22,24,-1,-1,26,-1,28,-1,30,-1,32,34,36,-1,-1,38,40,-1,-1,-1,-1,-1,-1,-1,-1,-1,-1,-1,-1,-1,-1],"split_conditions":[3E0,2.1E1,3.4E1,4.6875E-1,2.7E1,2.1E1,3.5E1,1.3461539E-1,8E0,2.6086956E-1,4.1E1,4E0,-4.8217807E-2,6.523124E-2,4.7E1,-4.518451E-4,2E1,3.764551E-2,6.875E-1,3.5034828E-3,4.8E-1,4E1,4.7E1,-3.1515818E-2,1.0327729E-2,4.4E-1,5.5E1,3.3150982E-2,5.764698E-2,-2.2678118E-2,-9.3727285E-5,-6.3027315E-2,-1.759293E-2,2.8812094E-3,5.188642E-2,-7.307939E-2,5.379045E-3,-5.5136472E-2,-1.5690131E-2,1.8240908E-2,-2.3388626E-2],"split_indices":[1,0,0,4,0,0,0,4,0,4,0,1,0,0,0,0,0,0,4,0,4,0,0,0,0,4,0,0,0,0,0,0,0,0,0,0,0,0,0,0,0],"split_type":[0,0,0,0,0,0,0,0,0,0,0,0,0,0,0,0,0,0,0,0,0,0,0,0,0,0,0,0,0,0,0,0,0,0,0,0,0,0,0,0,0],"sum_hessian":[1.4164981E2,9.237532E1,4.9274483E1,2.5880632E1,6.649469E1,1.236309E1,3.6911392E1,1.7205244E1,8.675389E0,4.8008385E0,6.169385E1,4.6639385E0,7.6991506E0,1.9886516E0,3.492274E1,1.3019937E0,1.590325E1,1.3617384E0,7.3136506E0,1.0380843E0,3.7627544E0,2.6219065E1,3.5474785E1,3.2078395E0,1.4560989E0,6.064647E0,2.8858095E1,1.0968251E1,4.934999E0,4.66422E0,2.6494305E0,2.5530047E0,1.2097497E0,1.9335733E1,6.8833313E0,4.1458106E0,3.1328976E1,4.911384E0,1.1532634E0,9.578247E0,1.9279848E1],"tree_param":{"num_deleted":"0","num_feature":"5","num_nodes":"41","size_leaf_vector":"1"}},{"base_weights":[-2.8141523E-2,6.830611E-1,-1.504829E-1,3.931641E-2,-1.5809292E-2,1.6375203E-2,-4.0751216E-1,-2.4202844E-2,1.9935671E-2,6.319979E-2,-5.2169602E-2,-5.1643765E-1,5.218553E-1,-4.8440196E-2,6.559746E-1,-7.172311E-1,-2.780085E-1,4.660797E-2,-2.4874445E-2,6.019345E-3,